<?xml version="1.0"?>
<opencv_storage>
<my_nb type_id="opencv-ml-bayesian">
  <var_count>49</var_count>
  <var_all>49</var_all>
  <cls_labels type_id="opencv-matrix">
    <rows>1</rows>
    <cols>7</cols>
    <dt>i</dt>
    <data>
      -1 0 1 2 3 4 5</data></cls_labels>
  <count>
    <_ type_id="opencv-matrix">
      <rows>1</rows>
      <cols>49</cols>
      <dt>i</dt>
      <data>
        2 2 2 2 2 2 2 2 2 2 2 2 2 2 2 2 2 2 2 2 2 2 2 2 2 2 2 2 2 2 2 2
        2 2 2 2 2 2 2 2 2 2 2 2 2 2 2 2 2</data></_>
    <_ type_id="opencv-matrix">
      <rows>1</rows>
      <cols>49</cols>
      <dt>i</dt>
      <data>
        205 205 205 205 205 205 205 205 205 205 205 205 205 205 205 205
        205 205 205 205 205 205 205 205 205 205 205 205 205 205 205 205
        205 205 205 205 205 205 205 205 205 205 205 205 205 205 205 205
        205</data></_>
    <_ type_id="opencv-matrix">
      <rows>1</rows>
      <cols>49</cols>
      <dt>i</dt>
      <data>
        529 529 529 529 529 529 529 529 529 529 529 529 529 529 529 529
        529 529 529 529 529 529 529 529 529 529 529 529 529 529 529 529
        529 529 529 529 529 529 529 529 529 529 529 529 529 529 529 529
        529</data></_>
    <_ type_id="opencv-matrix">
      <rows>1</rows>
      <cols>49</cols>
      <dt>i</dt>
      <data>
        152 152 152 152 152 152 152 152 152 152 152 152 152 152 152 152
        152 152 152 152 152 152 152 152 152 152 152 152 152 152 152 152
        152 152 152 152 152 152 152 152 152 152 152 152 152 152 152 152
        152</data></_>
    <_ type_id="opencv-matrix">
      <rows>1</rows>
      <cols>49</cols>
      <dt>i</dt>
      <data>
        184 184 184 184 184 184 184 184 184 184 184 184 184 184 184 184
        184 184 184 184 184 184 184 184 184 184 184 184 184 184 184 184
        184 184 184 184 184 184 184 184 184 184 184 184 184 184 184 184
        184</data></_>
    <_ type_id="opencv-matrix">
      <rows>1</rows>
      <cols>49</cols>
      <dt>i</dt>
      <data>
        157 157 157 157 157 157 157 157 157 157 157 157 157 157 157 157
        157 157 157 157 157 157 157 157 157 157 157 157 157 157 157 157
        157 157 157 157 157 157 157 157 157 157 157 157 157 157 157 157
        157</data></_>
    <_ type_id="opencv-matrix">
      <rows>1</rows>
      <cols>49</cols>
      <dt>i</dt>
      <data>
        317 317 317 317 317 317 317 317 317 317 317 317 317 317 317 317
        317 317 317 317 317 317 317 317 317 317 317 317 317 317 317 317
        317 317 317 317 317 317 317 317 317 317 317 317 317 317 317 317
        317</data></_></count>
  <sum>
    <_ type_id="opencv-matrix">
      <rows>1</rows>
      <cols>49</cols>
      <dt>d</dt>
      <data>
        0. 7.7922075986862183e-01 1.8181818723678589e+00
        1.3246753215789795e+00 9.6103894710540771e-01
        3.3766233921051025e-01 0. 3.8961037993431091e-01
        1.8961038589477539e+00 2. 2. 2. 1.9740259647369385e+00
        7.2727274894714355e-01 1.3246753215789795e+00 2. 2. 2. 2. 2.
        1.9220778942108154e+00 8.8311690092086792e-01 2. 2. 2. 2. 2. 2.
        1.2987012863159180e+00 2. 2. 2. 2. 2. 2. 9.3506491184234619e-01
        2. 2. 2. 2. 2. 2. 2.0779220759868622e-01 1.9740259647369385e+00
        2. 2. 2. 2. 1.7662338018417358e+00</data></_>
    <_ type_id="opencv-matrix">
      <rows>1</rows>
      <cols>49</cols>
      <dt>d</dt>
      <data>
        8.2243519220501184e+00 6.6426500841975212e+01
        1.0427508659660816e+02 6.5783966340124607e+01
        2.3731909051537514e+01 1.1447562288492918e+01
        6.9527777507901192e+00 5.0656528726220131e+01
        1.3733539671450853e+02 1.3823334763944149e+02
        1.3293673603236675e+02 1.0364336871355772e+02
        4.7776408788748085e+01 3.1839342670515180e+01
        9.9501973488368094e+01 1.6149652788415551e+02
        1.6907222241535783e+02 1.6872835909202695e+02
        1.5983059608191252e+02 1.1333084033802152e+02
        6.0651074439287186e+01 1.3561123961955309e+02
        1.9033194446563721e+02 2.0171944439411163e+02
        1.9881230157613754e+02 1.9234305566549301e+02
        1.7350983060896397e+02 1.0939247278589755e+02
        1.4269549397379160e+02 2.0204701739549637e+02
        2.0427430558204651e+02 2.0420727038383484e+02
        2.0018750000000000e+02 1.9499599567055702e+02
        1.6801592017710209e+02 9.7653667241334915e+01
        1.8988340297341347e+02 2.0055025523900986e+02
        2.0311495053768158e+02 2.0112878787517548e+02
        1.9793055552244186e+02 1.8696285119652748e+02
        2.8501333905383945e+01 1.0965406488627195e+02
        1.5334100951999426e+02 1.7590607678145170e+02
        1.8610514613986015e+02 1.9538527186587453e+02
        1.9045500440523028e+02</data></_>
    <_ type_id="opencv-matrix">
      <rows>1</rows>
      <cols>49</cols>
      <dt>d</dt>
      <data>
        4.5197731232270598e+01 9.4671963623724878e+01
        2.2670326433703303e+02 2.1952944989129901e+02
        1.4498778418265283e+02 7.1144330907613039e+01
        2.8118927247822285e+01 1.3658138539642096e+02
        2.0252756240777671e+02 3.8056934153288603e+02
        3.9174639539420605e+02 3.0721722600050271e+02
        2.1266703175008297e+02 8.0385435128584504e+01
        9.5504870921373367e+01 2.4516468890756369e+02
        4.0927618817612529e+02 4.5838248587399721e+02
        4.1965372827649117e+02 3.5304979407973588e+02
        1.9457717340253294e+02 8.0739551507867873e+01
        3.0015894297882915e+02 4.4367650675773621e+02
        4.9580480533093214e+02 4.9553845680505037e+02
        4.3694238338619471e+02 3.0933558483235538e+02
        1.0762353701144457e+02 2.5427958586718887e+02
        4.6204992806911469e+02 5.1319202795624733e+02
        5.2457971900701523e+02 4.9441809945553541e+02
        4.0013523476570845e+02 1.2156097402796149e+02
        2.3303849635552615e+02 4.4639597249031067e+02
        5.1125264838337898e+02 5.2562202382087708e+02
        5.2367949205636978e+02 4.6829137222841382e+02
        8.2662954173982143e+01 1.7302485352195799e+02
        2.9889294674061239e+02 4.3428374005109072e+02
        4.8497567325271666e+02 5.1321529710292816e+02
        5.1476862141489983e+02</data></_>
    <_ type_id="opencv-matrix">
      <rows>1</rows>
      <cols>49</cols>
      <dt>d</dt>
      <data>
        4.2265338059514761e+01 6.7073136150836945e+01
        7.1561207324266434e+01 6.7719745367765427e+01
        5.9282563919201493e+01 4.1478868093341589e+01
        3.3946717180311680e+01 6.3901169735938311e+01
        8.7010274551808834e+01 9.7160129204392433e+01
        9.8186012163758278e+01 8.9349134400486946e+01
        6.3389534242451191e+01 4.8568390324711800e+01
        5.8152749657630920e+01 8.5137766599655151e+01
        1.0036744835041463e+02 1.1261240098997951e+02
        1.2067222228646278e+02 1.0170119959115982e+02
        7.6286768756806850e+01 5.2448674380779266e+01
        8.1096022754907608e+01 1.0863173396699131e+02
        1.2251375655084848e+02 1.3138968259096146e+02
        1.2477301597595215e+02 1.0880976846814156e+02
        4.4218526056036353e+01 8.1291746206581593e+01
        1.1456871701776981e+02 1.3267273960635066e+02
        1.3768055561184883e+02 1.3443680560588837e+02
        1.2481412030756474e+02 4.9716807719320059e+01
        8.2763917058706284e+01 1.1380383607745171e+02
        1.3129077400267124e+02 1.4483184524253011e+02
        1.4485204088687897e+02 1.3847380955517292e+02
        1.7238023191690445e+01 3.3416120070964098e+01
        7.2297762922942638e+01 9.7879254065454006e+01
        1.2383087534457445e+02 1.3427539612725377e+02
        1.4076897555589676e+02</data></_>
    <_ type_id="opencv-matrix">
      <rows>1</rows>
      <cols>49</cols>
      <dt>d</dt>
      <data>
        1.4500000000000000e+01 1.5820238128304482e+01
        1.6691567510366440e+01 1.5839781761169434e+01
        2.1529431298375130e+01 5.4671064237132668e+01
        5.5225621970370412e+01 2.5945468132384121e+01
        4.6869358044117689e+01 3.0341981559991837e+01
        1.9689257400110364e+01 1.9373938865959644e+01
        5.0948475597426295e+01 1.0196091826260090e+02
        2.9335050232708454e+01 8.6372464083135128e+01
        1.0687588093988597e+02 6.3793256906792521e+01
        2.8438664111308753e+01 3.8424607045017183e+01
        1.1182545471936464e+02 2.1261728581041098e+01
        3.7156140875071287e+01 8.1064180895686150e+01
        1.4215063622966409e+02 1.1427435278892517e+02
        9.8479996930807829e+01 1.4477488957718015e+02
        4.3884164547547698e+01 5.3104940675199032e+01
        6.1371850240975618e+01 1.3013793294876814e+02
        1.7646014276146889e+02 1.7151238083839417e+02
        1.7956708332896233e+02 6.8957126157358289e+01
        8.7235800739377737e+01 1.1043557941913605e+02
        1.5887468755245209e+02 1.8299199131131172e+02
        1.8278214281797409e+02 1.8333660715818405e+02
        2.6327072676271200e+01 3.6474913414567709e+01
        5.3109741518273950e+01 1.0481938510574400e+02
        1.7501581016182899e+02 1.8307849419116974e+02
        1.8380303025245667e+02</data></_>
    <_ type_id="opencv-matrix">
      <rows>1</rows>
      <cols>49</cols>
      <dt>d</dt>
      <data>
        1.6417176250368357e+01 8.4121883779764175e+01
        7.2677754148840904e+01 3.3015678197145462e+01
        3.7115693434141576e+01 3.2893130958080292e+01
        2.1090312436223030e+01 2.0408917658030987e+01
        3.9094256337266415e+01 9.3303191566839814e+01
        1.2001009017229080e+02 1.1798342839255929e+02
        1.0970420723408461e+02 7.2320216409862041e+01
        3.8921292293816805e+01 5.3294256675988436e+01
        5.0123499292880297e+01 1.0828260961361229e+02
        1.3517539685964584e+02 1.3408140325546265e+02
        1.1832802253216505e+02 6.1428866181522608e+01
        8.9317734547890723e+01 1.0800913418829441e+02
        1.3167265230789781e+02 1.4110734151676297e+02
        1.4329404780268669e+02 1.3910778336599469e+02
        4.1448461810126901e+01 6.7466074442490935e+01
        1.0025871057435870e+02 1.4326176422834396e+02
        1.5436904752254486e+02 1.5472916668653488e+02
        1.5071914046350867e+02 3.4183060324750841e+01
        6.6393243986181915e+01 8.3040713630616665e+01
        1.3072115668654442e+02 1.5115313857793808e+02 155.
        1.5439930564165115e+02 1.8982041237875819e+01
        4.7306710812263191e+01 8.1518151869997382e+01
        1.2228700616583228e+02 1.3715062858629972e+02
        1.4186139202117920e+02 1.5092292308807373e+02</data></_>
    <_ type_id="opencv-matrix">
      <rows>1</rows>
      <cols>49</cols>
      <dt>d</dt>
      <data>
        3.2571942763403058e+01 4.6372634378261864e+01
        4.5963523980230093e+01 4.3597889645025134e+01
        4.4590866310521960e+01 6.1171417364850640e+01
        1.0256737160403281e+02 2.1865940458141267e+01
        9.2606181271374226e+01 8.9357088750228286e+01
        6.5756089592352509e+01 5.4102210447192192e+01
        6.6811826923862100e+01 1.1979028180148453e+02
        5.5515688540413976e+01 1.4683986667916179e+02
        1.8275124601274729e+02 1.7575701874867082e+02
        1.1057359008863568e+02 7.0734332252293825e+01
        1.0380541105475277e+02 9.2423609677702188e+01
        1.7235058037191629e+02 2.1259080416709185e+02
        2.5901931511051953e+02 2.5681443177163601e+02
        2.0706017699465156e+02 2.0251254078373313e+02
        1.0759141298010945e+02 1.7061553538218141e+02
        2.1634097649157047e+02 2.6345236271619797e+02
        3.0961081422865391e+02 3.0724285662174225e+02
        3.0905000001192093e+02 6.6060477530583739e+01
        1.7449869373068213e+02 2.4060393807664514e+02
        2.8715886601246893e+02 3.0726053372025490e+02
        3.1498701298236847e+02 315. 2.3337733734399080e+01
        9.5404409507289529e+01 1.7885600880533457e+02
        2.6277013553306460e+02 2.9997797474078834e+02
        3.0852192738652229e+02 3.1292063495516777e+02</data></_></sum>
  <productsum>
    <_ type_id="opencv-matrix">
      <rows>49</rows>
      <cols>49</cols>
      <dt>d</dt>
      <data>
        0. 0. 0. 0. 0. 0. 0. 0. 0. 0. 0. 0. 0. 0. 0. 0. 0. 0. 0. 0. 0.
        0. 0. 0. 0. 0. 0. 0. 0. 0. 0. 0. 0. 0. 0. 0. 0. 0. 0. 0. 0. 0.
        0. 0. 0. 0. 0. 0. 0. 0. 3.0359249630511620e-01
        7.0838253008291829e-01 5.1610725532999169e-01
        3.7443074931340803e-01 1.3155675226931507e-01 0.
        1.5179624815255810e-01 7.3874174487954747e-01
        7.7922075986862183e-01 7.7922075986862183e-01
        7.7922075986862183e-01 7.6910100612135324e-01
        2.8335301203316732e-01 5.1610725532999169e-01
        7.7922075986862183e-01 7.7922075986862183e-01
        7.7922075986862183e-01 7.7922075986862183e-01
        7.7922075986862183e-01 7.4886149862681606e-01
        3.4407151129419056e-01 7.7922075986862183e-01
        7.7922075986862183e-01 7.7922075986862183e-01
        7.7922075986862183e-01 7.7922075986862183e-01
        7.7922075986862183e-01 5.0598750158272310e-01
        7.7922075986862183e-01 7.7922075986862183e-01
        7.7922075986862183e-01 7.7922075986862183e-01
        7.7922075986862183e-01 7.7922075986862183e-01
        3.6431099556613944e-01 7.7922075986862183e-01
        7.7922075986862183e-01 7.7922075986862183e-01
        7.7922075986862183e-01 7.7922075986862183e-01
        7.7922075986862183e-01 8.0958000949913345e-02
        7.6910100612135324e-01 7.7922075986862183e-01
        7.7922075986862183e-01 7.7922075986862183e-01
        7.7922075986862183e-01 6.8814302258838111e-01 0.
        7.0838253008291829e-01 1.6528926605035466e+00
        1.2042503282339823e+00 8.7367179613327295e-01
        3.0696577206693831e-01 0. 3.5419126504145915e-01
        1.7237308322327749e+00 1.8181818723678589e+00
        1.8181818723678589e+00 1.8181818723678589e+00
        1.7945691123340879e+00 6.6115706420141862e-01
        1.2042503282339823e+00 1.8181818723678589e+00
        1.8181818723678589e+00 1.8181818723678589e+00
        1.8181818723678589e+00 1.8181818723678589e+00
        1.7473435922665459e+00 8.0283357021800228e-01
        1.8181818723678589e+00 1.8181818723678589e+00
        1.8181818723678589e+00 1.8181818723678589e+00
        1.8181818723678589e+00 1.8181818723678589e+00
        1.1806375682002113e+00 1.8181818723678589e+00
        1.8181818723678589e+00 1.8181818723678589e+00
        1.8181818723678589e+00 1.8181818723678589e+00
        1.8181818723678589e+00 8.5005903609950195e-01
        1.8181818723678589e+00 1.8181818723678589e+00
        1.8181818723678589e+00 1.8181818723678589e+00
        1.8181818723678589e+00 1.8181818723678589e+00
        1.8890201253761507e-01 1.7945691123340879e+00
        1.8181818723678589e+00 1.8181818723678589e+00
        1.8181818723678589e+00 1.8181818723678589e+00
        1.6056671404360046e+00 0. 5.1610725532999169e-01
        1.2042503282339823e+00 8.7738235380018637e-01
        6.3653228815338991e-01 2.2364648388939656e-01 0.
        2.5805362766499584e-01 1.2558609945493799e+00
        1.3246753215789795e+00 1.3246753215789795e+00
        1.3246753215789795e+00 1.3074717398215796e+00
        4.8170013129359290e-01 8.7738235380018637e-01
        1.3246753215789795e+00 1.3246753215789795e+00
        1.3246753215789795e+00 1.3246753215789795e+00
        1.3246753215789795e+00 1.2730645763067798e+00
        5.8492158235959124e-01 1.3246753215789795e+00
        1.3246753215789795e+00 1.3246753215789795e+00
        1.3246753215789795e+00 1.3246753215789795e+00
        1.3246753215789795e+00 8.6017877204278648e-01
        1.3246753215789795e+00 1.3246753215789795e+00
        1.3246753215789795e+00 1.3246753215789795e+00
        1.3246753215789795e+00 1.3246753215789795e+00
        6.1932870639599003e-01 1.3246753215789795e+00
        1.3246753215789795e+00 1.3246753215789795e+00
        1.3246753215789795e+00 1.3246753215789795e+00
        1.3246753215789795e+00 1.3762860471119787e-01
        1.3074717398215796e+00 1.3246753215789795e+00
        1.3246753215789795e+00 1.3246753215789795e+00
        1.3246753215789795e+00 1.1698431647191825e+00 0.
        3.7443074931340803e-01 8.7367179613327295e-01
        6.3653228815338991e-01 4.6179792892673532e-01
        1.6225332947600890e-01 0. 1.8721537465670401e-01
        9.1111482810282496e-01 9.6103894710540771e-01
        9.6103894710540771e-01 9.6103894710540771e-01
        9.4855791735476203e-01 3.4946871845330918e-01
        6.3653228815338991e-01 9.6103894710540771e-01
        9.6103894710540771e-01 9.6103894710540771e-01
        9.6103894710540771e-01 9.6103894710540771e-01
        9.2359585785347065e-01 4.2435486831599079e-01
        9.6103894710540771e-01 9.6103894710540771e-01
        9.6103894710540771e-01 9.6103894710540771e-01
        9.6103894710540771e-01 9.6103894710540771e-01
        6.2405125840274422e-01 9.6103894710540771e-01
        9.6103894710540771e-01 9.6103894710540771e-01
        9.6103894710540771e-01 9.6103894710540771e-01
        9.6103894710540771e-01 4.4931689917608963e-01
        9.6103894710540771e-01 9.6103894710540771e-01
        9.6103894710540771e-01 9.6103894710540771e-01
        9.6103894710540771e-01 9.6103894710540771e-01
        9.9848202203674852e-02 9.4855791735476203e-01
        9.6103894710540771e-01 9.6103894710540771e-01
        9.6103894710540771e-01 9.6103894710540771e-01
        8.4870973663198157e-01 0. 1.3155675226931507e-01
        3.0696577206693831e-01 2.2364648388939656e-01
        1.6225332947600890e-01 5.7007927660556845e-02 0.
        6.5778376134657535e-02 3.2012143219918698e-01
        3.3766233921051025e-01 3.3766233921051025e-01
        3.3766233921051025e-01 3.3327711245767944e-01
        1.2278630882677533e-01 2.2364648388939656e-01
        3.3766233921051025e-01 3.3766233921051025e-01
        3.3766233921051025e-01 3.3766233921051025e-01
        3.3766233921051025e-01 3.2450665895201780e-01
        1.4909765928063834e-01 3.3766233921051025e-01
        3.3766233921051025e-01 3.3766233921051025e-01
        3.3766233921051025e-01 3.3766233921051025e-01
        3.3766233921051025e-01 2.1926125713656575e-01
        3.3766233921051025e-01 3.3766233921051025e-01
        3.3766233921051025e-01 3.3766233921051025e-01
        3.3766233921051025e-01 3.3766233921051025e-01
        1.5786810272317808e-01 3.3766233921051025e-01
        3.3766233921051025e-01 3.3766233921051025e-01
        3.3766233921051025e-01 3.3766233921051025e-01
        3.3766233921051025e-01 3.5081801443744176e-02
        3.3327711245767944e-01 3.3766233921051025e-01
        3.3766233921051025e-01 3.3766233921051025e-01
        3.3766233921051025e-01 2.9819531856127668e-01 0. 0. 0. 0. 0. 0.
        0. 0. 0. 0. 0. 0. 0. 0. 0. 0. 0. 0. 0. 0. 0. 0. 0. 0. 0. 0. 0.
        0. 0. 0. 0. 0. 0. 0. 0. 0. 0. 0. 0. 0. 0. 0. 0. 0. 0. 0. 0. 0.
        0. 0. 1.5179624815255810e-01 3.5419126504145915e-01
        2.5805362766499584e-01 1.8721537465670401e-01
        6.5778376134657535e-02 0. 7.5898124076279050e-02
        3.6937087243977373e-01 3.8961037993431091e-01
        3.8961037993431091e-01 3.8961037993431091e-01
        3.8455050306067662e-01 1.4167650601658366e-01
        2.5805362766499584e-01 3.8961037993431091e-01
        3.8961037993431091e-01 3.8961037993431091e-01
        3.8961037993431091e-01 3.8961037993431091e-01
        3.7443074931340803e-01 1.7203575564709528e-01
        3.8961037993431091e-01 3.8961037993431091e-01
        3.8961037993431091e-01 3.8961037993431091e-01
        3.8961037993431091e-01 3.8961037993431091e-01
        2.5299375079136155e-01 3.8961037993431091e-01
        3.8961037993431091e-01 3.8961037993431091e-01
        3.8961037993431091e-01 3.8961037993431091e-01
        3.8961037993431091e-01 1.8215549778306972e-01
        3.8961037993431091e-01 3.8961037993431091e-01
        3.8961037993431091e-01 3.8961037993431091e-01
        3.8961037993431091e-01 3.8961037993431091e-01
        4.0479000474956672e-02 3.8455050306067662e-01
        3.8961037993431091e-01 3.8961037993431091e-01
        3.8961037993431091e-01 3.8961037993431091e-01
        3.4407151129419056e-01 0. 7.3874174487954747e-01
        1.7237308322327749e+00 1.2558609945493799e+00
        9.1111482810282496e-01 3.2012143219918698e-01 0.
        3.6937087243977373e-01 1.7976049219582819e+00
        1.8961038589477539e+00 1.8961038589477539e+00
        1.8961038589477539e+00 1.8714791247003859e+00
        6.8949233289310996e-01 1.2558609945493799e+00
        1.8961038589477539e+00 1.8961038589477539e+00
        1.8961038589477539e+00 1.8961038589477539e+00
        1.8961038589477539e+00 1.8222296562056499e+00
        8.3724068186901945e-01 1.8961038589477539e+00
        1.8961038589477539e+00 1.8961038589477539e+00
        1.8961038589477539e+00 1.8961038589477539e+00
        1.8961038589477539e+00 1.2312362603020119e+00
        1.8961038589477539e+00 1.8961038589477539e+00
        1.8961038589477539e+00 1.8961038589477539e+00
        1.8961038589477539e+00 1.8961038589477539e+00
        8.8649009385545696e-01 1.8961038589477539e+00
        1.8961038589477539e+00 1.8961038589477539e+00
        1.8961038589477539e+00 1.8961038589477539e+00
        1.8961038589477539e+00 1.9699780334357087e-01
        1.8714791247003859e+00 1.8961038589477539e+00
        1.8961038589477539e+00 1.8961038589477539e+00
        1.8961038589477539e+00 1.6744813637380389e+00 0.
        7.7922075986862183e-01 1.8181818723678589e+00
        1.3246753215789795e+00 9.6103894710540771e-01
        3.3766233921051025e-01 0. 3.8961037993431091e-01
        1.8961038589477539e+00 2. 2. 2. 1.9740259647369385e+00
        7.2727274894714355e-01 1.3246753215789795e+00 2. 2. 2. 2. 2.
        1.9220778942108154e+00 8.8311690092086792e-01 2. 2. 2. 2. 2. 2.
        1.2987012863159180e+00 2. 2. 2. 2. 2. 2. 9.3506491184234619e-01
        2. 2. 2. 2. 2. 2. 2.0779220759868622e-01 1.9740259647369385e+00
        2. 2. 2. 2. 1.7662338018417358e+00 0. 7.7922075986862183e-01
        1.8181818723678589e+00 1.3246753215789795e+00
        9.6103894710540771e-01 3.3766233921051025e-01 0.
        3.8961037993431091e-01 1.8961038589477539e+00 2. 2. 2.
        1.9740259647369385e+00 7.2727274894714355e-01
        1.3246753215789795e+00 2. 2. 2. 2. 2. 1.9220778942108154e+00
        8.8311690092086792e-01 2. 2. 2. 2. 2. 2. 1.2987012863159180e+00
        2. 2. 2. 2. 2. 2. 9.3506491184234619e-01 2. 2. 2. 2. 2. 2.
        2.0779220759868622e-01 1.9740259647369385e+00 2. 2. 2. 2.
        1.7662338018417358e+00 0. 7.7922075986862183e-01
        1.8181818723678589e+00 1.3246753215789795e+00
        9.6103894710540771e-01 3.3766233921051025e-01 0.
        3.8961037993431091e-01 1.8961038589477539e+00 2. 2. 2.
        1.9740259647369385e+00 7.2727274894714355e-01
        1.3246753215789795e+00 2. 2. 2. 2. 2. 1.9220778942108154e+00
        8.8311690092086792e-01 2. 2. 2. 2. 2. 2. 1.2987012863159180e+00
        2. 2. 2. 2. 2. 2. 9.3506491184234619e-01 2. 2. 2. 2. 2. 2.
        2.0779220759868622e-01 1.9740259647369385e+00 2. 2. 2. 2.
        1.7662338018417358e+00 0. 7.6910100612135324e-01
        1.7945691123340879e+00 1.3074717398215796e+00
        9.4855791735476203e-01 3.3327711245767944e-01 0.
        3.8455050306067662e-01 1.8714791247003859e+00
        1.9740259647369385e+00 1.9740259647369385e+00
        1.9740259647369385e+00 1.9483892547278003e+00
        7.1782764493363516e-01 1.3074717398215796e+00
        1.9740259647369385e+00 1.9740259647369385e+00
        1.9740259647369385e+00 1.9740259647369385e+00
        1.9740259647369385e+00 1.8971158347095241e+00
        8.7164784615790580e-01 1.9740259647369385e+00
        1.9740259647369385e+00 1.9740259647369385e+00
        1.9740259647369385e+00 1.9740259647369385e+00
        1.9740259647369385e+00 1.2818350298124415e+00
        1.9740259647369385e+00 1.9740259647369385e+00
        1.9740259647369385e+00 1.9740259647369385e+00
        1.9740259647369385e+00 1.9740259647369385e+00
        9.2292120734562388e-01 1.9740259647369385e+00
        1.9740259647369385e+00 1.9740259647369385e+00
        1.9740259647369385e+00 1.9740259647369385e+00
        1.9740259647369385e+00 2.0509360653490738e-01
        1.9483892547278003e+00 1.9740259647369385e+00
        1.9740259647369385e+00 1.9740259647369385e+00
        1.9740259647369385e+00 1.7432956923158116e+00 0.
        2.8335301203316732e-01 6.6115706420141862e-01
        4.8170013129359290e-01 3.4946871845330918e-01
        1.2278630882677533e-01 0. 1.4167650601658366e-01
        6.8949233289310996e-01 7.2727274894714355e-01
        7.2727274894714355e-01 7.2727274894714355e-01
        7.1782764493363516e-01 2.6446282568056745e-01
        4.8170013129359290e-01 7.2727274894714355e-01
        7.2727274894714355e-01 7.2727274894714355e-01
        7.2727274894714355e-01 7.2727274894714355e-01
        6.9893743690661836e-01 3.2113342808720091e-01
        7.2727274894714355e-01 7.2727274894714355e-01
        7.2727274894714355e-01 7.2727274894714355e-01
        7.2727274894714355e-01 7.2727274894714355e-01
        4.7225502728008451e-01 7.2727274894714355e-01
        7.2727274894714355e-01 7.2727274894714355e-01
        7.2727274894714355e-01 7.2727274894714355e-01
        7.2727274894714355e-01 3.4002361443980078e-01
        7.2727274894714355e-01 7.2727274894714355e-01
        7.2727274894714355e-01 7.2727274894714355e-01
        7.2727274894714355e-01 7.2727274894714355e-01
        7.5560805015046029e-02 7.1782764493363516e-01
        7.2727274894714355e-01 7.2727274894714355e-01
        7.2727274894714355e-01 7.2727274894714355e-01
        6.4226685617440182e-01 0. 5.1610725532999169e-01
        1.2042503282339823e+00 8.7738235380018637e-01
        6.3653228815338991e-01 2.2364648388939656e-01 0.
        2.5805362766499584e-01 1.2558609945493799e+00
        1.3246753215789795e+00 1.3246753215789795e+00
        1.3246753215789795e+00 1.3074717398215796e+00
        4.8170013129359290e-01 8.7738235380018637e-01
        1.3246753215789795e+00 1.3246753215789795e+00
        1.3246753215789795e+00 1.3246753215789795e+00
        1.3246753215789795e+00 1.2730645763067798e+00
        5.8492158235959124e-01 1.3246753215789795e+00
        1.3246753215789795e+00 1.3246753215789795e+00
        1.3246753215789795e+00 1.3246753215789795e+00
        1.3246753215789795e+00 8.6017877204278648e-01
        1.3246753215789795e+00 1.3246753215789795e+00
        1.3246753215789795e+00 1.3246753215789795e+00
        1.3246753215789795e+00 1.3246753215789795e+00
        6.1932870639599003e-01 1.3246753215789795e+00
        1.3246753215789795e+00 1.3246753215789795e+00
        1.3246753215789795e+00 1.3246753215789795e+00
        1.3246753215789795e+00 1.3762860471119787e-01
        1.3074717398215796e+00 1.3246753215789795e+00
        1.3246753215789795e+00 1.3246753215789795e+00
        1.3246753215789795e+00 1.1698431647191825e+00 0.
        7.7922075986862183e-01 1.8181818723678589e+00
        1.3246753215789795e+00 9.6103894710540771e-01
        3.3766233921051025e-01 0. 3.8961037993431091e-01
        1.8961038589477539e+00 2. 2. 2. 1.9740259647369385e+00
        7.2727274894714355e-01 1.3246753215789795e+00 2. 2. 2. 2. 2.
        1.9220778942108154e+00 8.8311690092086792e-01 2. 2. 2. 2. 2. 2.
        1.2987012863159180e+00 2. 2. 2. 2. 2. 2. 9.3506491184234619e-01
        2. 2. 2. 2. 2. 2. 2.0779220759868622e-01 1.9740259647369385e+00
        2. 2. 2. 2. 1.7662338018417358e+00 0. 7.7922075986862183e-01
        1.8181818723678589e+00 1.3246753215789795e+00
        9.6103894710540771e-01 3.3766233921051025e-01 0.
        3.8961037993431091e-01 1.8961038589477539e+00 2. 2. 2.
        1.9740259647369385e+00 7.2727274894714355e-01
        1.3246753215789795e+00 2. 2. 2. 2. 2. 1.9220778942108154e+00
        8.8311690092086792e-01 2. 2. 2. 2. 2. 2. 1.2987012863159180e+00
        2. 2. 2. 2. 2. 2. 9.3506491184234619e-01 2. 2. 2. 2. 2. 2.
        2.0779220759868622e-01 1.9740259647369385e+00 2. 2. 2. 2.
        1.7662338018417358e+00 0. 7.7922075986862183e-01
        1.8181818723678589e+00 1.3246753215789795e+00
        9.6103894710540771e-01 3.3766233921051025e-01 0.
        3.8961037993431091e-01 1.8961038589477539e+00 2. 2. 2.
        1.9740259647369385e+00 7.2727274894714355e-01
        1.3246753215789795e+00 2. 2. 2. 2. 2. 1.9220778942108154e+00
        8.8311690092086792e-01 2. 2. 2. 2. 2. 2. 1.2987012863159180e+00
        2. 2. 2. 2. 2. 2. 9.3506491184234619e-01 2. 2. 2. 2. 2. 2.
        2.0779220759868622e-01 1.9740259647369385e+00 2. 2. 2. 2.
        1.7662338018417358e+00 0. 7.7922075986862183e-01
        1.8181818723678589e+00 1.3246753215789795e+00
        9.6103894710540771e-01 3.3766233921051025e-01 0.
        3.8961037993431091e-01 1.8961038589477539e+00 2. 2. 2.
        1.9740259647369385e+00 7.2727274894714355e-01
        1.3246753215789795e+00 2. 2. 2. 2. 2. 1.9220778942108154e+00
        8.8311690092086792e-01 2. 2. 2. 2. 2. 2. 1.2987012863159180e+00
        2. 2. 2. 2. 2. 2. 9.3506491184234619e-01 2. 2. 2. 2. 2. 2.
        2.0779220759868622e-01 1.9740259647369385e+00 2. 2. 2. 2.
        1.7662338018417358e+00 0. 7.7922075986862183e-01
        1.8181818723678589e+00 1.3246753215789795e+00
        9.6103894710540771e-01 3.3766233921051025e-01 0.
        3.8961037993431091e-01 1.8961038589477539e+00 2. 2. 2.
        1.9740259647369385e+00 7.2727274894714355e-01
        1.3246753215789795e+00 2. 2. 2. 2. 2. 1.9220778942108154e+00
        8.8311690092086792e-01 2. 2. 2. 2. 2. 2. 1.2987012863159180e+00
        2. 2. 2. 2. 2. 2. 9.3506491184234619e-01 2. 2. 2. 2. 2. 2.
        2.0779220759868622e-01 1.9740259647369385e+00 2. 2. 2. 2.
        1.7662338018417358e+00 0. 7.4886149862681606e-01
        1.7473435922665459e+00 1.2730645763067798e+00
        9.2359585785347065e-01 3.2450665895201780e-01 0.
        3.7443074931340803e-01 1.8222296562056499e+00
        1.9220778942108154e+00 1.9220778942108154e+00
        1.9220778942108154e+00 1.8971158347095241e+00
        6.9893743690661836e-01 1.2730645763067798e+00
        1.9220778942108154e+00 1.9220778942108154e+00
        1.9220778942108154e+00 1.9220778942108154e+00
        1.9220778942108154e+00 1.8471917157069413e+00
        8.4870973663198157e-01 1.9220778942108154e+00
        1.9220778942108154e+00 1.9220778942108154e+00
        1.9220778942108154e+00 1.9220778942108154e+00
        1.9220778942108154e+00 1.2481025168054884e+00
        1.9220778942108154e+00 1.9220778942108154e+00
        1.9220778942108154e+00 1.9220778942108154e+00
        1.9220778942108154e+00 1.9220778942108154e+00
        8.9863379835217927e-01 1.9220778942108154e+00
        1.9220778942108154e+00 1.9220778942108154e+00
        1.9220778942108154e+00 1.9220778942108154e+00
        1.9220778942108154e+00 1.9969640440734970e-01
        1.8971158347095241e+00 1.9220778942108154e+00
        1.9220778942108154e+00 1.9220778942108154e+00
        1.9220778942108154e+00 1.6974194732639631e+00 0.
        3.4407151129419056e-01 8.0283357021800228e-01
        5.8492158235959124e-01 4.2435486831599079e-01
        1.4909765928063834e-01 0. 1.7203575564709528e-01
        8.3724068186901945e-01 8.8311690092086792e-01
        8.8311690092086792e-01 8.8311690092086792e-01
        8.7164784615790580e-01 3.2113342808720091e-01
        5.8492158235959124e-01 8.8311690092086792e-01
        8.8311690092086792e-01 8.8311690092086792e-01
        8.8311690092086792e-01 8.8311690092086792e-01
        8.4870973663198157e-01 3.8994773034603902e-01
        8.8311690092086792e-01 8.8311690092086792e-01
        8.8311690092086792e-01 8.8311690092086792e-01
        8.8311690092086792e-01 8.8311690092086792e-01
        5.7345252759662912e-01 8.8311690092086792e-01
        8.8311690092086792e-01 8.8311690092086792e-01
        8.8311690092086792e-01 8.8311690092086792e-01
        8.8311690092086792e-01 4.1288581355302867e-01
        8.8311690092086792e-01 8.8311690092086792e-01
        8.8311690092086792e-01 8.8311690092086792e-01
        8.8311690092086792e-01 8.8311690092086792e-01
        9.1752405205028698e-02 8.7164784615790580e-01
        8.8311690092086792e-01 8.8311690092086792e-01
        8.8311690092086792e-01 8.8311690092086792e-01
        7.7989546069207805e-01 0. 7.7922075986862183e-01
        1.8181818723678589e+00 1.3246753215789795e+00
        9.6103894710540771e-01 3.3766233921051025e-01 0.
        3.8961037993431091e-01 1.8961038589477539e+00 2. 2. 2.
        1.9740259647369385e+00 7.2727274894714355e-01
        1.3246753215789795e+00 2. 2. 2. 2. 2. 1.9220778942108154e+00
        8.8311690092086792e-01 2. 2. 2. 2. 2. 2. 1.2987012863159180e+00
        2. 2. 2. 2. 2. 2. 9.3506491184234619e-01 2. 2. 2. 2. 2. 2.
        2.0779220759868622e-01 1.9740259647369385e+00 2. 2. 2. 2.
        1.7662338018417358e+00 0. 7.7922075986862183e-01
        1.8181818723678589e+00 1.3246753215789795e+00
        9.6103894710540771e-01 3.3766233921051025e-01 0.
        3.8961037993431091e-01 1.8961038589477539e+00 2. 2. 2.
        1.9740259647369385e+00 7.2727274894714355e-01
        1.3246753215789795e+00 2. 2. 2. 2. 2. 1.9220778942108154e+00
        8.8311690092086792e-01 2. 2. 2. 2. 2. 2. 1.2987012863159180e+00
        2. 2. 2. 2. 2. 2. 9.3506491184234619e-01 2. 2. 2. 2. 2. 2.
        2.0779220759868622e-01 1.9740259647369385e+00 2. 2. 2. 2.
        1.7662338018417358e+00 0. 7.7922075986862183e-01
        1.8181818723678589e+00 1.3246753215789795e+00
        9.6103894710540771e-01 3.3766233921051025e-01 0.
        3.8961037993431091e-01 1.8961038589477539e+00 2. 2. 2.
        1.9740259647369385e+00 7.2727274894714355e-01
        1.3246753215789795e+00 2. 2. 2. 2. 2. 1.9220778942108154e+00
        8.8311690092086792e-01 2. 2. 2. 2. 2. 2. 1.2987012863159180e+00
        2. 2. 2. 2. 2. 2. 9.3506491184234619e-01 2. 2. 2. 2. 2. 2.
        2.0779220759868622e-01 1.9740259647369385e+00 2. 2. 2. 2.
        1.7662338018417358e+00 0. 7.7922075986862183e-01
        1.8181818723678589e+00 1.3246753215789795e+00
        9.6103894710540771e-01 3.3766233921051025e-01 0.
        3.8961037993431091e-01 1.8961038589477539e+00 2. 2. 2.
        1.9740259647369385e+00 7.2727274894714355e-01
        1.3246753215789795e+00 2. 2. 2. 2. 2. 1.9220778942108154e+00
        8.8311690092086792e-01 2. 2. 2. 2. 2. 2. 1.2987012863159180e+00
        2. 2. 2. 2. 2. 2. 9.3506491184234619e-01 2. 2. 2. 2. 2. 2.
        2.0779220759868622e-01 1.9740259647369385e+00 2. 2. 2. 2.
        1.7662338018417358e+00 0. 7.7922075986862183e-01
        1.8181818723678589e+00 1.3246753215789795e+00
        9.6103894710540771e-01 3.3766233921051025e-01 0.
        3.8961037993431091e-01 1.8961038589477539e+00 2. 2. 2.
        1.9740259647369385e+00 7.2727274894714355e-01
        1.3246753215789795e+00 2. 2. 2. 2. 2. 1.9220778942108154e+00
        8.8311690092086792e-01 2. 2. 2. 2. 2. 2. 1.2987012863159180e+00
        2. 2. 2. 2. 2. 2. 9.3506491184234619e-01 2. 2. 2. 2. 2. 2.
        2.0779220759868622e-01 1.9740259647369385e+00 2. 2. 2. 2.
        1.7662338018417358e+00 0. 7.7922075986862183e-01
        1.8181818723678589e+00 1.3246753215789795e+00
        9.6103894710540771e-01 3.3766233921051025e-01 0.
        3.8961037993431091e-01 1.8961038589477539e+00 2. 2. 2.
        1.9740259647369385e+00 7.2727274894714355e-01
        1.3246753215789795e+00 2. 2. 2. 2. 2. 1.9220778942108154e+00
        8.8311690092086792e-01 2. 2. 2. 2. 2. 2. 1.2987012863159180e+00
        2. 2. 2. 2. 2. 2. 9.3506491184234619e-01 2. 2. 2. 2. 2. 2.
        2.0779220759868622e-01 1.9740259647369385e+00 2. 2. 2. 2.
        1.7662338018417358e+00 0. 5.0598750158272310e-01
        1.1806375682002113e+00 8.6017877204278648e-01
        6.2405125840274422e-01 2.1926125713656575e-01 0.
        2.5299375079136155e-01 1.2312362603020119e+00
        1.2987012863159180e+00 1.2987012863159180e+00
        1.2987012863159180e+00 1.2818350298124415e+00
        4.7225502728008451e-01 8.6017877204278648e-01
        1.2987012863159180e+00 1.2987012863159180e+00
        1.2987012863159180e+00 1.2987012863159180e+00
        1.2987012863159180e+00 1.2481025168054884e+00
        5.7345252759662912e-01 1.2987012863159180e+00
        1.2987012863159180e+00 1.2987012863159180e+00
        1.2987012863159180e+00 1.2987012863159180e+00
        1.2987012863159180e+00 8.4331251553930997e-01
        1.2987012863159180e+00 1.2987012863159180e+00
        1.2987012863159180e+00 1.2987012863159180e+00
        1.2987012863159180e+00 1.2987012863159180e+00
        6.0718500189926772e-01 1.2987012863159180e+00
        1.2987012863159180e+00 1.2987012863159180e+00
        1.2987012863159180e+00 1.2987012863159180e+00
        1.2987012863159180e+00 1.3493000364741903e-01
        1.2818350298124415e+00 1.2987012863159180e+00
        1.2987012863159180e+00 1.2987012863159180e+00
        1.2987012863159180e+00 1.1469050551932582e+00 0.
        7.7922075986862183e-01 1.8181818723678589e+00
        1.3246753215789795e+00 9.6103894710540771e-01
        3.3766233921051025e-01 0. 3.8961037993431091e-01
        1.8961038589477539e+00 2. 2. 2. 1.9740259647369385e+00
        7.2727274894714355e-01 1.3246753215789795e+00 2. 2. 2. 2. 2.
        1.9220778942108154e+00 8.8311690092086792e-01 2. 2. 2. 2. 2. 2.
        1.2987012863159180e+00 2. 2. 2. 2. 2. 2. 9.3506491184234619e-01
        2. 2. 2. 2. 2. 2. 2.0779220759868622e-01 1.9740259647369385e+00
        2. 2. 2. 2. 1.7662338018417358e+00 0. 7.7922075986862183e-01
        1.8181818723678589e+00 1.3246753215789795e+00
        9.6103894710540771e-01 3.3766233921051025e-01 0.
        3.8961037993431091e-01 1.8961038589477539e+00 2. 2. 2.
        1.9740259647369385e+00 7.2727274894714355e-01
        1.3246753215789795e+00 2. 2. 2. 2. 2. 1.9220778942108154e+00
        8.8311690092086792e-01 2. 2. 2. 2. 2. 2. 1.2987012863159180e+00
        2. 2. 2. 2. 2. 2. 9.3506491184234619e-01 2. 2. 2. 2. 2. 2.
        2.0779220759868622e-01 1.9740259647369385e+00 2. 2. 2. 2.
        1.7662338018417358e+00 0. 7.7922075986862183e-01
        1.8181818723678589e+00 1.3246753215789795e+00
        9.6103894710540771e-01 3.3766233921051025e-01 0.
        3.8961037993431091e-01 1.8961038589477539e+00 2. 2. 2.
        1.9740259647369385e+00 7.2727274894714355e-01
        1.3246753215789795e+00 2. 2. 2. 2. 2. 1.9220778942108154e+00
        8.8311690092086792e-01 2. 2. 2. 2. 2. 2. 1.2987012863159180e+00
        2. 2. 2. 2. 2. 2. 9.3506491184234619e-01 2. 2. 2. 2. 2. 2.
        2.0779220759868622e-01 1.9740259647369385e+00 2. 2. 2. 2.
        1.7662338018417358e+00 0. 7.7922075986862183e-01
        1.8181818723678589e+00 1.3246753215789795e+00
        9.6103894710540771e-01 3.3766233921051025e-01 0.
        3.8961037993431091e-01 1.8961038589477539e+00 2. 2. 2.
        1.9740259647369385e+00 7.2727274894714355e-01
        1.3246753215789795e+00 2. 2. 2. 2. 2. 1.9220778942108154e+00
        8.8311690092086792e-01 2. 2. 2. 2. 2. 2. 1.2987012863159180e+00
        2. 2. 2. 2. 2. 2. 9.3506491184234619e-01 2. 2. 2. 2. 2. 2.
        2.0779220759868622e-01 1.9740259647369385e+00 2. 2. 2. 2.
        1.7662338018417358e+00 0. 7.7922075986862183e-01
        1.8181818723678589e+00 1.3246753215789795e+00
        9.6103894710540771e-01 3.3766233921051025e-01 0.
        3.8961037993431091e-01 1.8961038589477539e+00 2. 2. 2.
        1.9740259647369385e+00 7.2727274894714355e-01
        1.3246753215789795e+00 2. 2. 2. 2. 2. 1.9220778942108154e+00
        8.8311690092086792e-01 2. 2. 2. 2. 2. 2. 1.2987012863159180e+00
        2. 2. 2. 2. 2. 2. 9.3506491184234619e-01 2. 2. 2. 2. 2. 2.
        2.0779220759868622e-01 1.9740259647369385e+00 2. 2. 2. 2.
        1.7662338018417358e+00 0. 7.7922075986862183e-01
        1.8181818723678589e+00 1.3246753215789795e+00
        9.6103894710540771e-01 3.3766233921051025e-01 0.
        3.8961037993431091e-01 1.8961038589477539e+00 2. 2. 2.
        1.9740259647369385e+00 7.2727274894714355e-01
        1.3246753215789795e+00 2. 2. 2. 2. 2. 1.9220778942108154e+00
        8.8311690092086792e-01 2. 2. 2. 2. 2. 2. 1.2987012863159180e+00
        2. 2. 2. 2. 2. 2. 9.3506491184234619e-01 2. 2. 2. 2. 2. 2.
        2.0779220759868622e-01 1.9740259647369385e+00 2. 2. 2. 2.
        1.7662338018417358e+00 0. 3.6431099556613944e-01
        8.5005903609950195e-01 6.1932870639599003e-01
        4.4931689917608963e-01 1.5786810272317808e-01 0.
        1.8215549778306972e-01 8.8649009385545696e-01
        9.3506491184234619e-01 9.3506491184234619e-01
        9.3506491184234619e-01 9.2292120734562388e-01
        3.4002361443980078e-01 6.1932870639599003e-01
        9.3506491184234619e-01 9.3506491184234619e-01
        9.3506491184234619e-01 9.3506491184234619e-01
        9.3506491184234619e-01 8.9863379835217927e-01
        4.1288581355302867e-01 9.3506491184234619e-01
        9.3506491184234619e-01 9.3506491184234619e-01
        9.3506491184234619e-01 9.3506491184234619e-01
        9.3506491184234619e-01 6.0718500189926772e-01
        9.3506491184234619e-01 9.3506491184234619e-01
        9.3506491184234619e-01 9.3506491184234619e-01
        9.3506491184234619e-01 9.3506491184234619e-01
        4.3717319467936733e-01 9.3506491184234619e-01
        9.3506491184234619e-01 9.3506491184234619e-01
        9.3506491184234619e-01 9.3506491184234619e-01
        9.3506491184234619e-01 9.7149601139896014e-02
        9.2292120734562388e-01 9.3506491184234619e-01
        9.3506491184234619e-01 9.3506491184234619e-01
        9.3506491184234619e-01 8.2577162710605734e-01 0.
        7.7922075986862183e-01 1.8181818723678589e+00
        1.3246753215789795e+00 9.6103894710540771e-01
        3.3766233921051025e-01 0. 3.8961037993431091e-01
        1.8961038589477539e+00 2. 2. 2. 1.9740259647369385e+00
        7.2727274894714355e-01 1.3246753215789795e+00 2. 2. 2. 2. 2.
        1.9220778942108154e+00 8.8311690092086792e-01 2. 2. 2. 2. 2. 2.
        1.2987012863159180e+00 2. 2. 2. 2. 2. 2. 9.3506491184234619e-01
        2. 2. 2. 2. 2. 2. 2.0779220759868622e-01 1.9740259647369385e+00
        2. 2. 2. 2. 1.7662338018417358e+00 0. 7.7922075986862183e-01
        1.8181818723678589e+00 1.3246753215789795e+00
        9.6103894710540771e-01 3.3766233921051025e-01 0.
        3.8961037993431091e-01 1.8961038589477539e+00 2. 2. 2.
        1.9740259647369385e+00 7.2727274894714355e-01
        1.3246753215789795e+00 2. 2. 2. 2. 2. 1.9220778942108154e+00
        8.8311690092086792e-01 2. 2. 2. 2. 2. 2. 1.2987012863159180e+00
        2. 2. 2. 2. 2. 2. 9.3506491184234619e-01 2. 2. 2. 2. 2. 2.
        2.0779220759868622e-01 1.9740259647369385e+00 2. 2. 2. 2.
        1.7662338018417358e+00 0. 7.7922075986862183e-01
        1.8181818723678589e+00 1.3246753215789795e+00
        9.6103894710540771e-01 3.3766233921051025e-01 0.
        3.8961037993431091e-01 1.8961038589477539e+00 2. 2. 2.
        1.9740259647369385e+00 7.2727274894714355e-01
        1.3246753215789795e+00 2. 2. 2. 2. 2. 1.9220778942108154e+00
        8.8311690092086792e-01 2. 2. 2. 2. 2. 2. 1.2987012863159180e+00
        2. 2. 2. 2. 2. 2. 9.3506491184234619e-01 2. 2. 2. 2. 2. 2.
        2.0779220759868622e-01 1.9740259647369385e+00 2. 2. 2. 2.
        1.7662338018417358e+00 0. 7.7922075986862183e-01
        1.8181818723678589e+00 1.3246753215789795e+00
        9.6103894710540771e-01 3.3766233921051025e-01 0.
        3.8961037993431091e-01 1.8961038589477539e+00 2. 2. 2.
        1.9740259647369385e+00 7.2727274894714355e-01
        1.3246753215789795e+00 2. 2. 2. 2. 2. 1.9220778942108154e+00
        8.8311690092086792e-01 2. 2. 2. 2. 2. 2. 1.2987012863159180e+00
        2. 2. 2. 2. 2. 2. 9.3506491184234619e-01 2. 2. 2. 2. 2. 2.
        2.0779220759868622e-01 1.9740259647369385e+00 2. 2. 2. 2.
        1.7662338018417358e+00 0. 7.7922075986862183e-01
        1.8181818723678589e+00 1.3246753215789795e+00
        9.6103894710540771e-01 3.3766233921051025e-01 0.
        3.8961037993431091e-01 1.8961038589477539e+00 2. 2. 2.
        1.9740259647369385e+00 7.2727274894714355e-01
        1.3246753215789795e+00 2. 2. 2. 2. 2. 1.9220778942108154e+00
        8.8311690092086792e-01 2. 2. 2. 2. 2. 2. 1.2987012863159180e+00
        2. 2. 2. 2. 2. 2. 9.3506491184234619e-01 2. 2. 2. 2. 2. 2.
        2.0779220759868622e-01 1.9740259647369385e+00 2. 2. 2. 2.
        1.7662338018417358e+00 0. 7.7922075986862183e-01
        1.8181818723678589e+00 1.3246753215789795e+00
        9.6103894710540771e-01 3.3766233921051025e-01 0.
        3.8961037993431091e-01 1.8961038589477539e+00 2. 2. 2.
        1.9740259647369385e+00 7.2727274894714355e-01
        1.3246753215789795e+00 2. 2. 2. 2. 2. 1.9220778942108154e+00
        8.8311690092086792e-01 2. 2. 2. 2. 2. 2. 1.2987012863159180e+00
        2. 2. 2. 2. 2. 2. 9.3506491184234619e-01 2. 2. 2. 2. 2. 2.
        2.0779220759868622e-01 1.9740259647369385e+00 2. 2. 2. 2.
        1.7662338018417358e+00 0. 8.0958000949913345e-02
        1.8890201253761507e-01 1.3762860471119787e-01
        9.9848202203674852e-02 3.5081801443744176e-02 0.
        4.0479000474956672e-02 1.9699780334357087e-01
        2.0779220759868622e-01 2.0779220759868622e-01
        2.0779220759868622e-01 2.0509360653490738e-01
        7.5560805015046029e-02 1.3762860471119787e-01
        2.0779220759868622e-01 2.0779220759868622e-01
        2.0779220759868622e-01 2.0779220759868622e-01
        2.0779220759868622e-01 1.9969640440734970e-01
        9.1752405205028698e-02 2.0779220759868622e-01
        2.0779220759868622e-01 2.0779220759868622e-01
        2.0779220759868622e-01 2.0779220759868622e-01
        2.0779220759868622e-01 1.3493000364741903e-01
        2.0779220759868622e-01 2.0779220759868622e-01
        2.0779220759868622e-01 2.0779220759868622e-01
        2.0779220759868622e-01 2.0779220759868622e-01
        9.7149601139896014e-02 2.0779220759868622e-01
        2.0779220759868622e-01 2.0779220759868622e-01
        2.0779220759868622e-01 2.0779220759868622e-01
        2.0779220759868622e-01 2.1588800769367755e-02
        2.0509360653490738e-01 2.0779220759868622e-01
        2.0779220759868622e-01 2.0779220759868622e-01
        2.0779220759868622e-01 1.8350481041005740e-01 0.
        7.6910100612135324e-01 1.7945691123340879e+00
        1.3074717398215796e+00 9.4855791735476203e-01
        3.3327711245767944e-01 0. 3.8455050306067662e-01
        1.8714791247003859e+00 1.9740259647369385e+00
        1.9740259647369385e+00 1.9740259647369385e+00
        1.9483892547278003e+00 7.1782764493363516e-01
        1.3074717398215796e+00 1.9740259647369385e+00
        1.9740259647369385e+00 1.9740259647369385e+00
        1.9740259647369385e+00 1.9740259647369385e+00
        1.8971158347095241e+00 8.7164784615790580e-01
        1.9740259647369385e+00 1.9740259647369385e+00
        1.9740259647369385e+00 1.9740259647369385e+00
        1.9740259647369385e+00 1.9740259647369385e+00
        1.2818350298124415e+00 1.9740259647369385e+00
        1.9740259647369385e+00 1.9740259647369385e+00
        1.9740259647369385e+00 1.9740259647369385e+00
        1.9740259647369385e+00 9.2292120734562388e-01
        1.9740259647369385e+00 1.9740259647369385e+00
        1.9740259647369385e+00 1.9740259647369385e+00
        1.9740259647369385e+00 1.9740259647369385e+00
        2.0509360653490738e-01 1.9483892547278003e+00
        1.9740259647369385e+00 1.9740259647369385e+00
        1.9740259647369385e+00 1.9740259647369385e+00
        1.7432956923158116e+00 0. 7.7922075986862183e-01
        1.8181818723678589e+00 1.3246753215789795e+00
        9.6103894710540771e-01 3.3766233921051025e-01 0.
        3.8961037993431091e-01 1.8961038589477539e+00 2. 2. 2.
        1.9740259647369385e+00 7.2727274894714355e-01
        1.3246753215789795e+00 2. 2. 2. 2. 2. 1.9220778942108154e+00
        8.8311690092086792e-01 2. 2. 2. 2. 2. 2. 1.2987012863159180e+00
        2. 2. 2. 2. 2. 2. 9.3506491184234619e-01 2. 2. 2. 2. 2. 2.
        2.0779220759868622e-01 1.9740259647369385e+00 2. 2. 2. 2.
        1.7662338018417358e+00 0. 7.7922075986862183e-01
        1.8181818723678589e+00 1.3246753215789795e+00
        9.6103894710540771e-01 3.3766233921051025e-01 0.
        3.8961037993431091e-01 1.8961038589477539e+00 2. 2. 2.
        1.9740259647369385e+00 7.2727274894714355e-01
        1.3246753215789795e+00 2. 2. 2. 2. 2. 1.9220778942108154e+00
        8.8311690092086792e-01 2. 2. 2. 2. 2. 2. 1.2987012863159180e+00
        2. 2. 2. 2. 2. 2. 9.3506491184234619e-01 2. 2. 2. 2. 2. 2.
        2.0779220759868622e-01 1.9740259647369385e+00 2. 2. 2. 2.
        1.7662338018417358e+00 0. 7.7922075986862183e-01
        1.8181818723678589e+00 1.3246753215789795e+00
        9.6103894710540771e-01 3.3766233921051025e-01 0.
        3.8961037993431091e-01 1.8961038589477539e+00 2. 2. 2.
        1.9740259647369385e+00 7.2727274894714355e-01
        1.3246753215789795e+00 2. 2. 2. 2. 2. 1.9220778942108154e+00
        8.8311690092086792e-01 2. 2. 2. 2. 2. 2. 1.2987012863159180e+00
        2. 2. 2. 2. 2. 2. 9.3506491184234619e-01 2. 2. 2. 2. 2. 2.
        2.0779220759868622e-01 1.9740259647369385e+00 2. 2. 2. 2.
        1.7662338018417358e+00 0. 7.7922075986862183e-01
        1.8181818723678589e+00 1.3246753215789795e+00
        9.6103894710540771e-01 3.3766233921051025e-01 0.
        3.8961037993431091e-01 1.8961038589477539e+00 2. 2. 2.
        1.9740259647369385e+00 7.2727274894714355e-01
        1.3246753215789795e+00 2. 2. 2. 2. 2. 1.9220778942108154e+00
        8.8311690092086792e-01 2. 2. 2. 2. 2. 2. 1.2987012863159180e+00
        2. 2. 2. 2. 2. 2. 9.3506491184234619e-01 2. 2. 2. 2. 2. 2.
        2.0779220759868622e-01 1.9740259647369385e+00 2. 2. 2. 2.
        1.7662338018417358e+00 0. 6.8814302258838111e-01
        1.6056671404360046e+00 1.1698431647191825e+00
        8.4870973663198157e-01 2.9819531856127668e-01 0.
        3.4407151129419056e-01 1.6744813637380389e+00
        1.7662338018417358e+00 1.7662338018417358e+00
        1.7662338018417358e+00 1.7432956923158116e+00
        6.4226685617440182e-01 1.1698431647191825e+00
        1.7662338018417358e+00 1.7662338018417358e+00
        1.7662338018417358e+00 1.7662338018417358e+00
        1.7662338018417358e+00 1.6974194732639631e+00
        7.7989546069207805e-01 1.7662338018417358e+00
        1.7662338018417358e+00 1.7662338018417358e+00
        1.7662338018417358e+00 1.7662338018417358e+00
        1.7662338018417358e+00 1.1469050551932582e+00
        1.7662338018417358e+00 1.7662338018417358e+00
        1.7662338018417358e+00 1.7662338018417358e+00
        1.7662338018417358e+00 1.7662338018417358e+00
        8.2577162710605734e-01 1.7662338018417358e+00
        1.7662338018417358e+00 1.7662338018417358e+00
        1.7662338018417358e+00 1.7662338018417358e+00
        1.7662338018417358e+00 1.8350481041005740e-01
        1.7432956923158116e+00 1.7662338018417358e+00
        1.7662338018417358e+00 1.7662338018417358e+00
        1.7662338018417358e+00 1.5597909213841561e+00</data></_>
    <_ type_id="opencv-matrix">
      <rows>49</rows>
      <cols>49</cols>
      <dt>d</dt>
      <data>
        3.3103979044240632e+00 6.7473725032489140e+00
        5.3066671656427156e+00 4.4103596251905701e+00
        2.9281124885780003e+00 1.6805555762516127e+00
        1.7256944659683440e+00 4.9342881063024340e+00
        7.8994352422485505e+00 7.8559210150372847e+00
        5.7806700737711179e+00 5.4643569531035459e+00
        3.4613062695035328e+00 1.6240355157764792e+00
        5.4178401981874789e+00 8.0569980201759819e+00
        8.2243519220501184e+00 7.2625952813004773e+00
        6.5720259147113174e+00 5.0599077804262684e+00
        2.4081609416034437e+00 6.7776763088047751e+00
        7.2778096562596382e+00 8.2023611702714803e+00
        7.5343123125428271e+00 6.6262907120212908e+00
        6.1439038608900525e+00 3.9133854656560514e+00
        5.4010882863580782e+00 7.3198745585614713e+00
        8.0460026914736744e+00 7.9898557111020452e+00
        6.6923844609409571e+00 6.5695733983240494e+00
        5.6313131662147509e+00 2.4612876224253220e+00
        5.8270103123217218e+00 7.3950853761918669e+00
        7.8881581976290533e+00 7.1272982271273584e+00
        6.6062907099351289e+00 6.2543451572552646e+00
        4.9160134000074229e-01 2.1086094190930882e+00
        3.8631778122734799e+00 6.3064756431341324e+00
        7.0676456691214486e+00 6.8690044861128676e+00
        6.5181823611419638e+00 6.7473725032489140e+00
        4.0553411893261583e+01 4.7970939980492354e+01
        2.7673476969515647e+01 1.0098632031754164e+01
        4.7424309291693731e+00 3.7729166572292652e+00
        2.8322179749580386e+01 6.4562578736004468e+01
        6.3747622611615974e+01 5.7877186360010413e+01
        4.2036418598396324e+01 1.4828073204661859e+01
        7.3258144081403707e+00 4.6491983465748191e+01
        6.6214695259928703e+01 6.6119834177096692e+01
        6.3757771194487681e+01 6.0885094460467982e+01
        3.8616274528083579e+01 1.4576363840048792e+01
        5.7185116281752208e+01 6.5211223060472150e+01
        6.6323723047971725e+01 6.4601279917898069e+01
        6.2095620703101162e+01 5.5560083802224710e+01
        2.7897925857188383e+01 4.6617035589583807e+01
        6.4978095488414453e+01 6.6125806421041489e+01
        6.5851292078437183e+01 6.2402026936411858e+01
        6.1199550980510601e+01 4.9274766698137235e+01
        2.5667038231512773e+01 5.8302861239724649e+01
        6.3603190832722809e+01 6.4979095149389480e+01
        6.3427598684684085e+01 6.1725319746522992e+01
        5.8285048513967872e+01 7.1706956222339979e+00
        3.0059586403280669e+01 4.3977367811392128e+01
        5.3668461847053521e+01 5.7807765080400927e+01
        6.2083807831415456e+01 6.0707199400125141e+01
        5.3066671656427156e+00 4.7970939980492354e+01
        8.5549620883968871e+01 5.3547712813874327e+01
        1.6965461811372865e+01 5.9616062858515324e+00
        4.1944444358555808e+00 3.5232071369953431e+01
        9.8966127226454063e+01 9.9643632279589426e+01
        9.9300023976616814e+01 7.2449563254425186e+01
        2.2925927975476988e+01 1.0066219813194952e+01
        6.5540629467162717e+01 1.0367728566019623e+02
        1.0252383659601212e+02 1.0267070465051275e+02
        1.0020673936790922e+02 6.3082007199474212e+01
        2.1134651924553040e+01 8.8335352989869193e+01
        1.0305286437273026e+02 1.0392543379962444e+02
        1.0394890776005548e+02 1.0342947715557284e+02
        9.1443262874231323e+01 4.2098322760389550e+01
        7.8329521324061062e+01 1.0291064110437783e+02
        1.0377439217269421e+02 1.0419411609849053e+02
        1.0371944245696068e+02 1.0085918612431709e+02
        8.1383518614523140e+01 4.5596558111959830e+01
        9.5641159689621986e+01 1.0125183033430615e+02
        1.0272530364321091e+02 1.0325476012578025e+02
        1.0247224333615215e+02 9.5387280208113765e+01
        1.1565846146110282e+01 5.0047456981468329e+01
        7.3828722369513230e+01 8.6819991285063509e+01
        9.2715422659511688e+01 1.0149150174230499e+02
        9.9740012381139096e+01 4.4103596251905701e+00
        2.7673476969515647e+01 5.3547712813874327e+01
        4.2795665619331487e+01 1.8346301131117791e+01
        7.1672839651051508e+00 4.2975501483938672e+00
        1.9790257743535953e+01 5.9901294241494099e+01
        6.0471250311463706e+01 6.1942227098450161e+01
        5.2564560525420397e+01 2.3775559640202513e+01
        1.2328128615136077e+01 3.8590011343422120e+01
        6.4953526516479471e+01 6.3339660783145163e+01
        6.3042484893887135e+01 6.2640103392992117e+01
        4.5895464883698963e+01 2.0413372114935122e+01
        5.5661826077018624e+01 6.4582577444612980e+01
        6.5328063555061817e+01 6.5539174653589725e+01
        6.5467889940548275e+01 6.0606301264507742e+01
        3.3862803795355035e+01 5.1268907991569236e+01
        6.4693882560563807e+01 6.5208271928131580e+01
        6.5783966340124607e+01 6.5783966340124607e+01
        6.4643307222709524e+01 5.6053795448544186e+01
        2.9522825129289572e+01 6.0365417059404649e+01
        6.3881327262037338e+01 6.4759058161263241e+01
        6.5414246404870212e+01 6.5416929285912602e+01
        6.2328882939066858e+01 6.6057276572513910e+00
        3.1467820829106067e+01 4.7794712396397884e+01
        5.6263510082976978e+01 6.0099572346213165e+01
        6.4480964433150632e+01 6.4454823566934976e+01
        2.9281124885780003e+00 1.0098632031754164e+01
        1.6965461811372865e+01 1.8346301131117791e+01
        1.3493486576656771e+01 7.8992220314280228e+00
        4.7374613935668251e+00 6.1494634261048766e+00
        2.0584963759159756e+01 2.1137495452991601e+01
        2.0739748537528484e+01 2.2126292520949882e+01
        1.7719535310723366e+01 1.2023041115593765e+01
        1.2840817337026373e+01 2.3401469212370337e+01
        2.2608714612589942e+01 2.2107834994241038e+01
        2.1632449171535761e+01 2.1267014088043201e+01
        1.5999520618190193e+01 1.8562357690946861e+01
        2.2523575713030166e+01 2.3613506257534027e+01
        2.3549617365002632e+01 2.3481909051537514e+01
        2.3242790860345629e+01 2.0239583956219668e+01
        1.7049648477941467e+01 2.2726600299713343e+01
        2.3431214630603790e+01 2.3731909051537514e+01
        2.3731909051537514e+01 2.3590674491863190e+01
        2.3084487237824931e+01 9.7407454436195309e+00
        2.0819081885263920e+01 2.2681597698934866e+01
        2.3177343509636330e+01 2.3617827898936469e+01
        2.3721044854639487e+01 2.3312145254006907e+01
        2.2508854376037899e+00 1.1232289278506713e+01
        1.7490817678410657e+01 2.1123039278204828e+01
        2.3042276031438639e+01 2.3545620434276564e+01
        2.3639563363334279e+01 1.6805555762516127e+00
        4.7424309291693731e+00 5.9616062858515324e+00
        7.1672839651051508e+00 7.8992220314280228e+00
        7.9898867211196141e+00 4.9680747811877994e+00
        2.1911564576935842e+00 8.8740844630479288e+00
        9.6867598024323414e+00 8.8437813700257273e+00
        1.0041698076428823e+01 1.1246357505002521e+01
        1.0276451276483291e+01 5.4417717555261529e+00
        1.1235756706446409e+01 1.0892006719691885e+01
        1.0262377105515313e+01 9.2253400199115276e+00
        9.7870684175487650e+00 1.0809751871011311e+01
        6.9272428229910048e+00 1.0176728966749376e+01
        1.1419784497469664e+01 1.1336451160824961e+01
        1.1280895616859198e+01 1.1101883290864436e+01
        1.1350340079516172e+01 6.4702297388569194e+00
        1.0319090072893434e+01 1.1221867870539427e+01
        1.1447562288492918e+01 1.1447562288492918e+01
        1.1447562288492918e+01 1.1447562288492918e+01
        3.9847789883830802e+00 9.5578053986860638e+00
        1.0845999788492918e+01 1.1291312288492918e+01
        1.1416312288492918e+01 1.1447562288492918e+01
        1.1447562288492918e+01 7.3415056403910572e-01
        5.9945903923518813e+00 9.0248192701902656e+00
        1.0517006718450123e+01 1.1338187303394079e+01
        1.1447562288492918e+01 1.1447562288492918e+01
        1.7256944659683440e+00 3.7729166572292652e+00
        4.1944444358555808e+00 4.2975501483938672e+00
        4.7374613935668251e+00 4.9680747811877994e+00
        4.3013001197898468e+00 1.8470833403968976e+00
        5.6255285460704263e+00 6.0463580090653757e+00
        5.8130863676946847e+00 6.5600308418089961e+00
        6.8895061418046186e+00 6.3269097158271403e+00
        3.0527661498332472e+00 6.7409721687436104e+00
        6.9527777507901192e+00 6.8046296103684991e+00
        6.5083333030343056e+00 6.5577160198195479e+00
        6.3277777507901192e+00 3.7158796372568164e+00
        5.7027777574128571e+00 6.9249999597668648e+00
        6.9527777507901192e+00 6.9527777507901192e+00
        6.8540123238423725e+00 6.8555555418133736e+00
        3.9079012533389950e+00 5.8659722068243560e+00
        6.7270833328366280e+00 6.9527777507901192e+00
        6.9527777507901192e+00 6.9527777507901192e+00
        6.9527777507901192e+00 2.3198109639279636e+00
        5.3172916470861260e+00 6.2027777507901192e+00
        6.6402777507901192e+00 6.8902777507901192e+00
        6.9527777507901192e+00 6.9527777507901192e+00
        4.6126544549141402e-01 3.0195486059350274e+00
        5.0557985913898378e+00 6.3642360782250762e+00
        6.8833333077943983e+00 6.9527777507901192e+00
        6.9527777507901192e+00 4.9342881063024340e+00
        2.8322179749580386e+01 3.5232071369953431e+01
        1.9790257743535953e+01 6.1494634261048766e+00
        2.1911564576935842e+00 1.8470833403968976e+00
        2.4171881824998668e+01 4.8496095125583963e+01
        4.7694277316381942e+01 4.2791903285537316e+01
        3.0235522666720613e+01 9.8428206135252783e+00
        4.3603615644716411e+00 3.6682020788167669e+01
        5.0567203385226520e+01 5.0169028736650944e+01
        4.7973273105818791e+01 4.4498967611208897e+01
        2.6995513082747159e+01 9.4128042694340479e+00
        4.3099846777080259e+01 5.0095596040932485e+01
        5.0445340445932047e+01 4.8924203674186771e+01
        4.6439454222578142e+01 3.9559577711947256e+01
        1.8624273226974204e+01 3.5979314598519409e+01
        4.9768196818211550e+01 5.0361609267599789e+01
        5.0155370340607703e+01 4.6864436879754066e+01
        4.4334273366753912e+01 3.4643403545086329e+01
        2.0230317974937893e+01 4.5150155772700586e+01
        4.8829052134998562e+01 4.9693431349648193e+01
        4.8164712373423839e+01 4.5448773268674628e+01
        4.1205897631294825e+01 6.1056667921884671e+00
        2.4267305236369236e+01 3.4692808140147008e+01
        4.1699203802695379e+01 4.4466178383337663e+01
        4.6522195128680764e+01 4.3351707242005610e+01
        7.8994352422485505e+00 6.4562578736004468e+01
        9.8966127226454063e+01 5.9901294241494099e+01
        2.0584963759159756e+01 8.8740844630479288e+00
        5.6255285460704263e+00 4.8496095125583963e+01
        1.3061990597218193e+02 1.2919972934499145e+02
        1.2171838057995819e+02 8.9493273218366255e+01
        3.1632847237394529e+01 1.6601021828482438e+01
        8.8333763297046943e+01 1.3711433187534135e+02
        1.3612984115961524e+02 1.3365746281649103e+02
        1.2738651905145051e+02 8.1331605642658843e+01
        3.0025297367202356e+01 1.1446999402707391e+02
        1.3607845227503114e+02 1.3695761892944574e+02
        1.3540036675851439e+02 1.3253557558067970e+02
        1.1639129549138400e+02 5.7586015174690843e+01
        1.0059801665157207e+02 1.3569070576087037e+02
        1.3675970230251551e+02 1.3674260982597048e+02
        1.3313514155894518e+02 1.2843497016232692e+02
        1.0383453715710647e+02 5.9533689165044102e+01
        1.2633290632377458e+02 1.3413144353815647e+02
        1.3583781600939648e+02 1.3413892943412066e+02
        1.3090657285240329e+02 1.2097811620072450e+02
        1.7543660305579984e+01 6.9875166016093118e+01
        1.0007145132566063e+02 1.1658983701189885e+02
        1.2349336098005082e+02 1.3124021862675315e+02
        1.2649019424822411e+02 7.8559210150372847e+00
        6.3747622611615974e+01 9.9643632279589426e+01
        6.0471250311463706e+01 2.1137495452991601e+01
        9.6867598024323414e+00 6.0463580090653757e+00
        4.7694277316381942e+01 1.2919972934499145e+02
        1.3189363408954057e+02 1.2311423139785479e+02
        9.1029429603443461e+01 3.3881285318627860e+01
        1.8992398210970890e+01 8.7658105427707909e+01
        1.3795209763116307e+02 1.3739168097078800e+02
        1.3490776966989711e+02 1.2794094330377050e+02
        8.3059708056001028e+01 3.3085518895023398e+01
        1.1424516271054955e+02 1.3694862543046474e+02
        1.3805556984245777e+02 1.3634418607735597e+02
        1.3351111118495464e+02 1.1761496547726937e+02
        6.0253549225185481e+01 9.9859197556158477e+01
        1.3646811778477235e+02 1.3785765321552753e+02
        1.3761195084200034e+02 1.3405186639726162e+02
        1.2928853046231799e+02 1.0518884840027050e+02
        5.8155734856551803e+01 1.2651384478579868e+02
        1.3487830001908611e+02 1.3670577942852748e+02
        1.3489745114743710e+02 1.3183593754470348e+02
        1.2156562903523445e+02 1.6913028902244974e+01
        6.8462363316979662e+01 9.9772821312093683e+01
        1.1701632806071865e+02 1.2398148684217418e+02
        1.3185748423696091e+02 1.2710040382502808e+02
        5.7806700737711179e+00 5.7877186360010413e+01
        9.9300023976616814e+01 6.1942227098450161e+01
        2.0739748537528484e+01 8.8437813700257273e+00
        5.8130863676946847e+00 4.2791903285537316e+01
        1.2171838057995819e+02 1.2311423139785479e+02
        1.2319192660992903e+02 9.1224869348845914e+01
        3.3843059886475487e+01 1.9373543910309674e+01
        8.2179323991821320e+01 1.3175989573392602e+02
        1.3037277771845459e+02 1.3124894340986856e+02
        1.2738038621978021e+02 8.1875260098154854e+01
        3.3484928512738811e+01 1.0952496307384925e+02
        1.3167284715299806e+02 1.3262927074730396e+02
        1.3278855477586256e+02 1.3245980786859991e+02
        1.1678824217096837e+02 5.8566104786929756e+01
        9.8862079540280234e+01 1.3150251454800036e+02
        1.3248604162037373e+02 1.3290045842166518e+02
        1.3272639642655849e+02 1.2899386056728599e+02
        1.0436126140506900e+02 5.7094719953197540e+01
        1.2261139046517859e+02 1.2958031901697825e+02
        1.3135971577876387e+02 1.3204854367673397e+02
        1.3118078009933234e+02 1.2156896678040343e+02
        1.5406032194199579e+01 6.4526757805267721e+01
        9.5834967747491490e+01 1.1197613760562936e+02
        1.1915274513515436e+02 1.2977466139355772e+02
        1.2685269861519640e+02 5.4643569531035459e+00
        4.2036418598396324e+01 7.2449563254425186e+01
        5.2564560525420397e+01 2.2126292520949882e+01
        1.0041698076428823e+01 6.5600308418089961e+00
        3.0235522666720613e+01 8.9493273218366255e+01
        9.1029429603443461e+01 9.1224869348845914e+01
        8.1124304985066757e+01 3.9158412996243023e+01
        2.3782050962953100e+01 6.1713159071477513e+01
        1.0136908629103942e+02 1.0006961873799563e+02
        9.9989572447019583e+01 1.0016046059221992e+02
        7.7464547623985709e+01 3.8612383725946707e+01
        8.2550325941074561e+01 1.0227781317293642e+02
        1.0300621592253447e+02 1.0336732702702284e+02
        1.0338206662893296e+02 9.8273037321110735e+01
        6.0675311437893171e+01 7.5989263986285010e+01
        1.0230033265523483e+02 1.0291767429560423e+02
        1.0364336871355772e+02 1.0364336871355772e+02
        1.0307577755881248e+02 9.1553624924704508e+01
        4.3360025984372086e+01 9.5384774108930927e+01
        1.0095044872463438e+02 1.0233391049191616e+02
        1.0309952113669300e+02 1.0356071439120596e+02
        1.0025618324520644e+02 1.0454707087125335e+01
        4.9261692343193388e+01 7.6240861356726924e+01
        8.9317877192529821e+01 9.4680038851414508e+01
        1.0148813125126858e+02 1.0226506852892180e+02
        3.4613062695035328e+00 1.4828073204661859e+01
        2.2925927975476988e+01 2.3775559640202513e+01
        1.7719535310723366e+01 1.1246357505002521e+01
        6.8895061418046186e+00 9.8428206135252783e+00
        3.1632847237394529e+01 3.3881285318627860e+01
        3.3843059886475487e+01 3.9158412996243023e+01
        3.6430019185935080e+01 2.7628973525362973e+01
        2.3297157006464371e+01 4.3462701186164743e+01
        4.3442589331323077e+01 4.3581038459549063e+01
        4.3215505977459259e+01 4.4774046002719118e+01
        3.8634107306417491e+01 3.1031638820670167e+01
        4.5885073917753260e+01 4.7553704300561897e+01
        4.7372762915678322e+01 4.7276408788748085e+01
        4.7362151687179200e+01 4.4911906641584764e+01
        3.2453652860220231e+01 4.6583969998484562e+01
        4.7428414988998369e+01 4.7776408788748085e+01
        4.7776408788748085e+01 4.7776408788748085e+01
        4.7641994525493423e+01 1.8715676427762126e+01
        4.2798210006856308e+01 4.6227773578255892e+01
        4.7120646621143365e+01 4.7632584178343905e+01
        4.7776408788748085e+01 4.7760809518804749e+01
        3.7857185393642059e+00 2.1625955589255057e+01
        3.5898528935190875e+01 4.2705404321111835e+01
        4.5595808014430304e+01 4.6497068592844712e+01
        4.6762314997010549e+01 1.6240355157764792e+00
        7.3258144081403707e+00 1.0066219813194952e+01
        1.2328128615136077e+01 1.2023041115593765e+01
        1.0276451276483291e+01 6.3269097158271403e+00
        4.3603615644716411e+00 1.6601021828482438e+01
        1.8992398210970890e+01 1.9373543910309674e+01
        2.3782050962953100e+01 2.7628973525362973e+01
        2.6427565022577500e+01 1.3512316639449427e+01
        2.7718428253335532e+01 2.8648300957456232e+01
        2.8987676047757269e+01 2.7901217635944484e+01
        2.9116564861014485e+01 3.1106376758970370e+01
        1.6942402182087079e+01 3.0271171350349427e+01
        3.1818798682686907e+01 3.1581530140712857e+01
        3.1464342670515180e+01 3.1394898252561688e+01
        3.1754782480302232e+01 1.9799488781427513e+01
        3.0728231547814275e+01 3.1718972310354864e+01
        3.1839342670515180e+01 3.1839342670515180e+01
        3.1839342670515180e+01 3.1839342670515180e+01
        1.1195860685076759e+01 2.8015210764327399e+01
        3.0512085759184426e+01 3.1292467670515180e+01
        3.1729967670515180e+01 3.1839342670515180e+01
        3.1839342670515180e+01 1.3435028147565258e+00
        1.3025244398007159e+01 2.3844169008418298e+01
        2.8349952215291445e+01 3.0217814950686360e+01
        3.0728231587550709e+01 3.0825453783281972e+01
        5.4178401981874789e+00 4.6491983465748191e+01
        6.5540629467162717e+01 3.8590011343422120e+01
        1.2840817337026373e+01 5.4417717555261529e+00
        3.0527661498332472e+00 3.6682020788167669e+01
        8.8333763297046943e+01 8.7658105427707909e+01
        8.2179323991821320e+01 6.1713159071477513e+01
        2.3297157006464371e+01 1.3512316639449427e+01
        6.8145481650368822e+01 9.8213251966648428e+01
        9.6251904071374895e+01 9.3465511606225107e+01
        8.8815956598627110e+01 5.7977648579559357e+01
        2.5027125379583325e+01 8.2561888528430899e+01
        9.9374393447430194e+01 9.9071900185712110e+01
        9.7404695590281307e+01 9.4702254407674900e+01
        8.3858290300667079e+01 4.4414121671375653e+01
        7.0429771065827993e+01 9.8681377908719782e+01
        9.9119390058931955e+01 9.8889365753426944e+01
        9.5408382871188223e+01 9.2446690060398851e+01
        7.4757493146425844e+01 4.1846314646593605e+01
        9.0115718992363028e+01 9.6444054998202702e+01
        9.7738810681338947e+01 9.6185794763117372e+01
        9.3959517107753570e+01 8.6892677184571937e+01
        1.2343981841078849e+01 4.9858166494193334e+01
        7.1173993190866383e+01 8.3284228776141561e+01
        8.8431671530935915e+01 9.4110591152076154e+01
        9.0757202622759209e+01 8.0569980201759819e+00
        6.6214695259928703e+01 1.0367728566019623e+02
        6.4953526516479471e+01 2.3401469212370337e+01
        1.1235756706446409e+01 6.7409721687436104e+00
        5.0567203385226520e+01 1.3711433187534135e+02
        1.3795209763116307e+02 1.3175989573392602e+02
        1.0136908629103942e+02 4.3462701186164743e+01
        2.7718428253335532e+01 9.8213251966648428e+01
        1.5743750055395705e+02 1.5526814053039493e+02
        1.5189186212352402e+02 1.4429615936883991e+02
        9.7863942208858546e+01 4.6533524242416938e+01
        1.2745246643937848e+02 1.6003463649933170e+02
        1.6090345302835843e+02 1.5886632562258822e+02
        1.5546390442380385e+02 1.3848450648033233e+02
        7.7539270688784242e+01 1.1739086024137926e+02
        1.5971468964232889e+02 1.6080691805376131e+02
        1.6076629826799035e+02 1.5668402788415551e+02
        1.5180502355471253e+02 1.2598559617816849e+02
        7.1739685661434038e+01 1.4787479975939164e+02
        1.5719934385311274e+02 1.5961147842183709e+02
        1.5762531575933099e+02 1.5442708340659738e+02
        1.4364687908068299e+02 2.0745280579207126e+01
        8.2745785638748870e+01 1.1868127528011432e+02
        1.3791967624329303e+02 1.4555692096300606e+02
        1.5345124417005314e+02 1.4822931011352273e+02
        8.2243519220501184e+00 6.6119834177096692e+01
        1.0252383659601212e+02 6.3339660783145163e+01
        2.2608714612589942e+01 1.0892006719691885e+01
        6.9527777507901192e+00 5.0169028736650944e+01
        1.3612984115961524e+02 1.3739168097078800e+02
        1.3037277771845459e+02 1.0006961873799563e+02
        4.3442589331323077e+01 2.8648300957456232e+01
        9.6251904071374895e+01 1.5526814053039493e+02
        1.6013095695796201e+02 1.5747774949779023e+02
        1.4906781834986475e+02 1.0149698236620904e+02
        4.9489893839326172e+01 1.2592326117073861e+02
        1.6468487664356735e+02 1.6817141221019403e+02
        1.6652834348444310e+02 1.6267791688818070e+02
        1.4550408990860262e+02 8.4782511493288155e+01
        1.2034676702410260e+02 1.6703919349504289e+02
        1.6834652799740434e+02 1.6832636779919267e+02
        1.6425972241535783e+02 1.5944321807101369e+02
        1.3449147588528695e+02 7.5046313759398487e+01
        1.5489300970677976e+02 1.6466414431110024e+02
        1.6718717295303941e+02 1.6520101029053330e+02
        1.6200277793779969e+02 1.5197257361188531e+02
        2.0492514386243293e+01 8.4794666710787084e+01
        1.2298064691910406e+02 1.4326140089160589e+02
        1.5173658927746209e+02 1.6018666092306376e+02
        1.5566611573389835e+02 7.2625952813004773e+00
        6.3757771194487681e+01 1.0267070465051275e+02
        6.3042484893887135e+01 2.2107834994241038e+01
        1.0262377105515313e+01 6.8046296103684991e+00
        4.7973273105818791e+01 1.3365746281649103e+02
        1.3490776966989711e+02 1.3124894340986856e+02
        9.9989572447019583e+01 4.3581038459549063e+01
        2.8987676047757269e+01 9.3465511606225107e+01
        1.5189186212352402e+02 1.5747774949779023e+02
        1.6063224868557427e+02 1.5389505599059072e+02
        1.0473854101808996e+02 5.1547046604951220e+01
        1.2329273211062475e+02 1.6247391453091055e+02
        1.6728638372481055e+02 1.6712485486698006e+02
        1.6556270858371010e+02 1.4817158993710524e+02
        8.7434911202593341e+01 1.2029453393125601e+02
        1.6669360668519028e+02 1.6810266466811299e+02
        1.6837405886385483e+02 1.6682278667762876e+02
        1.6207377366431885e+02 1.3632592034410686e+02
        7.5271755504652774e+01 1.5528066677788541e+02
        1.6445187544809812e+02 1.6697325548331798e+02
        1.6665665267780423e+02 1.6468888907507062e+02
        1.5399201806262136e+02 2.0624891435964791e+01
        8.3907753205203733e+01 1.2271443817419544e+02
        1.4258863169309350e+02 1.5137063184128380e+02
        1.6178546773389328e+02 1.5750500463073453e+02
        6.5720259147113174e+00 6.0885094460467982e+01
        1.0020673936790922e+02 6.2640103392992117e+01
        2.1632449171535761e+01 9.2253400199115276e+00
        6.5083333030343056e+00 4.4498967611208897e+01
        1.2738651905145051e+02 1.2794094330377050e+02
        1.2738038621978021e+02 1.0016046059221992e+02
        4.3215505977459259e+01 2.7901217635944484e+01
        8.8815956598627110e+01 1.4429615936883991e+02
        1.4906781834986475e+02 1.5389505599059072e+02
        1.5261082830062406e+02 1.0695218539553326e+02
        5.2486483279926546e+01 1.1782182704377789e+02
        1.5479401426547838e+02 1.5836693091409811e+02
        1.5902137540354406e+02 1.5906367674281569e+02
        1.4571768859132899e+02 8.6144944930397827e+01
        1.1475693232168064e+02 1.5815735387633981e+02
        1.5910490166395903e+02 1.5978372108191252e+02
        1.5983059608191252e+02 1.5740572485569180e+02
        1.3371798057319199e+02 6.9781102828955454e+01
        1.4723038122326872e+02 1.5570835022905032e+02
        1.5819044458121061e+02 1.5908438395708799e+02
        1.5897108991053739e+02 1.5072757486865362e+02
        1.8465259803290088e+01 7.7575242812950677e+01
        1.1583493169867614e+02 1.3462164105712145e+02
        1.4306812419478422e+02 1.5482445920175368e+02
        1.5345610546942711e+02 5.0599077804262684e+00
        3.8616274528083579e+01 6.3082007199474212e+01
        4.5895464883698963e+01 2.1267014088043201e+01
        9.7870684175487650e+00 6.5577160198195479e+00
        2.6995513082747159e+01 8.1331605642658843e+01
        8.3059708056001028e+01 8.1875260098154854e+01
        7.7464547623985709e+01 4.4774046002719118e+01
        2.9116564861014485e+01 5.7977648579559357e+01
        9.7863942208858546e+01 1.0149698236620904e+02
        1.0473854101808996e+02 1.0695218539553326e+02
        9.3403742078845511e+01 5.5546682189726909e+01
        7.8438133908572809e+01 1.0927168908041293e+02
        1.1214102549119680e+02 1.1219997613357357e+02
        1.1236679715051511e+02 1.1039606281038995e+02
        8.2269580120921660e+01 7.9183246413751760e+01
        1.1192368732315590e+02 1.1265514593198895e+02
        1.1329959033802152e+02 1.1333084033802152e+02
        1.1320469238377548e+02 1.0641486791544048e+02
        4.9459088504954593e+01 1.0427949168705248e+02
        1.1039902477628914e+02 1.1222902675527530e+02
        1.1291405888601344e+02 1.1330443987508063e+02
        1.1196983158174770e+02 1.3181453257718749e+01
        5.7556946986919989e+01 8.6114782987687079e+01
        9.9275069927259096e+01 1.0464762561634231e+02
        1.0953314797884570e+02 1.1053451879952141e+02
        2.4081609416034437e+00 1.4576363840048792e+01
        2.1134651924553040e+01 2.0413372114935122e+01
        1.5999520618190193e+01 1.0809751871011311e+01
        6.3277777507901192e+00 9.4128042694340479e+00
        3.0025297367202356e+01 3.3085518895023398e+01
        3.3484928512738811e+01 3.8612383725946707e+01
        3.8634107306417491e+01 3.1106376758970370e+01
        2.5027125379583325e+01 4.6533524242416938e+01
        4.9489893839326172e+01 5.1547046604951220e+01
        5.2486483279926546e+01 5.5546682189726909e+01
        5.2330532793571351e+01 3.3576118444527722e+01
        5.7941560505463016e+01 6.0309095256328590e+01
        5.9832721775777543e+01 5.9782332152231241e+01
        5.9651074512137306e+01 5.9607915141310954e+01
        3.8696065574743031e+01 5.9471907742321491e+01
        6.0471907779574394e+01 6.0643261939287186e+01
        6.0651074439287186e+01 6.0651074439287186e+01
        6.0584129994875852e+01 2.3850396941578367e+01
        5.4080636091286166e+01 5.8638053685426712e+01
        6.0026074439287186e+01 6.0526074439287186e+01
        6.0651074439287186e+01 6.0651074439287186e+01
        5.2622271175318041e+00 2.7881424979841057e+01
        4.4905025003240354e+01 5.2997665880338928e+01
        5.6565388408957588e+01 5.7782607771682734e+01
        5.8178852154148949e+01 6.7776763088047751e+00
        5.7185116281752208e+01 8.8335352989869193e+01
        5.5661826077018624e+01 1.8562357690946861e+01
        6.9272428229910048e+00 3.7158796372568164e+00
        4.3099846777080259e+01 1.1446999402707391e+02
        1.1424516271054955e+02 1.0952496307384925e+02
        8.2550325941074561e+01 3.1031638820670167e+01
        1.6942402182087079e+01 8.2561888528430899e+01
        1.2745246643937848e+02 1.2592326117073861e+02
        1.2329273211062475e+02 1.1782182704377789e+02
        7.8438133908572809e+01 3.3576118444527722e+01
        1.1211869285951811e+02 1.3407329979195916e+02
        1.3472954205885713e+02 1.3241092363214710e+02
        1.2965478947400493e+02 1.1610559939627720e+02
        6.2807257627423212e+01 1.0168909947610553e+02
        1.3501665277978154e+02 1.3509310692429176e+02
        1.3495589213223133e+02 1.3134812576323748e+02
        1.2754730794579305e+02 1.0571634794298193e+02
        6.1818095428802458e+01 1.2602313728879165e+02
        1.3286552502951693e+02 1.3404572559076377e+02
        1.3230533813650970e+02 1.2964338515785374e+02
        1.2098740122066519e+02 1.7358013943805158e+01
        7.0116064180673817e+01 1.0026184253193949e+02
        1.1608375194052439e+02 1.2259496441807451e+02
        1.2938200434277354e+02 1.2546690025300481e+02
        7.2778096562596382e+00 6.5211223060472150e+01
        1.0305286437273026e+02 6.4582577444612980e+01
        2.2523575713030166e+01 1.0176728966749376e+01
        5.7027777574128571e+00 5.0095596040932485e+01
        1.3607845227503114e+02 1.3694862543046474e+02
        1.3167284715299806e+02 1.0227781317293642e+02
        4.5885073917753260e+01 3.0271171350349427e+01
        9.9374393447430194e+01 1.6003463649933170e+02
        1.6468487664356735e+02 1.6247391453091055e+02
        1.5479401426547838e+02 1.0927168908041293e+02
        5.7941560505463016e+01 1.3407329979195916e+02
        1.8412183059212600e+02 1.8910021602170704e+02
        1.8579969740536475e+02 1.8060805558787453e+02
        1.6252325644504143e+02 1.0017274275498306e+02
        1.3597572152433389e+02 1.8876407273756871e+02
        1.8976845585435262e+02 1.8960171484947205e+02
        1.8551944446563721e+02 1.8044512763619423e+02
        1.5390859378099441e+02 8.9113890900991777e+01
        1.7615800950639226e+02 1.8608749483691321e+02
        1.8844689500331879e+02 1.8646073234081268e+02
        1.8326249998807907e+02 1.7236510816216469e+02
        2.5237861648756599e+01 1.0007666529230588e+02
        1.4152898118479936e+02 1.6275210299434852e+02
        1.7208909678546550e+02 1.8091166075774368e+02
        1.7593972664036681e+02 8.2023611702714803e+00
        6.6323723047971725e+01 1.0392543379962444e+02
        6.5328063555061817e+01 2.3613506257534027e+01
        1.1419784497469664e+01 6.9249999597668648e+00
        5.0445340445932047e+01 1.3695761892944574e+02
        1.3805556984245777e+02 1.3262927074730396e+02
        1.0300621592253447e+02 4.7553704300561897e+01
        3.1818798682686907e+01 9.9071900185712110e+01
        1.6090345302835843e+02 1.6817141221019403e+02
        1.6728638372481055e+02 1.5836693091409811e+02
        1.1214102549119680e+02 6.0309095256328590e+01
        1.3472954205885713e+02 1.8910021602170704e+02
        1.9994170128186545e+02 1.9688087793224389e+02
        1.9030611116899382e+02 1.7106316384669805e+02
        1.0742517329191215e+02 1.4073979559201149e+02
        1.9889939387997728e+02 2.0112415121256569e+02
        2.0098921477794647e+02 1.9690694439411163e+02
        1.9179356506466866e+02 1.6504418399982984e+02
        9.5625264476587375e+01 1.8661940602052357e+02
        1.9726969963312149e+02 1.9983439493179321e+02
        1.9784823226928711e+02 1.9464999991655350e+02
        1.8372917059063911e+02 2.7341090869862171e+01
        1.0676590131322359e+02 1.5014262987700877e+02
        1.7267490391221679e+02 1.8284310906352820e+02
        1.9210471625998616e+02 1.8717444879934192e+02
        7.5343123125428271e+00 6.4601279917898069e+01
        1.0394890776005548e+02 6.5539174653589725e+01
        2.3549617365002632e+01 1.1336451160824961e+01
        6.9527777507901192e+00 4.8924203674186771e+01
        1.3540036675851439e+02 1.3634418607735597e+02
        1.3278855477586256e+02 1.0336732702702284e+02
        4.7372762915678322e+01 3.1581530140712857e+01
        9.7404695590281307e+01 1.5886632562258822e+02
        1.6652834348444310e+02 1.6712485486698006e+02
        1.5902137540354406e+02 1.1219997613357357e+02
        5.9832721775777543e+01 1.3241092363214710e+02
        1.8579969740536475e+02 1.9688087793224389e+02
        1.9543785669627789e+02 1.9005185964868394e+02
        1.7039538612071013e+02 1.0653525053241600e+02
        1.3858742655203423e+02 1.9599926063861511e+02
        1.9808660715818405e+02 1.9839753865900263e+02
        1.9608741313219070e+02 1.9111465880274773e+02
        1.6447246524804169e+02 9.4549874708872323e+01
        1.8445790568538729e+02 1.9450249848212860e+02
        1.9703220837682744e+02 1.9629041975736618e+02
        1.9391249990463257e+02 1.8302682682871819e+02
        2.6966325202443535e+01 1.0495283026652939e+02
        1.4816682651392856e+02 1.7005689470332621e+02
        1.8029507970333020e+02 1.9089855166309604e+02
        1.8643694878742099e+02 6.6262907120212908e+00
        6.2095620703101162e+01 1.0342947715557284e+02
        6.5467889940548275e+01 2.3481909051537514e+01
        1.1280895616859198e+01 6.9527777507901192e+00
        4.6439454222578142e+01 1.3253557558067970e+02
        1.3351111118495464e+02 1.3245980786859991e+02
        1.0338206662893296e+02 4.7276408788748085e+01
        3.1464342670515180e+01 9.4702254407674900e+01
        1.5546390442380385e+02 1.6267791688818070e+02
        1.6556270858371010e+02 1.5906367674281569e+02
        1.1236679715051511e+02 5.9782332152231241e+01
        1.2965478947400493e+02 1.8060805558787453e+02
        1.9030611116899382e+02 1.9005185964868394e+02
        1.8755598202122212e+02 1.6925406672990982e+02
        1.0605990337062627e+02 1.3534941771188636e+02
        1.8990479805750979e+02 1.9161736124753952e+02
        1.9231961816549301e+02 1.9234305566549301e+02
        1.8787386038609677e+02 1.6162440986763272e+02
        9.0448455129512311e+01 1.7897680304169654e+02
        1.8821984148025513e+02 1.9070290416479111e+02
        1.9159684354066849e+02 1.9046611120522022e+02
        1.7979653188586235e+02 2.5118174225795599e+01
        1.0006580879628612e+02 1.4307831984767574e+02
        1.6406446687297691e+02 1.7434612554725675e+02
        1.8672626120626927e+02 1.8313056009311228e+02
        6.1439038608900525e+00 5.5560083802224710e+01
        9.1443262874231323e+01 6.0606301264507742e+01
        2.3242790860345629e+01 1.1101883290864436e+01
        6.8540123238423725e+00 3.9559577711947256e+01
        1.1639129549138400e+02 1.1761496547726937e+02
        1.1678824217096837e+02 9.8273037321110735e+01
        4.7362151687179200e+01 3.1394898252561688e+01
        8.3858290300667079e+01 1.3848450648033233e+02
        1.4550408990860262e+02 1.4817158993710524e+02
        1.4571768859132899e+02 1.1039606281038995e+02
        5.9651074512137306e+01 1.1610559939627720e+02
        1.6252325644504143e+02 1.7106316384669805e+02
        1.7039538612071013e+02 1.6925406672990982e+02
        1.6156500183858282e+02 1.0603140776883443e+02
        1.2149733703133859e+02 1.7132635833947344e+02
        1.7278413619101048e+02 1.7344733060896397e+02
        1.7350983060896397e+02 1.7282692636726171e+02
        1.5525251497816328e+02 7.9353923480552581e+01
        1.6111183227351191e+02 1.6962438313408944e+02
        1.7195427504648464e+02 1.7281538614886577e+02
        1.7339583369647278e+02 1.6875850980603300e+02
        2.0056147308336975e+01 8.8098859552090900e+01
        1.2878513242225256e+02 1.4810226564284147e+02
        1.5722408009496073e+02 1.6860476678760810e+02
        1.6937946222320613e+02 3.9133854656560514e+00
        2.7897925857188383e+01 4.2098322760389550e+01
        3.3862803795355035e+01 2.0239583956219668e+01
        1.1350340079516172e+01 6.8555555418133736e+00
        1.8624273226974204e+01 5.7586015174690843e+01
        6.0253549225185481e+01 5.8566104786929756e+01
        6.0675311437893171e+01 4.4911906641584764e+01
        3.1754782480302232e+01 4.4414121671375653e+01
        7.7539270688784242e+01 8.4782511493288155e+01
        8.7434911202593341e+01 8.6144944930397827e+01
        8.2269580120921660e+01 5.9607915141310954e+01
        6.2807257627423212e+01 1.0017274275498306e+02
        1.0742517329191215e+02 1.0653525053241600e+02
        1.0605990337062627e+02 1.0603140776883443e+02
        9.4216568339818636e+01 7.2679255398047459e+01
        1.0760188541457492e+02 1.0891068267782023e+02
        1.0932997278589755e+02 1.0939247278589755e+02
        1.0939247278589755e+02 1.0815609988776691e+02
        5.0296872491508125e+01 1.0161714614056689e+02
        1.0728392539148213e+02 1.0871363899258930e+02
        1.0923452971769024e+02 1.0939247278589755e+02
        1.0937239693064934e+02 1.3524215615676390e+01
        5.6862541420673239e+01 8.3995123967443135e+01
        9.6279617778620278e+01 1.0259715135061784e+02
        1.0595279309673948e+02 1.0688054907178858e+02
        5.4010882863580782e+00 4.6617035589583807e+01
        7.8329521324061062e+01 5.1268907991569236e+01
        1.7049648477941467e+01 6.4702297388569194e+00
        3.9079012533389950e+00 3.5979314598519409e+01
        1.0059801665157207e+02 9.9859197556158477e+01
        9.8862079540280234e+01 7.5989263986285010e+01
        3.2453652860220231e+01 1.9799488781427513e+01
        7.0429771065827993e+01 1.1739086024137926e+02
        1.2034676702410260e+02 1.2029453393125601e+02
        1.1475693232168064e+02 7.9183246413751760e+01
        3.8696065574743031e+01 1.0168909947610553e+02
        1.3597572152433389e+02 1.4073979559201149e+02
        1.3858742655203423e+02 1.3534941771188636e+02
        1.2149733703133859e+02 7.2679255398047459e+01
        1.1122973279856926e+02 1.4237380776290328e+02
        1.4210104954987764e+02 1.4235280472567393e+02
        1.4003047483414412e+02 1.3579931204466632e+02
        1.1642224275644253e+02 7.3292900817712109e+01
        1.3614353848428937e+02 1.4106469050153908e+02
        1.4212606854699146e+02 1.4133478928212318e+02
        1.3810407050247915e+02 1.3034605083046492e+02
        2.1677204514941458e+01 7.9679011161982373e+01
        1.1030675834509452e+02 1.2434780986649321e+02
        1.3111070478025113e+02 1.3671144344801110e+02
        1.3231614290455269e+02 7.3198745585614713e+00
        6.4978095488414453e+01 1.0291064110437783e+02
        6.4693882560563807e+01 2.2726600299713343e+01
        1.0319090072893434e+01 5.8659722068243560e+00
        4.9768196818211550e+01 1.3569070576087037e+02
        1.3646811778477235e+02 1.3150251454800036e+02
        1.0230033265523483e+02 4.6583969998484562e+01
        3.0728231547814275e+01 9.8681377908719782e+01
        1.5971468964232889e+02 1.6703919349504289e+02
        1.6669360668519028e+02 1.5815735387633981e+02
        1.1192368732315590e+02 5.9471907742321491e+01
        1.3501665277978154e+02 1.8876407273756871e+02
        1.9889939387997728e+02 1.9599926063861511e+02
        1.8990479805750979e+02 1.7132635833947344e+02
        1.0760188541457492e+02 1.4237380776290328e+02
        2.0027308143052738e+02 2.0136584698767575e+02
        2.0132759056561491e+02 1.9756104797124863e+02
        1.9236954364180565e+02 1.6553455538757632e+02
        9.6788158012650626e+01 1.8843499902476350e+02
        1.9822704975959920e+02 2.0032499993980042e+02
        1.9857763428804083e+02 1.9530410349369049e+02
        1.8436027428940201e+02 2.8181333915715417e+01
        1.0861275320713260e+02 1.5201970096851056e+02
        1.7359239977796594e+02 1.8354965544175167e+02
        1.9279623308557206e+02 1.8782855237647891e+02
        8.0460026914736744e+00 6.6125806421041489e+01
        1.0377439217269421e+02 6.5208271928131580e+01
        2.3431214630603790e+01 1.1221867870539427e+01
        6.7270833328366280e+00 5.0361609267599789e+01
        1.3675970230251551e+02 1.3785765321552753e+02
        1.3248604162037373e+02 1.0291767429560423e+02
        4.7428414988998369e+01 3.1718972310354864e+01
        9.9119390058931955e+01 1.6080691805376131e+02
        1.6834652799740434e+02 1.6810266466811299e+02
        1.5910490166395903e+02 1.1265514593198895e+02
        6.0471907779574394e+01 1.3509310692429176e+02
        1.8976845585435262e+02 2.0112415121256569e+02
        1.9808660715818405e+02 1.9161736124753952e+02
        1.7278413619101048e+02 1.0891068267782023e+02
        1.4210104954987764e+02 2.0136584698767575e+02
        2.0371239635826629e+02 2.0348157596588135e+02
        1.9946180558204651e+02 1.9427030125260353e+02
        1.6729022575914860e+02 9.7348343174766612e+01
        1.8919165917366377e+02 1.9983823269605637e+02
        2.0238925611972809e+02 2.0040309345722198e+02
        1.9720486110448837e+02 1.8623715677857399e+02
        2.8501333905383945e+01 1.0929735192104621e+02
        1.5265909161896985e+02 1.7518819486349821e+02
        1.8537945172190666e+02 1.9465957744792104e+02
        1.8972930998727679e+02 7.9898557111020452e+00
        6.5851292078437183e+01 1.0419411609849053e+02
        6.5783966340124607e+01 2.3731909051537514e+01
        1.1447562288492918e+01 6.9527777507901192e+00
        5.0155370340607703e+01 1.3674260982597048e+02
        1.3761195084200034e+02 1.3290045842166518e+02
        1.0364336871355772e+02 4.7776408788748085e+01
        3.1839342670515180e+01 9.8889365753426944e+01
        1.6076629826799035e+02 1.6832636779919267e+02
        1.6837405886385483e+02 1.5978372108191252e+02
        1.1329959033802152e+02 6.0643261939287186e+01
        1.3495589213223133e+02 1.8960171484947205e+02
        2.0098921477794647e+02 1.9839753865900263e+02
        1.9231961816549301e+02 1.7344733060896397e+02
        1.0932997278589755e+02 1.4235280472567393e+02
        2.0132759056561491e+02 2.0348157596588135e+02
        2.0354560555303556e+02 2.0010742187500000e+02
        1.9493349567055702e+02 1.6795342017710209e+02
        9.7442729741334915e+01 1.8946635018043941e+02
        1.9983082840912840e+02 2.0237719801791951e+02
        2.0089050662517548e+02 1.9786805552244186e+02
        1.8690035119652748e+02 2.8398794842883945e+01
        1.0931031488627195e+02 1.5297893382175073e+02
        1.7523246420303303e+02 1.8549567350278494e+02
        1.9521692932925276e+02 1.9039250440523028e+02
        6.6923844609409571e+00 6.2402026936411858e+01
        1.0371944245696068e+02 6.5783966340124607e+01
        2.3731909051537514e+01 1.1447562288492918e+01
        6.9527777507901192e+00 4.6864436879754066e+01
        1.3313514155894518e+02 1.3405186639726162e+02
        1.3272639642655849e+02 1.0364336871355772e+02
        4.7776408788748085e+01 3.1839342670515180e+01
        9.5408382871188223e+01 1.5668402788415551e+02
        1.6425972241535783e+02 1.6682278667762876e+02
        1.5983059608191252e+02 1.1333084033802152e+02
        6.0651074439287186e+01 1.3134812576323748e+02
        1.8551944446563721e+02 1.9690694439411163e+02
        1.9608741313219070e+02 1.9234305566549301e+02
        1.7350983060896397e+02 1.0939247278589755e+02
        1.4003047483414412e+02 1.9756104797124863e+02
        1.9946180558204651e+02 2.0010742187500000e+02
        2.0001171875000000e+02 1.9499599567055702e+02
        1.6801592017710209e+02 9.5895854741334915e+01
        1.8674437236785889e+02 1.9606428581476212e+02
        1.9854734849929810e+02 1.9937097537517548e+02
        1.9793055552244186e+02 1.8696285119652748e+02
        2.7710318280383945e+01 1.0684156488627195e+02
        1.5044687686860561e+02 1.7162418901175261e+02
        1.8210897263884544e+02 1.9437765866518021e+02
        1.9045500440523028e+02 6.5695733983240494e+00
        6.1199550980510601e+01 1.0085918612431709e+02
        6.4643307222709524e+01 2.3590674491863190e+01
        1.1447562288492918e+01 6.9527777507901192e+00
        4.4334273366753912e+01 1.2843497016232692e+02
        1.2928853046231799e+02 1.2899386056728599e+02
        1.0307577755881248e+02 4.7776408788748085e+01
        3.1839342670515180e+01 9.2446690060398851e+01
        1.5180502355471253e+02 1.5944321807101369e+02
        1.6207377366431885e+02 1.5740572485569180e+02
        1.1320469238377548e+02 6.0651074439287186e+01
        1.2754730794579305e+02 1.8044512763619423e+02
        1.9179356506466866e+02 1.9111465880274773e+02
        1.8787386038609677e+02 1.7282692636726171e+02
        1.0939247278589755e+02 1.3579931204466632e+02
        1.9236954364180565e+02 1.9427030125260353e+02
        1.9493349567055702e+02 1.9499599567055702e+02
        1.9296344438615361e+02 1.6789757760012301e+02
        9.2435980953885874e+01 1.8162474848861331e+02
        1.9087410379901405e+02 1.9335584416985512e+02
        1.9424978354573250e+02 1.9451001572535728e+02
        1.8638117919926458e+02 2.5786497996629503e+01
        1.0242310658614778e+02 1.4562772801137251e+02
        1.6654708211814935e+02 1.7694852434072064e+02
        1.8983614561968380e+02 1.8888541449891898e+02
        5.6313131662147509e+00 4.9274766698137235e+01
        8.1383518614523140e+01 5.6053795448544186e+01
        2.3084487237824931e+01 1.1447562288492918e+01
        6.9527777507901192e+00 3.4643403545086329e+01
        1.0383453715710647e+02 1.0518884840027050e+02
        1.0436126140506900e+02 9.1553624924704508e+01
        4.7641994525493423e+01 3.1839342670515180e+01
        7.4757493146425844e+01 1.2598559617816849e+02
        1.3449147588528695e+02 1.3632592034410686e+02
        1.3371798057319199e+02 1.0641486791544048e+02
        6.0584129994875852e+01 1.0571634794298193e+02
        1.5390859378099441e+02 1.6504418399982984e+02
        1.6447246524804169e+02 1.6162440986763272e+02
        1.5525251497816328e+02 1.0815609988776691e+02
        1.1642224275644253e+02 1.6553455538757632e+02
        1.6729022575914860e+02 1.6795342017710209e+02
        1.6801592017710209e+02 1.6789757760012301e+02
        1.5725114439823483e+02 8.0805988338488106e+01
        1.5810971827408753e+02 1.6522075069574532e+02
        1.6698332146390300e+02 1.6764149409387502e+02
        1.6801592017710209e+02 1.6732851876814726e+02
        2.1220297467301702e+01 8.9569710585436582e+01
        1.2817167484328266e+02 1.4614534277984444e+02
        1.5457090051931633e+02 1.6339487849155722e+02
        1.6533893574236976e+02 2.4612876224253220e+00
        2.5667038231512773e+01 4.5596558111959830e+01
        2.9522825129289572e+01 9.7407454436195309e+00
        3.9847789883830802e+00 2.3198109639279636e+00
        2.0230317974937893e+01 5.9533689165044102e+01
        5.8155734856551803e+01 5.7094719953197540e+01
        4.3360025984372086e+01 1.8715676427762126e+01
        1.1195860685076759e+01 4.1846314646593605e+01
        7.1739685661434038e+01 7.5046313759398487e+01
        7.5271755504652774e+01 6.9781102828955454e+01
        4.9459088504954593e+01 2.3850396941578367e+01
        6.1818095428802458e+01 8.9113890900991777e+01
        9.5625264476587375e+01 9.4549874708872323e+01
        9.0448455129512311e+01 7.9353923480552581e+01
        5.0296872491508125e+01 7.3292900817712109e+01
        9.6788158012650626e+01 9.7348343174766612e+01
        9.7442729741334915e+01 9.5895854741334915e+01
        9.2435980953885874e+01 8.0805988338488106e+01
        6.3844871691658170e+01 9.6459877214116148e+01
        9.7321645194077334e+01 9.7497417241334915e+01
        9.6919292241334915e+01 9.4286541457470548e+01
        8.9430228544338945e+01 2.2470960151408264e+01
        6.9886406697100256e+01 8.5813740775280507e+01
        9.1362554291160933e+01 9.4128217780530122e+01
        9.4873082142301485e+01 9.0597049924205450e+01
        5.8270103123217218e+00 5.8302861239724649e+01
        9.5641159689621986e+01 6.0365417059404649e+01
        2.0819081885263920e+01 9.5578053986860638e+00
        5.3172916470861260e+00 4.5150155772700586e+01
        1.2633290632377458e+02 1.2651384478579868e+02
        1.2261139046517859e+02 9.5384774108930927e+01
        4.2798210006856308e+01 2.8015210764327399e+01
        9.0115718992363028e+01 1.4787479975939164e+02
        1.5489300970677976e+02 1.5528066677788541e+02
        1.4723038122326872e+02 1.0427949168705248e+02
        5.4080636091286166e+01 1.2602313728879165e+02
        1.7615800950639226e+02 1.8661940602052357e+02
        1.8445790568538729e+02 1.7897680304169654e+02
        1.6111183227351191e+02 1.0161714614056689e+02
        1.3614353848428937e+02 1.8843499902476350e+02
        1.8919165917366377e+02 1.8946635018043941e+02
        1.8674437236785889e+02 1.8162474848861331e+02
        1.5810971827408753e+02 9.6459877214116148e+01
        1.8288503529664058e+02 1.8885829429551256e+02
        1.8959366354975822e+02 1.8837558506265680e+02
        1.8449088468133667e+02 1.7504654958984034e+02
        2.8423208905383945e+01 1.0910759412722493e+02
        1.5089756270945026e+02 1.6911050137467811e+02
        1.7732369782351401e+02 1.8354742761695363e+02
        1.7822173232827927e+02 7.3950853761918669e+00
        6.3603190832722809e+01 1.0125183033430615e+02
        6.3881327262037338e+01 2.2681597698934866e+01
