<?xml version="1.0"?>
<opencv_storage>
<my_nb type_id="opencv-ml-bayesian">
  <var_count>9</var_count>
  <var_all>9</var_all>
  <cls_labels type_id="opencv-matrix">
    <rows>1</rows>
    <cols>7</cols>
    <dt>i</dt>
    <data>
      -1 0 1 2 3 4 5</data></cls_labels>
  <count>
    <_ type_id="opencv-matrix">
      <rows>1</rows>
      <cols>9</cols>
      <dt>i</dt>
      <data>
        307 307 307 307 307 307 307 307 307</data></_>
    <_ type_id="opencv-matrix">
      <rows>1</rows>
      <cols>9</cols>
      <dt>i</dt>
      <data>
        216 216 216 216 216 216 216 216 216</data></_>
    <_ type_id="opencv-matrix">
      <rows>1</rows>
      <cols>9</cols>
      <dt>i</dt>
      <data>
        546 546 546 546 546 546 546 546 546</data></_>
    <_ type_id="opencv-matrix">
      <rows>1</rows>
      <cols>9</cols>
      <dt>i</dt>
      <data>
        167 167 167 167 167 167 167 167 167</data></_>
    <_ type_id="opencv-matrix">
      <rows>1</rows>
      <cols>9</cols>
      <dt>i</dt>
      <data>
        185 185 185 185 185 185 185 185 185</data></_>
    <_ type_id="opencv-matrix">
      <rows>1</rows>
      <cols>9</cols>
      <dt>i</dt>
      <data>
        158 158 158 158 158 158 158 158 158</data></_>
    <_ type_id="opencv-matrix">
      <rows>1</rows>
      <cols>9</cols>
      <dt>i</dt>
      <data>
        322 322 322 322 322 322 322 322 322</data></_></count>
  <sum>
    <_ type_id="opencv-matrix">
      <rows>1</rows>
      <cols>9</cols>
      <dt>d</dt>
      <data>
        1.0588012588582933e+02 3.9076322631968651e+01
        1.5313722652586875e+01 8.4135978806996718e+01
        9.7793638615868986e+01 1.0847515548852971e+02
        4.0052673896308988e+01 7.1740159516397398e+01
        1.1514500173187116e+02</data></_>
    <_ type_id="opencv-matrix">
      <rows>1</rows>
      <cols>9</cols>
      <dt>d</dt>
      <data>
        8.0283352100988850e+01 5.0653085054596886e+01
        3.1383375643927138e+01 8.7149519543861970e+01
        1.6608143214159645e+02 1.2362489186157472e+02
        1.7201379481935874e+01 1.0062992381304502e+02
        9.2662853311747313e+01</data></_>
    <_ type_id="opencv-matrix">
      <rows>1</rows>
      <cols>9</cols>
      <dt>d</dt>
      <data>
        1.6985333345091203e+02 1.5084863074182067e+02
        4.3087790895544458e+01 1.6477137708349619e+02
        3.2883878636616282e+02 1.8597844187903684e+02
        6.8522385338263121e+01 1.9268449843092822e+02
        2.5768961646594107e+02</data></_>
    <_ type_id="opencv-matrix">
      <rows>1</rows>
      <cols>9</cols>
      <dt>d</dt>
      <data>
        2.5063072912162170e+01 3.3099493280053139e+01
        1.7537009892519563e+01 5.2099589757621288e+01
        1.2835221093893051e+02 7.4290194225497544e+01
        1.3297860899707302e+01 7.5487291997880675e+01
        6.0084811225533485e+01</data></_>
    <_ type_id="opencv-matrix">
      <rows>1</rows>
      <cols>9</cols>
      <dt>d</dt>
      <data>
        4.6925829224812333e+01 4.6581373704597354e+01
        2.5209800239244942e+01 5.8694809968583286e+01
        1.4867407706007361e+02 9.8944813710841117e+01
        1.8478742907289416e+01 7.5954981280781794e+01
        7.3528330959379673e+01</data></_>
    <_ type_id="opencv-matrix">
      <rows>1</rows>
      <cols>9</cols>
      <dt>d</dt>
      <data>
        5.3726233998080716e+01 5.5690658701118082e+01
        1.7801488322555088e+01 5.5207051597535610e+01
        1.1516917140781879e+02 7.2155498835432809e+01
        1.8299827342852950e+01 5.2936335862148553e+01
        5.7242881113663316e+01</data></_>
    <_ type_id="opencv-matrix">
      <rows>1</rows>
      <cols>9</cols>
      <dt>d</dt>
      <data>
        7.8870314555329969e+01 8.2425813403679058e+01
        2.5150200500822393e+01 1.5580864209303400e+02
        2.3844237132271519e+02 1.3973130769876298e+02
        3.6618122237385251e+01 1.2023843328165822e+02
        1.3779782294179313e+02</data></_></sum>
  <productsum>
    <_ type_id="opencv-matrix">
      <rows>9</rows>
      <cols>9</cols>
      <dt>d</dt>
      <data>
        6.4383947528657899e+01 2.1058517679477212e+01
        4.5470491118697787e+00 1.7240611479515810e+01
        2.8212622778309889e+01 2.8731214166385058e+01
        2.5359866828467970e-01 1.1588708923709991e+01
        3.0782594022189890e+01 2.1058517679477212e+01
        1.2337123821299500e+01 4.9715703636973068e+00
        9.4487144840662154e+00 1.8047057023946504e+01
        1.9780655055798867e+01 3.3119314097509878e-01
        5.2202138886589244e+00 1.3845525560764727e+01
        4.5470491118697787e+00 4.9715703636973068e+00
        5.4167880988176185e+00 7.7367662081201978e+00
        1.3018059186937148e+01 1.4979435109905079e+01
        1.2864584380660191e-01 4.4145342947134845e+00
        9.6513360729654565e+00 1.7240611479515810e+01
        9.4487144840662154e+00 7.7367662081201978e+00
        4.2013339488255554e+01 4.3963363972085510e+01
        4.4077629600502839e+01 8.1784429522147217e+00
        2.2921503042945048e+01 4.0633534036666276e+01
        2.8212622778309889e+01 1.8047057023946504e+01
        1.3018059186937148e+01 4.3963363972085510e+01
        7.1198025508433020e+01 7.6588470864319945e+01
        1.0141660235263199e+01 3.4745606032869659e+01
        6.5771735933129904e+01 2.8731214166385058e+01
        1.9780655055798867e+01 1.4979435109905079e+01
        4.4077629600502839e+01 7.6588470864319945e+01
        9.5320009666951393e+01 1.5354819273966028e+01
        4.2606165969858239e+01 8.2350806894519351e+01
        2.5359866828467970e-01 3.3119314097509878e-01
        1.2864584380660191e-01 8.1784429522147217e+00
        1.0141660235263199e+01 1.5354819273966028e+01
        2.2526412777681408e+01 2.3905262517612041e+01
        2.2065992567256885e+01 1.1588708923709991e+01
        5.2202138886589244e+00 4.4145342947134845e+00
        2.2921503042945048e+01 3.4745606032869659e+01
        4.2606165969858239e+01 2.3905262517612041e+01
        4.1985141043857865e+01 5.3050746678685748e+01
        3.0782594022189890e+01 1.3845525560764727e+01
        9.6513360729654565e+00 4.0633534036666276e+01
        6.5771735933129904e+01 8.2350806894519351e+01
        2.2065992567256885e+01 5.3050746678685748e+01
        8.9510371115178160e+01</data></_>
    <_ type_id="opencv-matrix">
      <rows>9</rows>
      <cols>9</cols>
      <dt>d</dt>
      <data>
        4.4372851503067132e+01 2.2896500922876321e+01
        7.9764027549450134e+00 3.6969026391845787e+01
        6.2271539832336330e+01 3.4831166534570229e+01
        4.0192048191423622e+00 2.9384457882145931e+01
        4.3577535370621909e+01 2.2896500922876321e+01
        1.9204682227583621e+01 9.0865601267955345e+00
        2.2465635057615636e+01 4.3922480169701494e+01
        3.1296793420472195e+01 4.1910859404246423e+00
        2.2770770921709126e+01 2.3549287293567346e+01
        7.9764027549450134e+00 9.0865601267955345e+00
        9.5404312798018331e+00 1.1052093530433336e+01
        2.7674283416088034e+01 2.6287338390962805e+01
        4.1696028891585915e+00 1.9418223959572451e+01
        8.7911727974419094e+00 3.6969026391845787e+01
        2.2465635057615636e+01 1.1052093530433336e+01
        4.3616393835473005e+01 7.2143530296915856e+01
        4.9039957486624566e+01 7.4727650399716650e+00
        4.0732788569149236e+01 4.3913430602619158e+01
        6.2271539832336330e+01 4.3922480169701494e+01
        2.7674283416088034e+01 7.2143530296915856e+01
        1.4668634179545742e+02 1.1298990662287757e+02
        1.4590242724652558e+01 8.5397195827094976e+01
        7.3241422328792581e+01 3.4831166534570229e+01
        3.1296793420472195e+01 2.6287338390962805e+01
        4.9039957486624566e+01 1.1298990662287757e+02
        1.0686399636395579e+02 1.2381542801153120e+01
        7.5314792657325810e+01 4.4506910256686155e+01
        4.0192048191423622e+00 4.1910859404246423e+00
        4.1696028891585915e+00 7.4727650399716650e+00
        1.4590242724652558e+01 1.2381542801153120e+01
        4.4833961276589127e+00 1.1566145772682226e+01
        5.8147539487386872e+00 2.9384457882145931e+01
        2.2770770921709126e+01 1.9418223959572451e+01
        4.0732788569149236e+01 8.5397195827094976e+01
        7.5314792657325810e+01 1.1566145772682226e+01
        6.1583116734190533e+01 3.6769766520132535e+01
        4.3577535370621909e+01 2.3549287293567346e+01
        8.7911727974419094e+00 4.3913430602619158e+01
        7.3241422328792581e+01 4.4506910256686155e+01
        5.8147539487386872e+00 3.6769766520132535e+01
        5.4975088451683149e+01</data></_>
    <_ type_id="opencv-matrix">
      <rows>9</rows>
      <cols>9</cols>
      <dt>d</dt>
      <data>
        7.5035462272595353e+01 6.0583275596598888e+01
        1.0641673240674558e+01 5.0152861116617629e+01
        1.1477156576842077e+02 5.3356838484557024e+01
        1.6837150682356832e+01 4.7410707542116654e+01
        9.1071806388938370e+01 6.0583275596598888e+01
        8.7223342858234957e+01 1.6796855996934539e+01
        3.3320994729990126e+01 1.1763789594034770e+02
        6.7090627901363433e+01 7.4072506305907133e+00
        3.1068577253747485e+01 8.6265608961192129e+01
        1.0641673240674558e+01 1.6796855996934539e+01
        1.1137533512202978e+01 1.2604225254900596e+01
        3.8945462749214194e+01 3.5579187390219616e+01
        5.9463596800992988e+00 2.3410007879393131e+01
        1.7091567056889009e+01 5.0152861116617629e+01
        3.3320994729990126e+01 1.2604225254900596e+01
        8.3001644493554451e+01 1.0850277911899411e+02
        5.6428152399346693e+01 3.2564615873543495e+01
        7.5858888660675447e+01 8.7205338087001749e+01
        1.1477156576842077e+02 1.1763789594034770e+02
        3.8945462749214194e+01 1.0850277911899411e+02
        2.5906846565366743e+02 1.6181768310991737e+02
        3.9740836627002956e+01 1.2307687550994297e+02
        1.6838600294919601e+02 5.3356838484557024e+01
        6.7090627901363433e+01 3.5579187390219616e+01
        5.6428152399346693e+01 1.6181768310991737e+02
        1.4064333679495959e+02 2.5666682480235934e+01
        9.2142831806469687e+01 7.9190490390458223e+01
        1.6837150682356832e+01 7.4072506305907133e+00
        5.9463596800992988e+00 3.2564615873543495e+01
        3.9740836627002956e+01 2.5666682480235934e+01
        2.2310343408197699e+01 4.1160274206523752e+01
        3.2926591161506110e+01 4.7410707542116654e+01
        3.1068577253747485e+01 2.3410007879393131e+01
        7.5858888660675447e+01 1.2307687550994297e+02
        9.2142831806469687e+01 4.1160274206523752e+01
        1.0853912809050469e+02 7.9766645738200765e+01
        9.1071806388938370e+01 8.6265608961192129e+01
        1.7091567056889009e+01 8.7205338087001749e+01
        1.6838600294919601e+02 7.9190490390458223e+01
        3.2926591161506110e+01 7.9766645738200765e+01
        1.6094237808773596e+02</data></_>
    <_ type_id="opencv-matrix">
      <rows>9</rows>
      <cols>9</cols>
      <dt>d</dt>
      <data>
        7.4696284931199086e+00 5.5575724113893692e+00
        3.5517008684776079e+00 7.2465363798330262e+00
        1.9156695897053687e+01 1.6091201675225690e+01
        2.5734579277620666e+00 1.1459494653267612e+01
        6.3087257240448071e+00 5.5575724113893692e+00
        9.0317823500777301e+00 3.9526504595530545e+00
        1.0382807079925584e+01 2.8417556782742743e+01
        1.7271904390394674e+01 2.4621106501532672e+00
        1.6737534905013781e+01 1.3454298059350963e+01
        3.5517008684776079e+00 3.9526504595530545e+00
        5.3720591116328302e+00 5.7126639696703343e+00
        1.5879927007990258e+01 1.4877090569552582e+01
        3.0979474851486319e+00 1.1335725831352182e+01
        3.7018476333654400e+00 7.2465363798330262e+00
        1.0382807079925584e+01 5.7126639696703343e+00
        1.8141473231061646e+01 4.2640813541640959e+01
        2.4715104326828907e+01 3.9276077520771207e+00
        2.3753334609974758e+01 1.8502217148525780e+01
        1.9156695897053687e+01 2.8417556782742743e+01
        1.5879927007990258e+01 4.2640813541640959e+01
        1.0961950888833410e+02 6.6289915765927972e+01
        1.0525111531716565e+01 6.2976363333696213e+01
        4.6870865365192074e+01 1.6091201675225690e+01
        1.7271904390394674e+01 1.4877090569552582e+01
        2.4715104326828907e+01 6.6289915765927972e+01
        5.9471478011003597e+01 9.7039503807602507e+00
        4.4084392285518490e+01 1.9098840266819643e+01
        2.5734579277620666e+00 2.4621106501532672e+00
        3.0979474851486319e+00 3.9276077520771207e+00
        1.0525111531716565e+01 9.7039503807602507e+00
        2.4003917409642019e+00 8.3921217849136518e+00
        2.5517119374921844e+00 1.1459494653267612e+01
        1.6737534905013781e+01 1.1335725831352182e+01
        2.3753334609974758e+01 6.2976363333696213e+01
        4.4084392285518490e+01 8.3921217849136518e+00
        4.5156549799986138e+01 2.5074300646536557e+01
        6.3087257240448071e+00 1.3454298059350963e+01
        3.7018476333654400e+00 1.8502217148525780e+01
        4.6870865365192074e+01 1.9098840266819643e+01
        2.5517119374921844e+00 2.5074300646536557e+01
        3.1039070678063847e+01</data></_>
    <_ type_id="opencv-matrix">
      <rows>9</rows>
      <cols>9</cols>
      <dt>d</dt>
      <data>
        1.4858265539718982e+01 1.3575700929727986e+01
        6.4530902535986616e+00 1.4298847802457441e+01
        3.7883566877893500e+01 2.7575016499419256e+01
        4.1394459052112023e+00 1.8386589145583692e+01
        1.8007204421916590e+01 1.3575700929727986e+01
        1.4811850682984709e+01 5.8384737957772490e+00
        1.4944223357841745e+01 3.9422139840387942e+01
        2.5522355764205543e+01 3.8538792120786289e+00
        1.6996256313205556e+01 1.9039700704305339e+01
        6.4530902535986616e+00 5.8384737957772490e+00
        7.3808844832180558e+00 8.0332047172059973e+00
        2.2835582423520208e+01 2.0792671258812149e+01
        4.6104177262613897e+00 1.5207079058267038e+01
        8.0873363350988789e+00 1.4298847802457441e+01
        1.4944223357841745e+01 8.0332047172059973e+00
        2.0585217801070378e+01 4.9179089541843524e+01
        3.1838449106443271e+01 5.4427708221147695e+00
        2.3476740926382469e+01 2.4232943045711586e+01
        3.7883566877893500e+01 3.9422139840387942e+01
        2.2835582423520208e+01 4.9179089541843524e+01
        1.2980003358187932e+02 8.8423672866645532e+01
        1.5123584303742529e+01 6.4783144802983969e+01
        6.0871664915414627e+01 2.7575016499419256e+01
        2.5522355764205543e+01 2.0792671258812149e+01
        3.1838449106443271e+01 8.8423672866645532e+01
        7.7636256498796854e+01 1.4564098358981662e+01
        5.4433990645814433e+01 3.2686782585276347e+01
        4.1394459052112023e+00 3.8538792120786289e+00
        4.6104177262613897e+00 5.4427708221147695e+00
        1.5123584303742529e+01 1.4564098358981662e+01
        4.3517688873539448e+00 1.2086355387482534e+01
        4.0181089582666587e+00 1.8386589145583692e+01
        1.6996256313205556e+01 1.5207079058267038e+01
        2.3476740926382469e+01 6.4783144802983969e+01
        5.4433990645814433e+01 1.2086355387482534e+01
        4.4125514980139940e+01 2.5809484595080818e+01
        1.8007204421916590e+01 1.9039700704305339e+01
        8.0873363350988789e+00 2.4232943045711586e+01
        6.0871664915414627e+01 3.2686782585276347e+01
        4.0181089582666587e+00 2.5809484595080818e+01
        4.1909112437603333e+01</data></_>
    <_ type_id="opencv-matrix">
      <rows>9</rows>
      <cols>9</cols>
      <dt>d</dt>
      <data>
        2.3233887159230047e+01 2.3987073107467129e+01
        5.2925245038441160e+00 1.9487778821994077e+01
        4.0879525942246332e+01 2.4428972377621282e+01
        4.2036683506369510e+00 1.3780904197578687e+01
        2.0796492268449942e+01 2.3987073107467129e+01
        3.0649119022771572e+01 6.2014950377316067e+00
        2.0114124113081751e+01 4.3804513459300082e+01
        2.7431925573475368e+01 4.5685468238392195e+00
        1.3629253988820290e+01 2.1823655619477922e+01
        5.2925245038441160e+00 6.2014950377316067e+00
        4.4876002708314751e+00 5.9769355992469819e+00
        1.5920270958698730e+01 1.3872079487704319e+01
        3.7381173444086864e+00 1.0051864098806778e+01
        5.0866597674857905e+00 1.9487778821994077e+01
        2.0114124113081751e+01 5.9769355992469819e+00
        2.1123601368407222e+01 4.2024616012770011e+01
        2.4208066993186296e+01 5.6280854345267066e+00
        1.6917434886401978e+01 2.1372258896864182e+01
        4.0879525942246332e+01 4.3804513459300082e+01
        1.5920270958698730e+01 4.2024616012770011e+01
        9.5729034172834119e+01 6.2475328441860036e+01
        1.4317546511289182e+01 4.2878809926538267e+01
        4.4816598292581467e+01 2.4428972377621282e+01
        2.7431925573475368e+01 1.3872079487704319e+01
        2.4208066993186296e+01 6.2475328441860036e+01
        5.2575256110061503e+01 1.1933610876338825e+01
        3.4342716575366481e+01 2.2901783893574020e+01
        4.2036683506369510e+00 4.5685468238392195e+00
        3.7381173444086864e+00 5.6280854345267066e+00
        1.4317546511289182e+01 1.1933610876338825e+01
        4.5605346205425885e+00 1.0878530014840599e+01
        5.0712958283830236e+00 1.3780904197578687e+01
        1.3629253988820290e+01 1.0051864098806778e+01
        1.6917434886401978e+01 4.2878809926538267e+01
        3.4342716575366481e+01 1.0878530014840599e+01
        3.0742072001859217e+01 1.6781179960996830e+01
        2.0796492268449942e+01 2.1823655619477922e+01
        5.0866597674857905e+00 2.1372258896864182e+01
        4.4816598292581467e+01 2.2901783893574020e+01
        5.0712958283830236e+00 1.6781179960996830e+01
        2.9296372246757247e+01</data></_>
    <_ type_id="opencv-matrix">
      <rows>9</rows>
      <cols>9</cols>
      <dt>d</dt>
      <data>
        2.8432634742210332e+01 2.4172696308831899e+01
        4.9818160404245502e+00 3.4387891614943278e+01
        5.6271169200891251e+01 3.1154938136763313e+01
        5.4782214557554108e+00 2.2517599524775335e+01
        3.2214482245130860e+01 2.4172696308831899e+01
        2.7759858487766820e+01 7.0477131179570662e+00
        4.2613211602780851e+01 6.8201429756410249e+01
        4.0657560697065939e+01 7.0682442969743517e+00
        2.8547248873881617e+01 3.5998858146090726e+01
        4.9818160404245502e+00 7.0477131179570662e+00
        6.9724375261927216e+00 1.1445163184242384e+01
        2.3477698387221604e+01 2.0467268072663821e+01
        4.7071896365517434e+00 1.5500470547878129e+01
        8.5192341778205005e+00 3.4387891614943278e+01
        4.2613211602780851e+01 1.1445163184242384e+01
        9.0078156616976244e+01 1.2939887745687284e+02
        7.0026983194028730e+01 1.6801018733213251e+01
        5.9683760794803717e+01 7.6993298845864274e+01
        5.6271169200891251e+01 6.8201429756410249e+01
        2.3477698387221604e+01 1.2939887745687284e+02
        2.0373282017950464e+02 1.2242423982376586e+02
        2.7705834376612223e+01 9.8740952325720741e+01
        1.1344342644721594e+02 3.1154938136763313e+01
        4.0657560697065939e+01 2.0467268072663821e+01
        7.0026983194028730e+01 1.2242423982376586e+02
        1.0336853755734658e+02 2.3806764190298502e+01
        7.4102038268865599e+01 6.1669187145555696e+01
        5.4782214557554108e+00 7.0682442969743517e+00
        4.7071896365517434e+00 1.6801018733213251e+01
        2.7705834376612223e+01 2.3806764190298502e+01
        1.1047667165576740e+01 2.4493514024394258e+01
        1.7520491889131410e+01 2.2517599524775335e+01
        2.8547248873881617e+01 1.5500470547878129e+01
        5.9683760794803717e+01 9.8740952325720741e+01
        7.4102038268865599e+01 2.4493514024394258e+01
        7.0918105711454345e+01 5.7130559119851668e+01
        3.2214482245130860e+01 3.5998858146090726e+01
        8.5192341778205005e+00 7.6993298845864274e+01
        1.1344342644721594e+02 6.1669187145555696e+01
        1.7520491889131410e+01 5.7130559119851668e+01
        8.0955801038860287e+01</data></_></productsum>
  <avg>
    <_ type_id="opencv-matrix">
      <rows>1</rows>
      <cols>9</cols>
      <dt>d</dt>
      <data>
        3.4488640353690336e-01 1.2728443854061450e-01
        4.9881832744582653e-02 2.7405856288924013e-01
        3.1854605412335174e-01 3.5333926869227916e-01
        1.3046473581859605e-01 2.3368130135634332e-01
        3.7506515222107872e-01</data></_>
    <_ type_id="opencv-matrix">
      <rows>1</rows>
      <cols>9</cols>
      <dt>d</dt>
      <data>
        3.7168218565272615e-01 2.3450502340091151e-01
        1.4529340575892194e-01 4.0346999788824989e-01
        7.6889551917405763e-01 5.7233746232210525e-01
        7.9636016120073483e-02 4.6587927691224551e-01
        4.2899469125808942e-01</data></_>
    <_ type_id="opencv-matrix">
      <rows>1</rows>
      <cols>9</cols>
      <dt>d</dt>
      <data>
        3.1108669130203670e-01 2.7627954348318806e-01
        7.8915367940557618e-02 3.0177907890750216e-01
        6.0226883949846666e-01 3.4061985692131291e-01
        1.2549887424590314e-01 3.5290201177825681e-01
        4.7195900451637557e-01</data></_>
    <_ type_id="opencv-matrix">
      <rows>1</rows>
      <cols>9</cols>
      <dt>d</dt>
      <data>
        1.5007828091115072e-01 1.9820055856319244e-01
        1.0501203528454828e-01 3.1197359136300173e-01
        7.6857611340676957e-01 4.4485146242812901e-01
        7.9627909579085637e-02 4.5201971256215973e-01
        3.5978928877564964e-01</data></_>
    <_ type_id="opencv-matrix">
      <rows>1</rows>
      <cols>9</cols>
      <dt>d</dt>
      <data>
        2.5365313094493153e-01 2.5179120921403975e-01
        1.3626919048240510e-01 3.1726924307342319e-01
        8.0364365978418173e-01 5.3483683086941147e-01
        9.9885096796159006e-02 4.1056746638260427e-01
        3.9745043761826848e-01</data></_>
    <_ type_id="opencv-matrix">
      <rows>1</rows>
      <cols>9</cols>
      <dt>d</dt>
      <data>
        3.4003945568405514e-01 3.5247252342479801e-01
        1.1266764761110815e-01 3.4941171897174439e-01
        7.2891880637859996e-01 4.5668037237615700e-01
        1.1582169204337310e-01 3.3504010039334525e-01
        3.6229671590926149e-01</data></_>
    <_ type_id="opencv-matrix">
      <rows>1</rows>
      <cols>9</cols>
      <dt>d</dt>
      <data>
        2.4493886507866450e-01 2.5598078696794740e-01
        7.8106212735473274e-02 4.8387777047526087e-01
        7.4050425876619619e-01 4.3394816055516450e-01
        1.1372087651361878e-01 3.7341128348341063e-01
        4.2794354950867430e-01</data></_></avg>
  <inv_eigen_values>
    <_ type_id="opencv-matrix">
      <rows>1</rows>
      <cols>9</cols>
      <dt>d</dt>
      <data>
        2.1375368155136005e+00 6.1553192895637379e+00
        1.0898667695226614e+01 2.9257386630067487e+01
        4.6250642744089106e+01 9.5564207547852078e+01
        1.8843460596514663e+02 2.7154411809329241e+02
        4.0882614046981939e+02</data></_>
    <_ type_id="opencv-matrix">
      <rows>1</rows>
      <cols>9</cols>
      <dt>d</dt>
      <data>
        3.3118812734642247e+00 7.0373433467013369e+00
        2.3236879371666120e+01 3.4740510705283832e+01
        5.4033717530669222e+01 6.6148390130138765e+01
        8.0787868362315692e+01 1.4455430881484932e+02
        1.8856362536822837e+02</data></_>
    <_ type_id="opencv-matrix">
      <rows>1</rows>
      <cols>9</cols>
      <dt>d</dt>
      <data>
        3.9268340406327842e+00 5.5656223903366326e+00
        9.7401970530113857e+00 3.0773276559808000e+01
        4.7936152151602805e+01 5.5811583806116623e+01
        1.1607124902186463e+02 1.7897605059957226e+02
        3.9013178422411897e+02</data></_>
    <_ type_id="opencv-matrix">
      <rows>1</rows>
      <cols>9</cols>
      <dt>d</dt>
      <data>
        4.0008442327451368e+00 1.2632773298787940e+01
        2.5350661511032701e+01 3.7945754043708476e+01
        7.4770273104241667e+01 1.0601681546083624e+02
        2.4830734212801323e+02 2.7150231082693853e+02
        9.7935778768206558e+02</data></_>
    <_ type_id="opencv-matrix">
      <rows>1</rows>
      <cols>9</cols>
      <dt>d</dt>
      <data>
        4.3080477437566724e+00 1.2437168997415723e+01
        2.2904945898136116e+01 4.1731645108058053e+01
        9.5881418080981703e+01 1.1595836421868405e+02
        2.0328848008289143e+02 3.6069977800107074e+02
        7.4556728249188052e+02</data></_>
    <_ type_id="opencv-matrix">
      <rows>1</rows>
      <cols>9</cols>
      <dt>d</dt>
      <data>
        4.3931343687394282e+00 7.4790083704066381e+00
        1.5621302172501117e+01 4.6271652721013645e+01
        7.1011675052509489e+01 9.1299874495585868e+01
        2.3306071785955453e+02 2.7907628108933238e+02
        4.2617655124389836e+02</data></_>
    <_ type_id="opencv-matrix">
      <rows>1</rows>
      <cols>9</cols>
      <dt>d</dt>
      <data>
        4.1346200587521675e+00 8.7550158478995161e+00
        1.3990681719556992e+01 2.9944822330004566e+01
        5.9245296837213729e+01 1.0490826480812999e+02
        2.2329028085228964e+02 2.4582270941783281e+02
        3.0037847661119440e+02</data></_></inv_eigen_values>
  <cov_rotate_mats>
    <_ type_id="opencv-matrix">
      <rows>9</rows>
      <cols>9</cols>
      <dt>d</dt>
      <data>
        -1.6647072227003482e-01 2.2896737184512787e-02
        9.0466571694546416e-02 1.9537471138204704e-01
        4.6911505783150015e-01 5.9640152121511369e-01
        6.8682433662933987e-02 2.8120058857665570e-01
        5.1560934815976622e-01 -5.3156787809435957e-01
        -2.7745270764056418e-01 -1.2162732947651783e-01
        -4.4104685340060422e-02 -3.0418936004029151e-01
        -2.3930003209532899e-01 5.1428721556889168e-01
        4.4066384428885375e-01 1.2347274830124307e-01
        5.5308963631468189e-01 9.0882684433811159e-02
        -8.6534474224887345e-02 -6.2231013504539656e-01
        -2.0744924952649008e-01 4.5256315918968136e-02
        1.1933291021959831e-01 2.6835637732374645e-01
        3.9966893610879306e-01 1.9993077425267772e-01
        -3.6750655515912817e-01 -2.2507293420120650e-01
        4.1861413883275628e-01 -6.7199230469899868e-02
        -3.9411888770463960e-01 -4.4835715565125889e-01
        1.1984754530067041e-01 4.7311519434656968e-01
        2.8110785972954772e-01 2.4471930817264992e-01
        8.1407078914029124e-02 1.5077989340611050e-01
        5.3688650461095988e-01 -4.5146801723693575e-01
        2.0723928997406801e-01 4.8422256726079821e-01
        -2.4947752459506484e-01 -1.1677532507641640e-01
        4.4396024061698147e-01 6.4084404224031855e-01
        1.5652436918415791e-01 -4.2975855587333428e-01
        -6.4610033611017581e-02 -2.6917048158721896e-01
        2.8006694204032201e-01 1.1968605018938547e-01
        4.9141843085433908e-02 6.3833254571703124e-01
        -5.1275210483232936e-01 3.7734462799952967e-01
        -2.1603808762692897e-01 5.0140502719302621e-03
        2.8036415338164311e-01 -1.6621397544925864e-01
        1.7856150454342362e-01 4.8601943936720748e-01
        -3.3297158489807693e-01 3.3066239577495044e-01
        4.3720543462062034e-01 -2.4327340734454519e-01
        2.0001621338301082e-01 4.8823785763995992e-01
        -9.6638242592713697e-02 -7.4331852289873324e-02
        -1.1204779239276642e-01 6.2034294725471360e-02
        3.5960535483928374e-01 -1.2885566625709594e-01
        2.4709315418064762e-01 -4.2618474281477747e-01
        2.8835007390714085e-01 -5.3896939033796731e-01
        4.7048380827356912e-01</data></_>
    <_ type_id="opencv-matrix">
      <rows>9</rows>
      <cols>9</cols>
      <dt>d</dt>
      <data>
        -2.8238466980269450e-01 3.1312665684486346e-02
        1.9422253889709762e-01 -3.1331607947785681e-02
        3.5717824593859526e-01 7.2146621660758281e-01
        8.3049451579006936e-02 4.1093566937272358e-01
        -2.3815796041222906e-01 -4.4490170152437669e-01
        -2.7751037872122536e-01 5.7959279233525000e-02
        -3.9136939471738869e-01 -5.4089863345333655e-01
        -1.2614625929989778e-01 2.9672040952968649e-02
        5.0205284469670472e-02 -5.0659251228374091e-01
        3.4967452666978593e-01 5.7199011323188187e-01
        2.7220819289908554e-01 -3.7680441793284097e-01
        6.7085908179948722e-02 6.4062642558598504e-02
        -1.3286049259014998e-01 -3.5296590501060482e-01
        -4.2852629355615468e-01 9.7678132925125200e-02
        2.7243334964903143e-01 2.3815821357353634e-01
        3.9686397303059467e-01 -7.1126344750893633e-03
        -4.3145590417148705e-01 4.5842134596403600e-01
        4.4475623972706224e-01 -3.2841387689903978e-01
        6.5954481108306151e-01 -4.5107765348498879e-01
        -2.5586214394599949e-01 -2.4508424852487921e-02
        3.2709678465799030e-02 5.6028200872943690e-02
        -2.3425851029503889e-01 3.1026518017476734e-01
        -3.7431654929159219e-01 -3.0129374643154488e-01
        -2.2100833359611199e-01 -1.4717385073852121e-01
        2.4588869663829482e-01 5.9363565325817946e-01
        -2.5699993691935186e-01 -9.8388847703207882e-02
        -3.9966263919353195e-01 -4.3634064038467613e-01
        -4.8658460736254606e-02 2.1821306242777272e-01
        -1.9244281122281612e-01 6.5586600285747754e-01
        -4.5760777181534457e-01 3.3630561241395202e-01
        -2.6755061464179830e-01 -1.8364917455991495e-01
        -2.3452990387244066e-01 -2.1061735222812891e-01
        4.6973279179886912e-01 -6.7988550233669320e-01
        -2.1417429707521426e-01 1.0180942182092280e-01
        -1.7068099612597060e-01 -2.2973104432327920e-01
        3.6580666090897396e-01 -2.8079934698489812e-02
        -1.3417707576744731e-01 5.7721517651670214e-03
        4.9162748238515441e-01 9.6296352493122628e-02
        4.5365374782091697e-02 -2.4878465767259667e-01
        -7.5861928431345049e-01 2.8754481823616612e-01
        9.4103993079671946e-02</data></_>
    <_ type_id="opencv-matrix">
      <rows>9</rows>
      <cols>9</cols>
      <dt>d</dt>
      <data>
        4.6437343791879658e-02 2.6022348287827435e-01
        1.9057236313022574e-01 6.1232143147621397e-02
        6.0618278371160406e-01 6.9584980854662870e-01
        1.2632276615208927e-02 1.9073392885901891e-01
        4.3088069851829974e-02 -2.9938666810747155e-01
        -5.4351063847117331e-01 6.4142132297946741e-02
        2.3407600076071902e-01 -1.7147789714066311e-01
        1.9624898686166681e-01 2.4356023131740234e-01
        5.6344717100681108e-01 -3.3368456169461175e-01
        -1.6704728026573676e-01 1.1087588983003366e-01
        9.6954486247435370e-02 -6.2643808392923783e-01
        -2.1616902068942598e-01 2.6869091294441205e-01
        -2.3283358082853858e-01 -1.4809222126980234e-01
        -6.0242033767377812e-01 -6.3707703385314229e-01
        2.2939215303573307e-01 1.1223740668093327e-01
        -1.9912568747630724e-01 -3.3110987697218752e-01
        1.7263272212524397e-01 1.2162500523437163e-01
        7.8836632911274768e-02 5.7342842118888993e-01
        -4.8504381451785056e-01 4.2472870634492477e-01
        4.3786005841810756e-02 5.9434352435926052e-01
        4.7809599369830709e-02 -1.5142456620521957e-01
        -1.3496355778612268e-01 -2.0029064655613518e-01
        -3.8161488791538034e-01 -3.4654386655549596e-01
        -5.9696252493768920e-01 -3.7023288559799472e-02
        1.6329235741092060e-02 3.0950164230243693e-01
        8.8527498836911314e-02 -4.9054112142212852e-01
        -3.8320354951257191e-01 1.7550438095323045e-01
        -3.2811851493074451e-01 -9.8229992250232763e-04
        -1.0452839815794019e-02 -3.8420735846149462e-01
        5.8572795613597750e-01 -4.7836699295984708e-01
        3.8890867212282637e-01 9.7602714007023916e-02
        -1.0919823947197202e-01 -3.1980275769204189e-02
        -1.1600371008019870e-01 -3.5189842907013646e-01
        7.0385991265126846e-02 -5.1507780266087183e-02
        3.3133883669109643e-01 6.3895110115840836e-01
        -5.7386876113477725e-01 -8.1922940958534141e-02
        1.0195392991872491e-01 -1.4747591724910181e-01
        9.0018934062099554e-01 5.7471620418786409e-02
        -5.4476168941342482e-02 -7.6782769552179428e-02
        2.3056561406285184e-01 -3.0362540231707102e-01
        5.2903821068984308e-04</data></_>
    <_ type_id="opencv-matrix">
      <rows>9</rows>
      <cols>9</cols>
      <dt>d</dt>
      <data>
        1.2702289261854097e-01 8.7404521104380586e-02
        2.2553920572348193e-01 5.3719007345578114e-02
        3.2196410927637870e-01 7.7801064010020771e-01
        1.2211901845828806e-01 3.7771860091155385e-01
        -2.3648705981024573e-01 -2.5304506135388927e-01
        2.5504710117462009e-01 -6.4182505751230190e-02
        1.3058651360125101e-01 6.1044490758898862e-01
        -1.1370272222198720e-01 -1.2880332403484351e-01
        2.0087652561266359e-01 6.3814886387200720e-01
        -2.8579994473117437e-01 -6.8535543942764773e-02
        7.6936945225372338e-02 -2.0206015256954907e-01
        -3.4216014701376191e-01 -2.2752043512554040e-01
        1.7911176825167630e-01 8.1553160040498862e-01
        2.9355418946545028e-02 4.3249133151047664e-01
        3.0630848156249352e-01 -5.8026280355647254e-02
        -3.9351064382857787e-01 -4.0420596688927501e-01
        2.8950589631695678e-01 -4.0652760010807518e-02
        -1.4708994735063867e-02 5.5842954540307943e-01
        -5.1443705792942318e-01 -4.1004965579386882e-01
        3.4535596057794515e-01 1.4098753792559968e-01
        -2.6185657749914948e-01 3.5517539593892311e-01
        1.2002143460291959e-01 -2.6344534906594624e-01
        3.8670213612889598e-01 -6.4630342772983032e-02
        -2.4974508197688899e-01 -7.8524971586185954e-01
        3.2599826226580597e-01 -1.7734301196314894e-01
        2.8728143412194934e-01 -2.5544736391002099e-01
        1.7148200676300812e-01 4.3791881719956537e-02
        -5.4468400567590425e-01 7.2698802702307508e-01
        -8.8118198584406879e-02 7.2755835173649985e-03
        -2.3687796380336532e-01 1.4534893382324271e-01
        -1.0452688607556183e-01 -1.4693707357438460e-01
        -2.3924074838168630e-01 2.9041286048358722e-01
        2.2505044170936023e-01 3.1636853683655647e-01
        7.9180869995241798e-01 -2.9418922758549154e-01
        -1.2585616811195302e-01 -8.0995383843230656e-02
        1.4293645096882612e-01 9.2652268364419241e-02
        3.5498705381121980e-02 1.3826351751452998e-01
        -3.0328964059934410e-01 1.7668105265126949e-01
        2.3711069745161344e-02 -2.3359164395648821e-02
        9.1521492230859824e-01 -1.0410701707306104e-01
        8.2811537662493551e-02</data></_>
    <_ type_id="opencv-matrix">
      <rows>9</rows>
      <cols>9</cols>
      <dt>d</dt>
      <data>
        3.8200407587093144e-02 -9.2636911537173679e-03
        2.3929313729170720e-01 6.0827659261336311e-03
        2.6530386494845365e-01 7.3973568648900123e-01
        1.7448711246294166e-01 4.7857423564745166e-01
        -2.5314547048491581e-01 3.5255677554789380e-02
        1.8288446563262775e-01 1.5168581704632820e-02
        1.6252634189679110e-01 6.0940813243392389e-01
        1.3642382585682936e-01 -1.8491683863613703e-01
        -1.1577647852468508e-01 7.0786810171130088e-01
        4.2417755858217587e-01 4.6377021372448024e-01
        -1.1178484081182540e-01 3.7715412005973080e-02
        1.6250438196696365e-01 1.9506184205947422e-01
        -1.5213439905304926e-01 -5.4557027110897338e-01
        -4.5367796093689433e-01 5.1415646134505721e-01
        8.6838003042316050e-02 2.2642073005003455e-02
        -3.5354718975508131e-01 -5.5469185578052971e-01
        3.0800104442265486e-01 -6.9797746089281035e-02
        4.3245512828704417e-02 4.3966398267019341e-01
        -7.3834604148367095e-02 -4.2475746943912768e-01
        4.2671722754814717e-01 5.0119886403261338e-01
        -2.5704865544264177e-01 2.9057125340540013e-01
        -7.7113199273140628e-02 -4.7020179247918115e-01
        5.7444008118634995e-02 -1.2731769444237083e-02
        2.6476233695330281e-01 7.9133878942102365e-01
        -3.3405884541299025e-01 9.5117579099617641e-02
        -2.6125983369924305e-01 3.0905806139352671e-01
        -1.3694156522293854e-01 1.8774530100422692e-02
        2.0114804246878476e-01 -6.0903528904002635e-01
        9.0048936531162943e-02 -5.0943385964781041e-01
        3.2949669329232234e-01 -4.5157643399653676e-02
        -4.2569670687789973e-01 -9.8011975654063568e-02
        -1.3983024037225525e-01 -5.8866147147617354e-01
        2.2262777884523965e-02 -2.4263075190680952e-01
        -4.7222564301229192e-01 -3.6295143234112086e-02
        3.7787775429780990e-01 2.0629684435290688e-01
        -4.2186185424048439e-01 8.0501890427529865e-02
        4.0052189503232055e-01 -3.4915066784633225e-01
        -2.3284550628884157e-01 4.2598024385640039e-02
        1.9783347772178339e-01 -6.1210491906551111e-02
        7.6295740679782753e-01 -1.7501120971517217e-01
        7.7631590999678965e-02</data></_>
    <_ type_id="opencv-matrix">
      <rows>9</rows>
      <cols>9</cols>
      <dt>d</dt>
      <data>
        -7.8972652796338041e-02 -3.4774229000249519e-02
        2.3273548123173526e-01 -3.6500818454689395e-02
        3.8668415086322527e-01 6.9902324759817025e-01
        1.8273439343003889e-01 5.0258424640720722e-01
        -1.1364436917536548e-01 -3.8353263566873125e-01
        -6.2864777833446206e-01 6.7549381098952824e-03
        -1.2129145622868413e-01 -4.2669514409116793e-01
        -1.8453652217031127e-01 1.6518016311614223e-01
        3.4505584800943440e-01 -2.8368458380905448e-01
        -1.5665507431552825e-01 -3.6391773570777231e-01
        -4.9466511006450345e-02 1.6411591305362147e-01
        4.0723869831204557e-01 -2.5594416371602091e-01
        5.2167406323945613e-03 1.9273847638970695e-01
        7.3831970967387517e-01 1.5475998861687218e-01
        -5.4676893138067029e-01 -1.7237090889614243e-02
        3.8860845883197459e-01 3.8819622626108524e-01
        7.7172365260422635e-02 -2.1543531354585543e-01
        -3.9689256760645064e-01 -4.0643752463935773e-01
        2.8630886027368518e-01 -3.6933404481869953e-01
        -1.4816675138280150e-01 -3.3812500474905349e-01
        -3.5893533158282054e-01 5.1955808072752574e-01
        -2.4538150774657211e-01 -2.0825982080904934e-01
        3.7812469636301727e-01 7.9872188326384985e-01
        -1.0733121978623396e-01 -8.6731699834598566e-02
        -1.2428442129923517e-01 6.7622528617311967e-02
        -2.9187976085268530e-01 9.8602736440334786e-03
        4.7168554362215720e-01 -1.2330157780936390e-01
        2.1809769034032658e-01 -4.8031708281397398e-03
        4.9830232581030875e-01 6.7125551080237911e-01
        -4.4100579219639996e-01 9.2686247697751203e-02
        1.0828264858388356e-01 6.4958259112497710e-02
        1.8574068389384735e-01 1.5327202310826776e-01
        -1.5571410891217943e-01 4.8574235475887911e-01
        -3.8028306564509690e-01 1.3905893254228524e-01
        -1.1610422037085878e-01 6.1557628802271858e-01
        -3.9614125251444099e-01 5.4957465076064083e-02
        8.4771724215997143e-02 1.6611861698683306e-03
        -6.5522354695728036e-01 2.8465979465257668e-01
        -6.8088764773083663e-02 1.6924673662291786e-01
        6.6476722148791956e-01 -8.1650683520344991e-02
        2.4475894776077273e-02</data></_>
    <_ type_id="opencv-matrix">
      <rows>9</rows>
      <cols>9</cols>
      <dt>d</dt>
      <data>
        -1.1091987856018058e-01 7.6763627316489447e-02
        1.5492446019455752e-01 1.7812766366707081e-01
        4.6323640513302095e-01 6.6094982513215450e-01
        1.5778536291981154e-01 4.5799090549725530e-01
        1.9994635400182609e-01 -2.6093787050696711e-02
        -1.4136422246752114e-01 1.4913311308046714e-01
        -4.9912704791628720e-01 -4.3295837158031641e-01
        3.4267853346474186e-01 1.8772084008516279e-01
        2.7562320966021286e-01 -5.4025732681760497e-01
        -3.6513500585734943e-01 -4.0175223082624478e-01
        -1.0431219090261584e-01 4.2650820738693924e-02
        -2.8040330267186414e-01 -3.3663361564176070e-01
        3.1516394970339967e-01 4.7593531960252267e-01
        4.1806757812100798e-01 6.0092704543719389e-01
        1.5801103530842392e-01 -1.4221577808909197e-01
        -4.0793594332577693e-01 -2.2103742489987308e-01
        1.6736876103565038e-01 6.4264265619196154e-02
        2.9120887867142769e-02 5.8773665026573474e-01
        3.4500450893330470e-01 2.0185977992631152e-01
        2.7104976635766020e-01 -1.8678497655413068e-01
        3.8388035418646443e-01 -5.4289736158998314e-01
        5.3494262397436092e-02 4.9587254997306351e-01
        -2.0252165631605112e-01 -1.8592992298930466e-01
        -4.4432665827088907e-01 5.0476082596369265e-01
        -4.7018067593978768e-01 2.6793551942188465e-01
        -6.5902041852800696e-03 -3.2853838299663152e-01
        -2.1794282530056155e-01 2.5471770152692491e-01
        -3.8990676283000364e-01 4.0935259578211131e-01
        -4.2041679294213090e-02 -3.8638918157773083e-01
        2.1789085619313156e-01 -9.1749987640325978e-02
        6.0305863310594676e-01 -3.2416158029804393e-01
        6.8440745453089535e-02 3.8448243257854764e-01
        -3.2698925641116799e-01 4.5553927133683164e-01
        3.3656918223104665e-01 -4.1779851981806081e-02
        6.1639569349843217e-03 5.8044148402078333e-01
        -2.9152100327529457e-01 -2.7858229534286929e-02
        -1.9780529888760762e-01 5.2448649972168837e-01
        6.2057744698780604e-01 1.7993884946447922e-01
        -4.4955530909989583e-01 -3.3841208605932274e-02
        -1.5816231495021940e-01 5.8820369042894262e-02
        1.9123875407616575e-01</data></_></cov_rotate_mats>
  <c type_id="opencv-matrix">
    <rows>1</rows>
    <cols>7</cols>
    <dt>d</dt>
    <data>
      -3.3591782753244900e+01 -3.2628820603844467e+01
      -3.2587142564972105e+01 -3.7775315385086202e+01
      -3.7976947718123220e+01 -3.5989939770392084e+01
      -3.4979669347087288e+01</data></c></my_nb>
</opencv_storage>
