<?xml version="1.0"?>
<opencv_storage>
<my_nb type_id="opencv-ml-bayesian">
  <var_count>9</var_count>
  <var_all>9</var_all>
  <cls_labels type_id="opencv-matrix">
    <rows>1</rows>
    <cols>7</cols>
    <dt>i</dt>
    <data>
      -1 0 1 2 3 4 5</data></cls_labels>
  <count>
    <_ type_id="opencv-matrix">
      <rows>1</rows>
      <cols>9</cols>
      <dt>i</dt>
      <data>
        307 307 307 307 307 307 307 307 307</data></_>
    <_ type_id="opencv-matrix">
      <rows>1</rows>
      <cols>9</cols>
      <dt>i</dt>
      <data>
        216 216 216 216 216 216 216 216 216</data></_>
    <_ type_id="opencv-matrix">
      <rows>1</rows>
      <cols>9</cols>
      <dt>i</dt>
      <data>
        546 546 546 546 546 546 546 546 546</data></_>
    <_ type_id="opencv-matrix">
      <rows>1</rows>
      <cols>9</cols>
      <dt>i</dt>
      <data>
        167 167 167 167 167 167 167 167 167</data></_>
    <_ type_id="opencv-matrix">
      <rows>1</rows>
      <cols>9</cols>
      <dt>i</dt>
      <data>
        185 185 185 185 185 185 185 185 185</data></_>
    <_ type_id="opencv-matrix">
      <rows>1</rows>
      <cols>9</cols>
      <dt>i</dt>
      <data>
        158 158 158 158 158 158 158 158 158</data></_>
    <_ type_id="opencv-matrix">
      <rows>1</rows>
      <cols>9</cols>
      <dt>i</dt>
      <data>
        322 322 322 322 322 322 322 322 322</data></_></count>
  <sum>
    <_ type_id="opencv-matrix">
      <rows>1</rows>
      <cols>9</cols>
      <dt>d</dt>
      <data>
        -2.9690131330490112e+02 -2.9576552343368530e+02
        -2.9717297577857971e+02 -2.9606207537651062e+02 -295.
        -2.9509078156948090e+02 -2.9940891321003437e+02
        -2.9635951447486877e+02 -2.9653710663318634e+02</data></_>
    <_ type_id="opencv-matrix">
      <rows>1</rows>
      <cols>9</cols>
      <dt>d</dt>
      <data>
        7.7581510085612535e+01 8.7341111437883228e+01
        7.3611861187964678e-01 1.3871040217578411e+02
        1.6599847516417503e+02 1.1579610004648566e+02
        3.4300809773616493e+01 9.1763578087091446e+01
        1.3186763465404510e+02</data></_>
    <_ type_id="opencv-matrix">
      <rows>1</rows>
      <cols>9</cols>
      <dt>d</dt>
      <data>
        1.5716743180109188e+02 3.1059123448794708e+02
        9.8322878317674622e+01 2.0848099717695732e+02
        4.8897944849729538e+02 3.4441160754114389e+02
        9.8277847427409142e+01 2.3383835906162858e+02
        3.9810836893320084e+02</data></_>
    <_ type_id="opencv-matrix">
      <rows>1</rows>
      <cols>9</cols>
      <dt>d</dt>
      <data>
        1.0723462313413620e+01 3.5690230684354901e+01
        2.3094348719343543e+01 3.4612574242055416e+01
        1.1100667569041252e+02 1.0168514952063560e+02
        -3.4517007619142532e+00 7.4090752243995667e+01
        1.2019961589574814e+02</data></_>
    <_ type_id="opencv-matrix">
      <rows>1</rows>
      <cols>9</cols>
      <dt>d</dt>
      <data>
        2.1600645276717842e+01 2.3672456497326493e+01
        2.1529978914186358e+01 4.4758035495877266e+01
        1.2857631179690361e+02 1.1677088057994843e+02
        6.8811143350321800e+00 8.3299857094883919e+01
        1.3674358218908310e+02</data></_>
    <_ type_id="opencv-matrix">
      <rows>1</rows>
      <cols>9</cols>
      <dt>d</dt>
      <data>
        3.8414750143885612e+01 7.9301142316311598e+01
        3.8250066069071181e+01 7.0226596129126847e+01
        1.4245902323722839e+02 1.3139155702292919e+02
        2.6901583138853312e+01 9.0135860238224268e+01
        1.1060192048549652e+02</data></_>
    <_ type_id="opencv-matrix">
      <rows>1</rows>
      <cols>9</cols>
      <dt>d</dt>
      <data>
        5.4180276031489484e+01 5.6493277150206268e+01
        5.7896780978888273e+01 1.7257042697817087e+02
        2.5310530152916908e+02 2.3648096773028374e+02
        7.3125753844156861e+01 2.1188314915448427e+02
        2.5065079963207245e+02</data></_></sum>
  <productsum>
    <_ type_id="opencv-matrix">
      <rows>9</rows>
      <cols>9</cols>
      <dt>d</dt>
      <data>
        3.0410253621035929e+02 3.0469731159097455e+02
        3.0394827654479985e+02 3.0439897883137007e+02
        3.0509868669509888e+02 3.0504979009612987e+02
        3.0191688751687417e+02 3.0407100257299783e+02
        3.0417866527713994e+02 3.0469731159097455e+02
        3.0561551248243717e+02 3.0447186337044138e+02
        3.0531969521326084e+02 3.0623447656631470e+02
        3.0616082422001188e+02 3.0232351077349449e+02
        3.0500909629391924e+02 3.0494186632969524e+02
        3.0394827654479985e+02 3.0447186337044138e+02
        3.0382656623613917e+02 3.0415451245029703e+02
        3.0482702422142029e+02 3.0477898188542133e+02
        3.0176569025082074e+02 3.0384346921009274e+02
        3.0405365799728747e+02 3.0439897883137007e+02
        3.0531969521326084e+02 3.0415451245029703e+02
        3.0509869174736798e+02 3.0593792462348938e+02
        3.0587072203796134e+02 3.0238023421325812e+02
        3.0482057245844942e+02 3.0459587511840988e+02
        3.0509868669509888e+02 3.0623447656631470e+02
        3.0482702422142029e+02 3.0593792462348938e+02 307.
        3.0690921843051910e+02 3.0259108678996563e+02
        3.0564048552513123e+02 3.0546289336681366e+02
        3.0504979009612987e+02 3.0616082422001188e+02
        3.0477898188542133e+02 3.0587072203796134e+02
        3.0690921843051910e+02 3.0682163021974037e+02
        3.0257634391142886e+02 3.0556793249733971e+02
        3.0538375017859886e+02 3.0191688751687417e+02
        3.0232351077349449e+02 3.0176569025082074e+02
        3.0238023421325812e+02 3.0259108678996563e+02
        3.0257634391142886e+02 3.0174027133521571e+02
        3.0231217092939642e+02 3.0188021249645249e+02
        3.0407100257299783e+02 3.0500909629391924e+02
        3.0384346921009274e+02 3.0482057245844942e+02
        3.0564048552513123e+02 3.0556793249733971e+02
        3.0231217092939642e+02 3.0462442153237248e+02
        3.0438228522183766e+02 3.0417866527713994e+02
        3.0494186632969524e+02 3.0405365799728747e+02
        3.0459587511840988e+02 3.0546289336681366e+02
        3.0538375017859886e+02 3.0188021249645249e+02
        3.0438228522183766e+02 3.0461328335187761e+02</data></_>
    <_ type_id="opencv-matrix">
      <rows>9</rows>
      <cols>9</cols>
      <dt>d</dt>
      <data>
        8.6977490905462915e+01 9.0020276507078677e+01
        3.4445223462528745e+01 1.0495790605685971e+02
        1.1649559415157772e+02 8.9062086603938667e+01
        4.8243525668745740e+01 7.5597164165914364e+01
        9.8741683703702421e+01 9.0020276507078677e+01
        9.8388135701793445e+01 3.6130676066027554e+01
        1.1302437984969553e+02 1.2619852778080012e+02
        9.7299989861049738e+01 4.9377559551623136e+01
        8.0524876512898260e+01 1.0707388005419737e+02
        3.4445223462528745e+01 3.6130676066027554e+01
        2.7855436111246103e+01 3.7623176441957781e+01
        4.0037184657905001e+01 3.8042094595226601e+01
        2.7629313074737937e+01 3.3473585672395998e+01
        3.7618551629416771e+01 1.0495790605685971e+02
        1.1302437984969553e+02 3.7623176441957781e+01
        1.5565457978791017e+02 1.7438783662522488e+02
        1.3136756642490823e+02 6.5876758715280104e+01
        1.1230210078998206e+02 1.4499458630976198e+02
        1.1649559415157772e+02 1.2619852778080012e+02
        4.0037184657905001e+01 1.7438783662522488e+02
        2.0016646993895688e+02 1.5098583978756989e+02
        7.1235656312538239e+01 1.2629710312118934e+02
        1.6569555003418176e+02 8.9062086603938667e+01
        9.7299989861049738e+01 3.8042094595226601e+01
        1.3136756642490823e+02 1.5098583978756989e+02
        1.2450653643641508e+02 5.6697148173685875e+01
        9.6447315062261140e+01 1.2671744731668574e+02
        4.8243525668745740e+01 4.9377559551623136e+01
        2.7629313074737937e+01 6.5876758715280104e+01
        7.1235656312538239e+01 5.6697148173685875e+01
        4.6867780070882489e+01 6.1605882192384342e+01
        6.6873546334200739e+01 7.5597164165914364e+01
        8.0524876512898260e+01 3.3473585672395998e+01
        1.1230210078998206e+02 1.2629710312118934e+02
        9.6447315062261140e+01 6.1605882192384342e+01
        9.5963996839772307e+01 1.1256548149865451e+02
        9.8741683703702421e+01 1.0707388005419737e+02
        3.7618551629416771e+01 1.4499458630976198e+02
        1.6569555003418176e+02 1.2671744731668574e+02
        6.6873546334200739e+01 1.1256548149865451e+02
        1.4370133202922597e+02</data></_>
    <_ type_id="opencv-matrix">
      <rows>9</rows>
      <cols>9</cols>
      <dt>d</dt>
      <data>
        7.6042931454588341e+01 1.1432086483976371e+02
        4.5271004457695064e+01 6.1287946094626918e+01
        1.5258935146314514e+02 1.1981975387839113e+02
        2.9236099710262408e+01 6.7977243101264492e+01
        1.2494186590578943e+02 1.1432086483976371e+02
        2.4094022572491713e+02 9.0488933111995379e+01
        1.0073930701945577e+02 2.9886280388768466e+02
        2.4720695013198122e+02 3.2889723202820711e+01
        1.1835271279706900e+02 2.3757458766965811e+02
        4.5271004457695064e+01 9.0488933111995379e+01
        4.8808452228117318e+01 2.5728880538380682e+01
        9.5502599533421872e+01 9.4991461364993285e+01
        9.5744130072641020e+00 3.7885200216208965e+01
        8.1893310833528375e+01 6.1287946094626918e+01
        1.0073930701945577e+02 2.5728880538380682e+01
        1.3227420156215226e+02 2.0543904660687906e+02
        1.1116639209600874e+02 7.9517753201969924e+01
        1.2874119358265139e+02 1.7285951101043332e+02
        1.5258935146314514e+02 2.9886280388768466e+02
        9.5502599533421872e+01 2.0543904660687906e+02
        4.6586705670813939e+02 3.2691590265438748e+02
        9.9233483653359215e+01 2.2628688505536650e+02
        3.7549800492582278e+02 1.1981975387839113e+02
        2.4720695013198122e+02 9.4991461364993285e+01
        1.1116639209600874e+02 3.2691590265438748e+02
        2.7779653917245099e+02 3.4362042952416189e+01
        1.3228864436189281e+02 2.6005340611530863e+02
        2.9236099710262408e+01 3.2889723202820711e+01
        9.5744130072641020e+00 7.9517753201969924e+01
        9.9233483653359215e+01 3.4362042952416189e+01
        7.1752107982602865e+01 8.8643910721233311e+01
        9.3299100907710368e+01 6.7977243101264492e+01
        1.1835271279706900e+02 3.7885200216208965e+01
        1.2874119358265139e+02 2.2628688505536650e+02
        1.3228864436189281e+02 8.8643910721233311e+01
        1.5724292104256739e+02 2.0054969380705828e+02
        1.2494186590578943e+02 2.3757458766965811e+02
        8.1893310833528375e+01 1.7285951101043332e+02
        3.7549800492582278e+02 2.6005340611530863e+02
        9.3299100907710368e+01 2.0054969380705828e+02
        3.1833513622791850e+02</data></_>
    <_ type_id="opencv-matrix">
      <rows>9</rows>
      <cols>9</cols>
      <dt>d</dt>
      <data>
        1.3453547350796992e+01 1.4307452652438382e+01
        8.9764769507521933e+00 1.0572587041567115e+01
        1.6983179775775863e+01 1.6610797598130379e+01 4.
        5.8410177931929841e+00 1.2205071118838802e+01
        1.4307452652438382e+01 2.6649017820225136e+01
        1.8864436604923153e+01 1.6448176387755154e+01
        3.6709525186283635e+01 3.4001775816257840e+01
        4.0207686548296095e+00 1.6157321604843720e+01
        2.8660006571765091e+01 8.9764769507521933e+00
        1.8864436604923153e+01 1.6690105361968790e+01
        1.1710118395024663e+01 2.3977726799629085e+01
        2.6254721841227173e+01 4.0408456169341687e+00
        1.2645726268605237e+01 2.0978026847220931e+01
        1.0572587041567115e+01 1.6448176387755154e+01
        1.1710118395024663e+01 1.6704856768405513e+01
        3.3155716974152377e+01 3.0524476637422737e+01
        4.1757687720351866e+00 2.0361197595521958e+01
        3.1765654418522992e+01 1.6983179775775863e+01
        3.6709525186283635e+01 2.3977726799629085e+01
        3.3155716974152377e+01 9.0176678444815423e+01
        7.7981544470953040e+01 4.3642597365484646e+00
        5.7501489721348818e+01 9.0285408540864367e+01
        1.6610797598130379e+01 3.4001775816257840e+01
        2.6254721841227173e+01 3.0524476637422737e+01
        7.7981544470953040e+01 7.7397401070796505e+01
        4.3983196832726108e+00 5.1147406884378171e+01
        8.2424185519335722e+01 4. 4.0207686548296095e+00
        4.0408456169341687e+00 4.1757687720351866e+00
        4.3642597365484646e+00 4.3983196832726108e+00
        4.0489202743368153e+00 4.4157586666948880e+00
        4.4705369258732990e+00 5.8410177931929841e+00
        1.6157321604843720e+01 1.2645726268605237e+01
        2.0361197595521958e+01 5.7501489721348818e+01
        5.1147406884378171e+01 4.4157586666948880e+00
        4.7642521666955062e+01 6.7765356952935008e+01
        1.2205071118838802e+01 2.8660006571765091e+01
        2.0978026847220931e+01 3.1765654418522992e+01
        9.0285408540864367e+01 8.2424185519335722e+01
        4.4705369258732990e+00 6.7765356952935008e+01
        1.0287794107530785e+02</data></_>
    <_ type_id="opencv-matrix">
      <rows>9</rows>
      <cols>9</cols>
      <dt>d</dt>
      <data>
        1.5888814772503162e+01 1.5365617334646373e+01
        1.1577314398107504e+01 1.8109310344040622e+01
        3.0586704028069931e+01 2.5374044619921232e+01
        7.5180165824643890e+00 1.6983205260586864e+01
        2.5950752091001121e+01 1.5365617334646373e+01
        1.7949904194541514e+01 1.0680389919529839e+01
        1.9888480257339317e+01 3.3759756944843566e+01
        2.6019592767986502e+01 8.3694608220669160e+00
        1.8541090830166418e+01 2.6514488726465299e+01
        1.1577314398107504e+01 1.0680389919529839e+01
        1.1865470567642674e+01 1.4362172821729033e+01
        2.7507104795335763e+01 2.5760452741539410e+01
        7.9623258931565406e+00 1.8910482679903485e+01
        2.8174751564666010e+01 1.8109310344040622e+01
        1.9888480257339317e+01 1.4362172821729033e+01
        2.6076493848728177e+01 4.8917356673214357e+01
        4.1291766184463228e+01 9.8961687327964825e+00
        2.9614453282044835e+01 4.3683660256543234e+01
        3.0586704028069931e+01 3.3759756944843566e+01
        2.7507104795335763e+01 4.8917356673214357e+01
        1.1497883378793588e+02 9.7703639531215330e+01
        1.5105337254578258e+01 7.1143313147724427e+01
        1.1060818468380519e+02 2.5374044619921232e+01
        2.6019592767986502e+01 2.5760452741539410e+01
        4.1291766184463228e+01 9.7703639531215330e+01
        9.2441699051170630e+01 1.5335250029198225e+01
        6.6528134434903848e+01 1.0399695617724636e+02
        7.5180165824643890e+00 8.3694608220669160e+00
        7.9623258931565406e+00 9.8961687327964825e+00
        1.5105337254578258e+01 1.5335250029198225e+01
        8.4171835926645073e+00 1.3459234823707053e+01
        1.6525865663643444e+01 1.6983205260586864e+01
        1.8541090830166418e+01 1.8910482679903485e+01
        2.9614453282044835e+01 7.1143313147724427e+01
        6.6528134434903848e+01 1.3459234823707053e+01
        5.4166140866289574e+01 7.9084850826665559e+01
        2.5950752091001121e+01 2.6514488726465299e+01
        2.8174751564666010e+01 4.3683660256543234e+01
        1.1060818468380519e+02 1.0399695617724636e+02
        1.6525865663643444e+01 7.9084850826665559e+01
        1.2272237460072702e+02</data></_>
    <_ type_id="opencv-matrix">
      <rows>9</rows>
      <cols>9</cols>
      <dt>d</dt>
      <data>
        1.8011702717036968e+01 2.7551555662413790e+01
        1.4228144732859475e+01 2.5124526476443869e+01
        3.9029045770291269e+01 3.5397063395935248e+01
        7.8060854493895704e+00 2.1584600002851282e+01
        2.6398151519774419e+01 2.7551555662413790e+01
        5.5642786515505385e+01 2.7857324940465777e+01
        4.3322622177607798e+01 7.8257590847728764e+01
        7.0433838230954066e+01 1.5521010764237356e+01
        4.5815006080447745e+01 5.5796702761023575e+01
        1.4228144732859475e+01 2.7857324940465777e+01
        1.4803828344934843e+01 2.1995000665035800e+01
        3.8675872687920055e+01 3.5297046475935026e+01
        8.4778757332495722e+00 2.3354739075145648e+01
        2.7813590172109926e+01 2.5124526476443869e+01
        4.3322622177607798e+01 2.1995000665035800e+01
        4.0992930129520701e+01 6.8092252908608259e+01
        6.1409245741947473e+01 1.3890556137503669e+01
        3.9936728445659782e+01 4.8854729728488138e+01
        3.9029045770291269e+01 7.8257590847728764e+01
        3.8675872687920055e+01 6.8092252908608259e+01
        1.3359004325549671e+02 1.2231701973308347e+02
        2.6513076425340671e+01 8.3750780850792239e+01
        1.0218728610107968e+02 3.5397063395935248e+01
        7.0433838230954066e+01 3.5297046475935026e+01
        6.1409245741947473e+01 1.2231701973308347e+02
        1.1467981506721404e+02 2.4978336840401052e+01
        7.8413223103358035e+01 9.5072726928370656e+01
        7.8060854493895704e+00 1.5521010764237356e+01
        8.4778757332495722e+00 1.3890556137503669e+01
        2.6513076425340671e+01 2.4978336840401052e+01
        7.5481583444130687e+00 1.9292867409880859e+01
        2.1885751555806429e+01 2.1584600002851282e+01
        4.5815006080447745e+01 2.3354739075145648e+01
        3.9936728445659782e+01 8.3750780850792239e+01
        7.8413223103358035e+01 1.9292867409880859e+01
        5.8992828531505850e+01 6.9314834141390307e+01
        2.6398151519774419e+01 5.5796702761023575e+01
        2.7813590172109926e+01 4.8854729728488138e+01
        1.0218728610107968e+02 9.5072726928370656e+01
        2.1885751555806429e+01 6.9314834141390307e+01
        8.4190753808257298e+01</data></_>
    <_ type_id="opencv-matrix">
      <rows>9</rows>
      <cols>9</cols>
      <dt>d</dt>
      <data>
        2.7463113785539111e+01 2.4597228995501041e+01
        1.9074232470793735e+01 4.4622119156551314e+01
        6.2224641039468182e+01 5.3838083019500715e+01
        2.0260033716469152e+01 3.9843823791352136e+01
        4.9977454238085883e+01 2.4597228995501041e+01
        2.7840216212963039e+01 1.9524316366651082e+01
        4.7752688346826424e+01 6.3408344973606077e+01
        5.6337357727413945e+01 2.4484842720602273e+01
        4.6118009114658875e+01 5.3154207429357015e+01
        1.9074232470793735e+01 1.9524316366651082e+01
        2.2770548316966103e+01 4.4644804307611153e+01
        6.1450616960926894e+01 5.7815202371706143e+01
        2.1187724518410821e+01 4.9246754388930796e+01
        5.7792828965417485e+01 4.4622119156551314e+01
        4.7752688346826424e+01 4.4644804307611153e+01
        1.2659330877753609e+02 1.6372327848980092e+02
        1.4836199301171902e+02 5.4682843019841812e+01
        1.3227140175640272e+02 1.4894416350511420e+02
        6.2224641039468182e+01 6.3408344973606077e+01
        6.1450616960926894e+01 1.6372327848980092e+02
        2.3184174147058303e+02 2.0956505050939197e+02
        7.0335707558977361e+01 1.7923963018423183e+02
        2.1101015444223472e+02 5.3838083019500715e+01
        5.6337357727413945e+01 5.7815202371706143e+01
        1.4836199301171902e+02 2.0956505050939197e+02
        1.9752020657105027e+02 6.5944433306271264e+01
        1.7286963184252377e+02 2.0215469267046535e+02
        2.0260033716469152e+01 2.4484842720602273e+01
        2.1187724518410821e+01 5.4682843019841812e+01
        7.0335707558977361e+01 6.5944433306271264e+01
        3.4406952259831485e+01 6.7647795082283295e+01
        7.1697740465683921e+01 3.9843823791352136e+01
        4.6118009114658875e+01 4.9246754388930796e+01
        1.3227140175640272e+02 1.7923963018423183e+02
        1.7286963184252377e+02 6.7647795082283295e+01
        1.7274845934360957e+02 1.9111865620197528e+02
        4.9977454238085883e+01 5.3154207429357015e+01
        5.7792828965417485e+01 1.4894416350511420e+02
        2.1101015444223472e+02 2.0215469267046535e+02
        7.1697740465683921e+01 1.9111865620197528e+02
        2.2129127135462653e+02</data></_></productsum>
  <avg>
    <_ type_id="opencv-matrix">
      <rows>1</rows>
      <cols>9</cols>
      <dt>d</dt>
      <data>
        -9.6710525506482448e-01 -9.6340561379050582e-01
        -9.6799014911589487e-01 -9.6437158103097920e-01
        -9.6091205211726383e-01 -9.6120775755531240e-01
        -9.7527333293170804e-01 -9.6534043802888847e-01
        -9.6591891411461350e-01</data></_>
    <_ type_id="opencv-matrix">
      <rows>1</rows>
      <cols>9</cols>
      <dt>d</dt>
      <data>
        3.5917365780376176e-01 4.0435699739760755e-01
        3.4079565364798464e-03 6.4217778785085233e-01
        7.6851145909340290e-01 5.3609305577076694e-01
        1.5880004524822450e-01 4.2483138003283077e-01
        6.1049830858354215e-01</data></_>
    <_ type_id="opencv-matrix">
      <rows>1</rows>
      <cols>9</cols>
      <dt>d</dt>
      <data>
        2.8785243919613895e-01 5.6884841481308990e-01
        1.8007853171735277e-01 3.8183332816292548e-01
        8.9556675548955200e-01 6.3079049000209508e-01
        1.7999605755935741e-01 4.2827538289675565e-01
        7.2913620683736413e-01</data></_>
    <_ type_id="opencv-matrix">
      <rows>1</rows>
      <cols>9</cols>
      <dt>d</dt>
      <data>
        6.4212349182117490e-02 2.1371395619374192e-01
        1.3828951328948230e-01 2.0726092360512224e-01
        6.6471063287672172e-01 6.0889311090200959e-01
        -2.0668866837809899e-02 4.4365719906584233e-01
        7.1975817901645589e-01</data></_>
    <_ type_id="opencv-matrix">
      <rows>1</rows>
      <cols>9</cols>
      <dt>d</dt>
      <data>
        1.1676024473901536e-01 1.2795922430987294e-01
        1.1637826440100735e-01 2.4193532700474199e-01
        6.9500709079407352e-01 6.3119394908080229e-01
        3.7195212621795565e-02 4.5026949781018333e-01
        7.3915449831936808e-01</data></_>
    <_ type_id="opencv-matrix">
      <rows>1</rows>
      <cols>9</cols>
      <dt>d</dt>
      <data>
        2.4313133002459247e-01 5.0190596402728860e-01
        2.4208902575361507e-01 4.4447212739953701e-01
        9.0163938757739492e-01 8.3159213305651392e-01
        1.7026318442312222e-01 5.7048012809002702e-01
        7.0001215497149694e-01</data></_>
    <_ type_id="opencv-matrix">
      <rows>1</rows>
      <cols>9</cols>
      <dt>d</dt>
      <data>
        1.6826172680586796e-01 1.7544496009380828e-01
        1.7980366763629899e-01 5.3593300303779778e-01
        7.8604130909679837e-01 7.3441294326175077e-01
        2.2709861442284740e-01 6.5802220234311881e-01
        7.7841863239774056e-01</data></_></avg>
  <inv_eigen_values>
    <_ type_id="opencv-matrix">
      <rows>1</rows>
      <cols>9</cols>
      <dt>d</dt>
      <data>
        1.8511576085929862e+00 3.1013389930526540e+02
        1.1496612400957672e+03 8388608. 8388608. 8388608. 8388608.
        8388608. 8388608.</data></_>
    <_ type_id="opencv-matrix">
      <rows>1</rows>
      <cols>9</cols>
      <dt>d</dt>
      <data>
        4.7695930931538544e-01 7.2343846366287989e+00
        1.3950651759671564e+01 2.7221754101303919e+01
        5.9372020036814348e+01 9.2317510767409559e+01
        1.2048283325697174e+02 2.4007709632271036e+02
        2.6742994793573803e+02</data></_>
    <_ type_id="opencv-matrix">
      <rows>1</rows>
      <cols>9</cols>
      <dt>d</dt>
      <data>
        2.8184067710606318e+00 3.9404682343553756e+00
        2.4143864890025824e+01 2.6197599423786425e+01
        5.0100237794861727e+01 5.9639149618459371e+01
        9.2045632449285762e+01 1.4179363683436696e+02
        3.1808412630386499e+02</data></_>
    <_ type_id="opencv-matrix">
      <rows>1</rows>
      <cols>9</cols>
      <dt>d</dt>
      <data>
        2.1443396346769124e+00 5.9768561383942727e+00
        2.1788451432903624e+01 3.1696733600250298e+01
        7.8025559093791188e+01 1.9551233667853219e+02
        3.4818055376372780e+02 8.9140046046513760e+02
        1.4376398175724116e+03</data></_>
    <_ type_id="opencv-matrix">
      <rows>1</rows>
      <cols>9</cols>
      <dt>d</dt>
      <data>
        1.6344052152918400e+00 9.4320369059756342e+00
        4.0683936866947406e+01 6.0254316803732927e+01
        9.6142630496274933e+01 1.9838310339542258e+02
        2.6079252584423227e+02 5.5346147429250595e+02
        1.0563659671809583e+03</data></_>
    <_ type_id="opencv-matrix">
      <rows>1</rows>
      <cols>9</cols>
      <dt>d</dt>
      <data>
        4.0081746832959277e+00 9.1606278579673042e+00
        2.9132694579159434e+01 7.1231772192731185e+01
        1.0849940029196985e+02 1.3720532719529373e+02
        2.4667922614876295e+02 4.8873356821069262e+02
        6.2224165923856856e+02</data></_>
    <_ type_id="opencv-matrix">
      <rows>1</rows>
      <cols>9</cols>
      <dt>d</dt>
      <data>
        2.1832134193314654e+00 8.5157371945640747e+00
        2.6974155443489760e+01 3.2309534317769071e+01
        9.3839674443894339e+01 1.1572704660583744e+02
        1.7488651967426028e+02 2.2104633193486737e+02
        4.3352550505753322e+02</data></_></inv_eigen_values>
  <cov_rotate_mats>
    <_ type_id="opencv-matrix">
      <rows>9</rows>
      <cols>9</cols>
      <dt>d</dt>
      <data>
        3.1872105238957654e-01 3.5359493840075307e-01
        3.1031955540025929e-01 3.4385084543069838e-01
        3.7710160078482274e-01 3.7430973319736222e-01
        2.3780419281973855e-01 3.3393370649802706e-01
        3.2936291806290768e-01 -3.4311620696357292e-01
        -5.8573718852712467e-02 -4.6940768122386456e-01
        1.8226694142805328e-01 1.2469660077646003e-01
        1.2524841715344784e-01 6.0966121288009167e-01
        2.8966547423442202e-01 -3.7208371255762684e-01
        -4.7347390466963457e-01 -9.4138214890136490e-02
        -3.3773429569826746e-01 -1.7170223789020389e-01
        1.8114601831428664e-01 9.7152714550995695e-02
        -2.7443346967543991e-01 2.7889687980969252e-01
        6.5426647198633814e-01 2.7464887710397945e-01
        -8.3898415560314255e-01 1.6176141043869677e-01
        -8.4756644316871903e-03 1.3766464529885974e-01
        8.3594566193792672e-02 -8.6917564175161971e-02
        3.9002386423074120e-01 -9.3926069138007676e-02
        -3.8301017580747512e-02 -2.1415220721304751e-01
        1.0349749064493759e-01 -1.5017375732462243e-01
        -5.4590559984490061e-01 5.7620319050225011e-01
        3.7404955045317451e-01 -2.5799609736068507e-01
        2.8794076318699086e-01 -4.9652372734527478e-01
        -1.3045997349712625e-02 2.8985110494247635e-01
        4.4222666242750613e-01 -3.4511715314867686e-02
        4.1902561713316316e-01 -4.4201958571957650e-01
        -4.1258504109793454e-02 -3.1600443273674877e-01
        4.6765887288002989e-01 8.2689161611874745e-04
        -6.6653422977868171e-01 3.4613911862272878e-01
        -1.1598712324490941e-01 2.8253027889204557e-01
        -3.2463561519982914e-01 -1.3617158437860177e-01
        -2.6403903988342472e-03 8.9649607929360997e-02
        3.1067434808855759e-01 4.4041466527054958e-03
        -2.5292095160935618e-01 -5.3565412593494388e-01
        6.7674669923076539e-02 -1.8487021013863453e-01
        6.8632274195535203e-01 -1.8637298265842928e-01
        -7.9586191234103182e-02 -1.2740769965056206e-01
        6.4142999350876362e-02 6.4582814062281801e-01
        -4.3691803361521397e-01 -4.8557445587026643e-01
        1.1846654185837498e-01 1.2974687484468247e-01
        3.1412817652164504e-01</data></_>
    <_ type_id="opencv-matrix">
      <rows>9</rows>
      <cols>9</cols>
      <dt>d</dt>
      <data>
        3.3014824503401402e-01 3.4194048489200185e-01
        2.3051387424086503e-01 3.7334745091499721e-01
        3.9202113601809624e-01 3.4308345990393035e-01
        2.6745915504304435e-01 3.2452886711301004e-01
        3.6512143051313811e-01 -4.6706072455328490e-01
        -5.1973048145009404e-01 -2.2983577275245203e-02
        -3.3594018580487037e-02 -2.1947462003062072e-02
        -5.4393669494682507e-03 4.5459623860702314e-01
        5.1401096767896071e-01 1.9672674061133327e-01
        3.8286635923948897e-01 2.5506855386021221e-01
        -1.0611542840444819e-01 -7.1891008586206104e-02
        -2.5856746708002276e-01 -7.1830637994389313e-01
        3.4221396007528471e-01 2.6760780566815340e-01
        1.9469460910497696e-02 -8.8064175756224591e-02
        -1.5602545646143132e-01 -5.3774208222449527e-01
        5.6864246898992166e-01 4.5258967318667348e-01
        -3.4491953617225224e-01 -1.6705040605279800e-01
        -6.0528506682035493e-02 -1.8751955165610969e-03
        -2.6415807146042553e-01 3.3149459883268034e-01
        -2.7198018691048031e-01 -3.9626144285319403e-01
        6.6334696194148474e-02 -7.4387415940989729e-02
        -3.6557828799346226e-01 1.3197382317965517e-01
        6.5447470297688415e-01 -5.4482925954999151e-01
        3.4218629926997562e-01 5.6620820968346897e-01
        2.9827691099497983e-01 1.5556511820247624e-03
        -3.3391820348915330e-01 -1.8366213892180899e-01
        1.0823286329638623e-01 -1.3985292825596693e-01
        3.3170286175869035e-01 -4.8194070146847362e-01
        4.6231657182362290e-01 -2.3197521338521387e-01
        3.8927069999946523e-01 -3.0896062060250057e-01
        -3.3888278480992878e-01 7.5010486403638985e-02
        1.5066785220845560e-01 1.3071613016055555e-01
        -2.5358632353960742e-01 1.1202057284423621e-01
        4.7540888438432172e-01 -6.1582664864885484e-01
        2.7194099285542976e-03 -2.0542311919841408e-01
        -1.3389816754162742e-01 4.9057906619521269e-01
        -1.5742478784885419e-01 1.5977971962067756e-04
        1.5829686576046653e-01 -7.1709096040386625e-02
        1.9739893486384952e-01 -1.8663251694415742e-01
        5.0236656131543167e-01 -7.0887895066569606e-01
        3.4108320683608095e-01</data></_>
    <_ type_id="opencv-matrix">
      <rows>9</rows>
      <cols>9</cols>
      <dt>d</dt>
      <data>
        1.3728700695764831e-01 4.4214143372652770e-01
        2.5434849476306753e-01 -3.9882901860310238e-01
        -5.9644326526975071e-04 4.4675463078289995e-01
        -4.4336936403129745e-01 -3.9414791780839109e-01
        -1.0191397102442749e-01 2.8175073116541510e-01
        3.8368834305608973e-01 2.6600512504384682e-01
        2.9154271903538043e-01 3.7693638163176824e-01
        3.3016546779490824e-01 2.6822413978787457e-01
        3.7589677093508850e-01 3.9154955475934183e-01
        1.8879683268152794e-01 -8.2334880356201165e-02
        4.8170778478159865e-01 -5.0495006535743081e-01
        -5.1934281748789557e-01 -1.3054425340208514e-01
        2.9483883175572301e-01 2.8268479527341650e-01
        1.3023198785267076e-01 -7.8784570557505818e-01
        -5.1783739932608923e-02 1.5897951252000306e-02
        -2.3532548809157158e-01 6.0004669341371990e-02
        3.0021542214657843e-01 -1.6974127607370393e-01
        3.9255663209834352e-01 2.1058036005535691e-01
        3.8543379289468910e-01 -6.8623734395741198e-01
        -1.1684489496132053e-01 -8.9449248906129045e-03
        -1.9116255383645805e-02 5.4128004981799782e-01
        -2.2136380557285321e-01 1.4672552187436411e-01
        5.3912161479599000e-02 2.9849884261455412e-01
        1.9763580760970945e-01 -5.5072544033768356e-01
        -4.8342067765891156e-01 2.1261438717168929e-01
        -2.8737157856910994e-01 -2.2999325940179949e-01
        3.4244855853535555e-01 1.9206574361398124e-01
        -4.1270630274627358e-02 -4.2534972181460996e-02
        -1.4595766717005312e-01 -3.8294278940499804e-01
        3.6646547451912825e-01 2.5924985158599917e-01
        6.1076844247886664e-01 -3.2489934127360835e-02
        -5.0292899592854989e-01 6.7885841112300116e-02
        2.7848072904722659e-01 -7.8381228352944324e-02
        2.4780975153214332e-01 -3.3094242692968506e-01
        1.2118744678700887e-01 -1.8332676765975406e-01
        5.4204400982611123e-01 -6.3139290990907937e-01
        -3.8094399726500465e-02 2.4184969452126090e-01
        -5.3652072113895599e-01 6.1279579521486216e-02
        -5.4333317884132859e-01 3.5604292248611674e-01
        3.2740151573066206e-01 -1.8886750695791840e-01
        2.8914992187815375e-01</data></_>
    <_ type_id="opencv-matrix">
      <rows>9</rows>
      <cols>9</cols>
      <dt>d</dt>
      <data>
        3.1896201622131060e-01 4.0443362352146112e-01
        3.3630861981081511e-01 3.0871062009268629e-01
        4.1204563510875231e-01 4.0501074103192947e-01
        2.0708077961071769e-01 2.2981286466691997e-01
        3.1109360945262871e-01 -2.3387806559226937e-01
        -4.3833951322619291e-01 -2.5370440108923864e-01
        -8.0700479706316726e-03 6.2259343536073597e-02
        -5.6108746345084129e-02 1.3395194121040571e-01
        6.0290634835298518e-01 5.4796429451271533e-01
        4.1767721651835310e-01 2.3621129812867660e-02
        -5.8076167974812065e-01 2.3078091802721423e-01
        4.8668422487460233e-01 -4.2933820844551368e-01
        -3.1705471978089879e-02 -9.7210437410813935e-02
        -5.2876139898359840e-02 -5.4675735238166556e-01
        3.8939294376157624e-01 2.2595843772077862e-01
        -2.1800585835170122e-01 4.5447830039115150e-01
        -4.4358268922459060e-01 -3.3136872050707242e-02
        1.8409840905668412e-01 -1.1197927888565556e-01
        4.2257378511304333e-01 2.1699375112503663e-01
        -3.1981130684695151e-02 -8.1446341275632450e-01
        -6.0511429879796831e-02 -8.0647919832450149e-02
        -1.9243620275373196e-02 1.4032957418469414e-02
        3.1502175120896092e-01 -2.9936441507429962e-01
        -2.4957024898804120e-01 -1.4887169724160751e-01
        -2.3824398581361519e-01 5.0505282796732665e-01
        4.4002005826947299e-01 1.1193530490218276e-02
        -5.3770513795100738e-01 1.7670466199368631e-01
        -5.1215120913491688e-02 4.3193144676710801e-02
        2.5209275696153116e-01 2.7430170394452158e-01
        -1.4773642838586337e-01 -3.7042175913613978e-01
        -3.1770751375560630e-01 -4.1785513275781189e-01
        6.4972291983650887e-01 3.0464169498475269e-01
        -6.1259728094062493e-01 5.8896052441093238e-01
        -8.9508706417938566e-02 2.7824084357077267e-01
        -2.5241344082525158e-01 9.5799483697448673e-02
        -5.5894200006726506e-03 -1.6337810865932095e-01
        -8.0927221934390128e-02 7.4795850919721171e-02
        -2.4050207514425145e-02 2.1958145642953297e-02
        -1.5794333469628133e-01 -2.2511029611703776e-01
        9.0909841133923341e-01 -2.7638740226290198e-01
        9.1242165535335068e-02</data></_>
    <_ type_id="opencv-matrix">
      <rows>9</rows>
      <cols>9</cols>
      <dt>d</dt>
      <data>
        2.9747676868356632e-01 3.0754924304552206e-01
        2.6680139870135500e-01 3.3222616588355686e-01
        4.3744403085601891e-01 3.7794140513981239e-01
        2.4149457905388100e-01 3.1660540077264582e-01
        3.7763504364344441e-01 -3.1313394650109094e-01
        -4.1508337695809444e-01 7.9272642982884334e-02
        -3.2145652174691591e-01 -3.1993323312945698e-01
        1.9859579772300667e-01 1.7043769468196504e-01
        4.4235293810377974e-01 5.0349953353617438e-01
        -3.9655170009582247e-01 1.9172975235433756e-01
        -3.7251490790129577e-01 4.9968981329264986e-02
        3.7066362658343444e-01 -4.9375046166327402e-01
        9.5947988998940595e-02 5.2059528648151954e-01
        -5.7581977606416576e-02 2.9970158794865590e-02
        3.3132815223232570e-01 -2.8337164871710380e-01
        3.3463288767430971e-01 -6.4413593149165649e-01
        1.6365652633829214e-01 4.1759709952445889e-01
        1.7826344840002972e-01 -2.2177698909439614e-01
        5.8642024797602066e-01 1.9433106475855777e-01
        -5.9290469434560280e-03 -1.4266850828640229e-01
        -2.9607768447653893e-01 -5.4714581607094359e-01
        -1.8670499244176808e-01 1.5403097632413748e-01
        3.9031069421711617e-01 1.7026961468158092e-01
        -5.4966320655141454e-01 1.2389756806631191e-01
        5.8099238290889521e-01 -7.2489240115449549e-02
        -7.5721581518596509e-02 -3.2609561722151892e-01
        3.7897331996090844e-01 -2.3458108332819810e-01
        -7.8831390895801365e-02 1.2365063796891965e-01
        -6.0231519640622433e-01 1.4921526326520365e-01
        -1.7195577723205072e-02 3.6158127366243009e-01
        -5.9060303358722044e-01 -5.0002342675581235e-02
        3.3331435314742491e-01 -5.0288170130698961e-01
        1.9677987876425646e-01 3.8777841638976462e-01
        4.6669954127803903e-01 -1.9338034873131152e-01
        -2.7755563700326402e-01 -1.0457218592661961e-01
        -2.8905606756017682e-01 3.6233309065923036e-01
        -1.5270363373249737e-01 4.3894715690214231e-01
        4.1823983168765966e-01 -2.7172652031977834e-01
        -1.5288718569906565e-01 1.8511233171954095e-01
        -4.7759147319570255e-01 3.8456160187197652e-01
        -3.1878649160212591e-01</data></_>
    <_ type_id="opencv-matrix">
      <rows>9</rows>
      <cols>9</cols>
      <dt>d</dt>
      <data>
        4.0132857065415323e-01 5.7564689397781199e-01
        3.5185723419229581e-01 4.1467979367344110e-01
        3.2117666892873969e-01 2.5849517396748706e-01
        1.4579054748080325e-01 1.1123555927526989e-01
        9.0557971958381292e-02 -2.0949893462321970e-01
        -1.8032678574613079e-01 -2.6666397573127001e-03
        -1.9867734716359359e-01 1.2629485151940900e-01
        2.5887936719445187e-01 2.9254289532791311e-01
        6.1978286590472875e-01 5.7570095078557904e-01
        4.1519331279606819e-01 -6.3446240631923212e-01
        -2.4491135536638708e-01 5.8654959388027017e-01
        -7.5474729734964388e-04 7.1221982965799360e-02
        1.1933704749333579e-01 3.1851105479790788e-02
        2.6851547120240536e-02 -2.0807445559800117e-01
        1.6465957806317702e-01 1.1012184850526406e-02
        3.7174930488931385e-01 -7.2955271225191978e-02
        -8.2181880575544553e-01 1.9068260580162685e-01
        2.3137706788533857e-01 1.4376927901126388e-01
        6.9077366869565365e-02 3.9171641311169438e-02
        -2.7075971305375929e-01 -1.4957131305883612e-02
        4.4289118155163060e-01 -1.5671669100363503e-01
        -4.6344258046301962e-01 -3.4102182900898081e-01
        6.0693634652352124e-01 6.7876117192544339e-01
        1.0033901657948620e-01 1.3589581121113898e-03
        -3.3074715659583409e-01 -4.9422996473275255e-01
        -1.9951679940609182e-01 -1.9319709454042996e-01
        2.3819659961825920e-01 2.0417364222966486e-01
        2.4738452827256208e-01 -1.5867766484647283e-02
        -3.0385621684785907e-01 -2.9352341126440251e-01
        6.0720220551763704e-01 -2.2824634205269329e-01
        1.7957604429343473e-02 3.6673957755025965e-01
        -4.5216502666201913e-01 1.0391081693846343e-02
        -4.1596314097429454e-01 7.7995441134382149e-01
        -4.0965766188568252e-02 2.0710311748935495e-01
        -1.7244142528110873e-01 -3.6184329042211072e-01
        1.0881897536137956e-01 -3.8206417640721260e-02
        2.2928065372118051e-01 -1.4689494791268817e-01
        2.0522276263729844e-01 -3.2996730799179608e-01
        1.5352537307323344e-01 -1.9875483799856711e-01
        6.7764695711945533e-01 -4.7913778180118743e-01
        1.5167567771843810e-01</data></_>
    <_ type_id="opencv-matrix">
      <rows>9</rows>
      <cols>9</cols>
      <dt>d</dt>
      <data>
        2.5434440349872184e-01 2.8114882086491749e-01
        2.4769735853427974e-01 4.2136991996934892e-01
        4.1608229377349931e-01 3.7211220621852387e-01
        2.7408516679908440e-01 3.5069490698933858e-01
        3.2810990292756192e-01 -3.6825763489497459e-01
        -2.4308402488424979e-01 -2.8282282537988378e-02
        -1.8216382006014981e-01 -3.7672059697218613e-01
        -5.2405967745533709e-02 2.1781359632933320e-01
        6.1935042430279397e-01 4.4227866992968673e-01
        -1.9501138439689722e-01 8.6747888738875664e-02
        -3.6282793538816283e-01 5.9808745632997296e-01
        -6.7539186160099199e-02 -3.5686421040903099e-01
        3.5894709092702731e-01 1.7696158836534695e-01
        -4.1595747794440152e-01 4.2920040662264713e-01
        5.2471572541597400e-01 -1.6247051454092062e-01
        -4.3642947791308595e-01 -2.1885922490967735e-01
        -2.0984236786048024e-01 4.7896065353743417e-01
        -2.3459039921535346e-02 4.1306746435157964e-02
        -5.6242818722846366e-01 1.7506051238757872e-01
        3.3143415969184542e-01 -3.0481477378771649e-01
        1.6920880537368937e-01 3.1205704711557214e-01
        3.9325084149697792e-01 -5.8035746871170982e-02
        -4.0772798525505799e-01 1.1269452496000430e-01
        -4.9936351781569988e-01 9.9914102944314472e-03
        -2.2652059529744445e-01 6.2184445168188307e-01
        -4.3057837330707671e-01 3.3287049860492102e-01
        -1.2519294989826599e-02 5.8964849778038647e-02
        2.1034814466390694e-01 -2.5445738846511645e-01
        6.9962277257573269e-01 2.4837920478244557e-01
        -4.3218520019813023e-01 -1.7775206506341465e-01
        2.7142042622130313e-01 -2.1503401668789668e-01
        -3.9399520420412164e-02 -3.5693277286595620e-01
        4.8233731776635380e-01 3.1923211427699477e-01
        5.1909339290256706e-02 1.6852712512067808e-01
        -5.9079076530691288e-01 -2.6282874192379674e-01
        -5.7027569445719919e-02 2.9254020872585568e-01
        -2.7709193710141378e-01 -4.0071836689563808e-02
        -2.8013524429055103e-01 1.8020544749894335e-01
        -4.4594097755173916e-02 1.5489795120397162e-01
        3.3315349066436334e-01 -6.3916801480135688e-01
        5.1493255827044593e-01</data></_></cov_rotate_mats>
  <c type_id="opencv-matrix">
    <rows>1</rows>
    <cols>7</cols>
    <dt>d</dt>
    <data>
      -1.0905434883664496e+02 -3.1648445824047624e+01
      -3.2098480474918496e+01 -3.8637252977578832e+01
      -3.9238338723638861e+01 -3.8982508721284077e+01
      -3.5620237659452947e+01</data></c></my_nb>
</opencv_storage>
