<?xml version="1.0"?>
<opencv_storage>
<my_nb type_id="opencv-ml-bayesian">
  <var_count>49</var_count>
  <var_all>49</var_all>
  <cls_labels type_id="opencv-matrix">
    <rows>1</rows>
    <cols>7</cols>
    <dt>i</dt>
    <data>
      -1 0 1 2 3 4 5</data></cls_labels>
  <count>
    <_ type_id="opencv-matrix">
      <rows>1</rows>
      <cols>49</cols>
      <dt>i</dt>
      <data>
        2 2 2 2 2 2 2 2 2 2 2 2 2 2 2 2 2 2 2 2 2 2 2 2 2 2 2 2 2 2 2 2
        2 2 2 2 2 2 2 2 2 2 2 2 2 2 2 2 2</data></_>
    <_ type_id="opencv-matrix">
      <rows>1</rows>
      <cols>49</cols>
      <dt>i</dt>
      <data>
        199 199 199 199 199 199 199 199 199 199 199 199 199 199 199 199
        199 199 199 199 199 199 199 199 199 199 199 199 199 199 199 199
        199 199 199 199 199 199 199 199 199 199 199 199 199 199 199 199
        199</data></_>
    <_ type_id="opencv-matrix">
      <rows>1</rows>
      <cols>49</cols>
      <dt>i</dt>
      <data>
        523 523 523 523 523 523 523 523 523 523 523 523 523 523 523 523
        523 523 523 523 523 523 523 523 523 523 523 523 523 523 523 523
        523 523 523 523 523 523 523 523 523 523 523 523 523 523 523 523
        523</data></_>
    <_ type_id="opencv-matrix">
      <rows>1</rows>
      <cols>49</cols>
      <dt>i</dt>
      <data>
        146 146 146 146 146 146 146 146 146 146 146 146 146 146 146 146
        146 146 146 146 146 146 146 146 146 146 146 146 146 146 146 146
        146 146 146 146 146 146 146 146 146 146 146 146 146 146 146 146
        146</data></_>
    <_ type_id="opencv-matrix">
      <rows>1</rows>
      <cols>49</cols>
      <dt>i</dt>
      <data>
        180 180 180 180 180 180 180 180 180 180 180 180 180 180 180 180
        180 180 180 180 180 180 180 180 180 180 180 180 180 180 180 180
        180 180 180 180 180 180 180 180 180 180 180 180 180 180 180 180
        180</data></_>
    <_ type_id="opencv-matrix">
      <rows>1</rows>
      <cols>49</cols>
      <dt>i</dt>
      <data>
        152 152 152 152 152 152 152 152 152 152 152 152 152 152 152 152
        152 152 152 152 152 152 152 152 152 152 152 152 152 152 152 152
        152 152 152 152 152 152 152 152 152 152 152 152 152 152 152 152
        152</data></_>
    <_ type_id="opencv-matrix">
      <rows>1</rows>
      <cols>49</cols>
      <dt>i</dt>
      <data>
        308 308 308 308 308 308 308 308 308 308 308 308 308 308 308 308
        308 308 308 308 308 308 308 308 308 308 308 308 308 308 308 308
        308 308 308 308 308 308 308 308 308 308 308 308 308 308 308 308
        308</data></_></count>
  <sum>
    <_ type_id="opencv-matrix">
      <rows>1</rows>
      <cols>49</cols>
      <dt>d</dt>
      <data>
        0. 7.7922075986862183e-01 1.8181818723678589e+00
        1.3246753215789795e+00 9.6103894710540771e-01
        3.3766233921051025e-01 0. 3.8961037993431091e-01
        1.8961038589477539e+00 2. 2. 2. 1.9740259647369385e+00
        7.2727274894714355e-01 1.3246753215789795e+00 2. 2. 2. 2. 2.
        1.9220778942108154e+00 8.8311690092086792e-01 2. 2. 2. 2. 2. 2.
        1.2987012863159180e+00 2. 2. 2. 2. 2. 2. 9.3506491184234619e-01
        2. 2. 2. 2. 2. 2. 2.0779220759868622e-01 1.9740259647369385e+00
        2. 2. 2. 2. 1.7662338018417358e+00</data></_>
    <_ type_id="opencv-matrix">
      <rows>1</rows>
      <cols>49</cols>
      <dt>d</dt>
      <data>
        8.1008951310068369e+00 6.4655998229980469e+01
        1.0083986993134022e+02 6.3317948423326015e+01
        2.2638371661305428e+01 1.1427154125645757e+01
        6.9527777507901192e+00 4.8929676905274391e+01
        1.3345784569531679e+02 1.3406668096780777e+02
        1.2878792649507523e+02 1.0072030872851610e+02
        4.6023007419891655e+01 3.1383560346439481e+01
        9.6668041774071753e+01 1.5649652788415551e+02
        1.6397222241386771e+02 1.6367835909128189e+02
        1.5499660133570433e+02 1.1017012605443597e+02
        5.8273523420095444e+01 1.3198201309144497e+02
        1.8468194448947906e+02 1.9571944439411163e+02
        1.9281230157613754e+02 1.8649305564165115e+02
        1.6895259952545166e+02 1.0615318706352264e+02
        1.3807564000040293e+02 1.9604701739549637e+02
        1.9827430558204651e+02 1.9820727038383484e+02
        1.9418750000000000e+02 1.8910710677504539e+02
        1.6277403308451176e+02 9.4544911876320839e+01
        1.8455006963014603e+02 1.9488358855247498e+02
        1.9711495053768158e+02 1.9512878787517548e+02
        1.9193055552244186e+02 1.8098754253983498e+02
        2.7264838563278317e+01 1.0628073405474424e+02
        1.4941993369907141e+02 1.7139703793078661e+02
        1.8114681279659271e+02 1.8990312900021672e+02
        1.8495500440523028e+02</data></_>
    <_ type_id="opencv-matrix">
      <rows>1</rows>
      <cols>49</cols>
      <dt>d</dt>
      <data>
        4.4426897918805480e+01 9.2834725840948522e+01
        2.2468814193271101e+02 2.1755943242833018e+02
        1.4284712765179574e+02 7.0430947069078684e+01
        2.8118927247822285e+01 1.3558466822654009e+02
        1.9993019448034465e+02 3.7614466207474470e+02
        3.8832900027930737e+02 3.0364799520559609e+02
        2.1001854686439037e+02 7.9958541201427579e+01
        9.3231910534203053e+01 2.4136803977936506e+02
        4.0353983424231410e+02 4.5266613972932100e+02
        4.1536366417258978e+02 3.4989688028581440e+02
        1.9341315822862089e+02 7.9120942340232432e+01
        2.9613426346704364e+02 4.3798900675773621e+02
        4.8980480533093214e+02 4.8986377734690905e+02
        4.3341572252660990e+02 3.0796184746734798e+02
        1.0591456265002489e+02 2.5105453734658659e+02
        4.5659197354316711e+02 5.0719202795624733e+02
        5.1858612924814224e+02 4.8925912507623434e+02
        3.9741882061213255e+02 1.1995135862752795e+02
        2.3016602160502225e+02 4.4153186997026205e+02
        5.0526173928380013e+02 5.1962202382087708e+02
        5.1771154332160950e+02 4.6377214146032929e+02
        8.1416159294545650e+01 1.7092384342290461e+02
        2.9578693472035229e+02 4.2959038338810205e+02
        4.7936541681922972e+02 5.0721529710292816e+02
        5.0906862142682076e+02</data></_>
    <_ type_id="opencv-matrix">
      <rows>1</rows>
      <cols>49</cols>
      <dt>d</dt>
      <data>
        4.0973671372979879e+01 6.4843969464302063e+01
        6.8832040637731552e+01 6.5416504606604576e+01
        5.7199230583384633e+01 3.9611584153026342e+01
        3.1828661624342203e+01 6.2036586362868547e+01
        8.4177327036857605e+01 9.3414758816361427e+01
        9.4223434999585152e+01 8.5675523295998573e+01
        6.0068546600639820e+01 4.4790612518787384e+01
        5.6323274374008179e+01 8.2191007345914841e+01
        9.6596615020185709e+01 1.0795615098997951e+02
        1.1592222228646278e+02 9.6794949591159821e+01
        7.1754361353814602e+01 5.2167424380779266e+01
        7.9619556695222855e+01 1.0515951172448695e+02
        1.1772903434187174e+02 1.2627857148647308e+02
        1.1948134928941727e+02 1.0329665115475655e+02
        4.3274081638082862e+01 7.9384338803589344e+01
        1.1045760591328144e+02 1.2693315629288554e+02
        1.3204166671633720e+02 1.2896458339691162e+02
        1.1881412030756474e+02 4.8827918849885464e+01
        8.1196015819907188e+01 1.1043578049540520e+02
        1.2675952400267124e+02 1.3898809524253011e+02
        1.3885204088687897e+02 1.3247380955517292e+02
        1.6404689878225327e+01 3.2923064518719912e+01
        7.0560880221426487e+01 9.5243837408721447e+01
        1.1880656981468201e+02 1.2895440845564008e+02
        1.3479675334692001e+02</data></_>
    <_ type_id="opencv-matrix">
      <rows>1</rows>
      <cols>49</cols>
      <dt>d</dt>
      <data>
        1.3500000000000000e+01 1.4820238128304482e+01
        1.5691567510366440e+01 1.4839781761169434e+01
        2.0226400986313820e+01 5.2417276332154870e+01
        5.3458955289795995e+01 2.4725771163590252e+01
        4.5217842917889357e+01 2.9084405809640884e+01
        1.8689257400110364e+01 1.8336060076951981e+01
        4.8714889762923121e+01 9.9208393000066280e+01
        2.7946161333471537e+01 8.4252514593303204e+01
        1.0434810318611562e+02 6.1616489259526134e+01
        2.7009371179156005e+01 3.6560970670543611e+01
        1.0896308097988367e+02 2.0178395222872496e+01
        3.4654878269881010e+01 7.8192968815565109e+01
        1.3889306044951081e+02 1.1130213057994843e+02
        9.5424441348761320e+01 1.4094155620411038e+02
        4.3290225138887763e+01 5.1574637673795223e+01
        5.8947607804089785e+01 1.2691066019982100e+02
        1.7247403165698051e+02 1.6751238083839417e+02
        1.7556708332896233e+02 6.8707126157358289e+01
        8.6233022939413786e+01 1.0817169052362442e+02
        1.5573706132173538e+02 1.7899956706166267e+02
        1.7878214281797409e+02 1.7933660715818405e+02
        2.5452072676271200e+01 3.4758246760815382e+01
        5.0343074867501855e+01 1.0197216289676726e+02
        1.7146656778454781e+02 1.7919970631599426e+02
        1.7990151512622833e+02</data></_>
    <_ type_id="opencv-matrix">
      <rows>1</rows>
      <cols>49</cols>
      <dt>d</dt>
      <data>
        1.6252791329286993e+01 8.1768510818481445e+01
        7.0486285910010338e+01 3.1748118668794632e+01
        3.5653193457983434e+01 3.1416146814823151e+01
        2.0174737021327019e+01 1.9167945448309183e+01
        3.7325109507422894e+01 9.0698727274313569e+01
        1.1701009017229080e+02 1.1521953949704766e+02
        1.0700976281613111e+02 6.9653549723327160e+01
        3.7282403398305178e+01 5.1359633656218648e+01
        4.8495126279070973e+01 1.0607993099279702e+02
        1.3217539685964584e+02 1.3108140325546265e+02
        1.1532802253216505e+02 5.8171028826385736e+01
        8.5341544100083411e+01 1.0410437227785587e+02
        1.2774408090487123e+02 1.3792678593471646e+02
        1.4029404780268669e+02 1.3610778336599469e+02
        3.8708680042997003e+01 6.4300598269328475e+01
        9.6703254234045744e+01 1.3926176422834396e+02
        1.5036904752254486e+02 1.5072916668653488e+02
        1.4746914046350867e+02 3.2116988888941705e+01
        6.2950188416056335e+01 7.9719979487359524e+01
        1.2673702970147133e+02 1.4715313857793808e+02 151.
        1.5039930564165115e+02 1.7241267411038280e+01
        4.3991135451011360e+01 7.7938290765509009e+01
        1.1847698631510139e+02 1.3317443813849241e+02
        1.3786139202117920e+02 1.4692292308807373e+02</data></_>
    <_ type_id="opencv-matrix">
      <rows>1</rows>
      <cols>49</cols>
      <dt>d</dt>
      <data>
        3.2071942763403058e+01 4.5372634378261864e+01
        4.4963523980230093e+01 4.2597889645025134e+01
        4.2771292103454471e+01 5.8085865879431367e+01
        9.8930972647853196e+01 2.1719065456651151e+01
        9.0507222957909107e+01 8.7676880409941077e+01
        6.4677964592352509e+01 5.2914710447192192e+01
        6.4208615006878972e+01 1.1523902773763984e+02
        5.4415234470739961e+01 1.4254974531009793e+02
        1.7719423369318247e+02 1.7094910046830773e+02
        1.0813018306344748e+02 6.8897970151156187e+01
        9.9996630398556590e+01 9.0900469578802586e+01
        1.6866524465382099e+02 2.0717993257194757e+02
        2.5180030481703579e+02 2.4896363050490618e+02
        2.0051923146471381e+02 1.9520148309692740e+02
        1.0456508808955550e+02 1.6631567822769284e+02
        2.0994532383978367e+02 2.5558009639382362e+02
        3.0069414754211903e+02 2.9824285662174225e+02
        3.0005000001192093e+02 6.3695069564506412e+01
        1.6985596590861678e+02 2.3423648746684194e+02
        2.7849965717829764e+02 2.9826053372025490e+02
        3.0598701298236847e+02 306. 2.2577558729797602e+01
        9.1624553101137280e+01 1.7320061180740595e+02
        2.5514521564170718e+02 2.9114464142732322e+02
        2.9952192738652229e+02 3.0392063495516777e+02</data></_></sum>
  <productsum>
    <_ type_id="opencv-matrix">
      <rows>49</rows>
      <cols>49</cols>
      <dt>d</dt>
      <data>
        0. 0. 0. 0. 0. 0. 0. 0. 0. 0. 0. 0. 0. 0. 0. 0. 0. 0. 0. 0. 0.
        0. 0. 0. 0. 0. 0. 0. 0. 0. 0. 0. 0. 0. 0. 0. 0. 0. 0. 0. 0. 0.
        0. 0. 0. 0. 0. 0. 0. 0. 3.0359249630511620e-01
        7.0838253008291829e-01 5.1610725532999169e-01
        3.7443074931340803e-01 1.3155675226931507e-01 0.
        1.5179624815255810e-01 7.3874174487954747e-01
        7.7922075986862183e-01 7.7922075986862183e-01
        7.7922075986862183e-01 7.6910100612135324e-01
        2.8335301203316732e-01 5.1610725532999169e-01
        7.7922075986862183e-01 7.7922075986862183e-01
        7.7922075986862183e-01 7.7922075986862183e-01
        7.7922075986862183e-01 7.4886149862681606e-01
        3.4407151129419056e-01 7.7922075986862183e-01
        7.7922075986862183e-01 7.7922075986862183e-01
        7.7922075986862183e-01 7.7922075986862183e-01
        7.7922075986862183e-01 5.0598750158272310e-01
        7.7922075986862183e-01 7.7922075986862183e-01
        7.7922075986862183e-01 7.7922075986862183e-01
        7.7922075986862183e-01 7.7922075986862183e-01
        3.6431099556613944e-01 7.7922075986862183e-01
        7.7922075986862183e-01 7.7922075986862183e-01
        7.7922075986862183e-01 7.7922075986862183e-01
        7.7922075986862183e-01 8.0958000949913345e-02
        7.6910100612135324e-01 7.7922075986862183e-01
        7.7922075986862183e-01 7.7922075986862183e-01
        7.7922075986862183e-01 6.8814302258838111e-01 0.
        7.0838253008291829e-01 1.6528926605035466e+00
        1.2042503282339823e+00 8.7367179613327295e-01
        3.0696577206693831e-01 0. 3.5419126504145915e-01
        1.7237308322327749e+00 1.8181818723678589e+00
        1.8181818723678589e+00 1.8181818723678589e+00
        1.7945691123340879e+00 6.6115706420141862e-01
        1.2042503282339823e+00 1.8181818723678589e+00
        1.8181818723678589e+00 1.8181818723678589e+00
        1.8181818723678589e+00 1.8181818723678589e+00
        1.7473435922665459e+00 8.0283357021800228e-01
        1.8181818723678589e+00 1.8181818723678589e+00
        1.8181818723678589e+00 1.8181818723678589e+00
        1.8181818723678589e+00 1.8181818723678589e+00
        1.1806375682002113e+00 1.8181818723678589e+00
        1.8181818723678589e+00 1.8181818723678589e+00
        1.8181818723678589e+00 1.8181818723678589e+00
        1.8181818723678589e+00 8.5005903609950195e-01
        1.8181818723678589e+00 1.8181818723678589e+00
        1.8181818723678589e+00 1.8181818723678589e+00
        1.8181818723678589e+00 1.8181818723678589e+00
        1.8890201253761507e-01 1.7945691123340879e+00
        1.8181818723678589e+00 1.8181818723678589e+00
        1.8181818723678589e+00 1.8181818723678589e+00
        1.6056671404360046e+00 0. 5.1610725532999169e-01
        1.2042503282339823e+00 8.7738235380018637e-01
        6.3653228815338991e-01 2.2364648388939656e-01 0.
        2.5805362766499584e-01 1.2558609945493799e+00
        1.3246753215789795e+00 1.3246753215789795e+00
        1.3246753215789795e+00 1.3074717398215796e+00
        4.8170013129359290e-01 8.7738235380018637e-01
        1.3246753215789795e+00 1.3246753215789795e+00
        1.3246753215789795e+00 1.3246753215789795e+00
        1.3246753215789795e+00 1.2730645763067798e+00
        5.8492158235959124e-01 1.3246753215789795e+00
        1.3246753215789795e+00 1.3246753215789795e+00
        1.3246753215789795e+00 1.3246753215789795e+00
        1.3246753215789795e+00 8.6017877204278648e-01
        1.3246753215789795e+00 1.3246753215789795e+00
        1.3246753215789795e+00 1.3246753215789795e+00
        1.3246753215789795e+00 1.3246753215789795e+00
        6.1932870639599003e-01 1.3246753215789795e+00
        1.3246753215789795e+00 1.3246753215789795e+00
        1.3246753215789795e+00 1.3246753215789795e+00
        1.3246753215789795e+00 1.3762860471119787e-01
        1.3074717398215796e+00 1.3246753215789795e+00
        1.3246753215789795e+00 1.3246753215789795e+00
        1.3246753215789795e+00 1.1698431647191825e+00 0.
        3.7443074931340803e-01 8.7367179613327295e-01
        6.3653228815338991e-01 4.6179792892673532e-01
        1.6225332947600890e-01 0. 1.8721537465670401e-01
        9.1111482810282496e-01 9.6103894710540771e-01
        9.6103894710540771e-01 9.6103894710540771e-01
        9.4855791735476203e-01 3.4946871845330918e-01
        6.3653228815338991e-01 9.6103894710540771e-01
        9.6103894710540771e-01 9.6103894710540771e-01
        9.6103894710540771e-01 9.6103894710540771e-01
        9.2359585785347065e-01 4.2435486831599079e-01
        9.6103894710540771e-01 9.6103894710540771e-01
        9.6103894710540771e-01 9.6103894710540771e-01
        9.6103894710540771e-01 9.6103894710540771e-01
        6.2405125840274422e-01 9.6103894710540771e-01
        9.6103894710540771e-01 9.6103894710540771e-01
        9.6103894710540771e-01 9.6103894710540771e-01
        9.6103894710540771e-01 4.4931689917608963e-01
        9.6103894710540771e-01 9.6103894710540771e-01
        9.6103894710540771e-01 9.6103894710540771e-01
        9.6103894710540771e-01 9.6103894710540771e-01
        9.9848202203674852e-02 9.4855791735476203e-01
        9.6103894710540771e-01 9.6103894710540771e-01
        9.6103894710540771e-01 9.6103894710540771e-01
        8.4870973663198157e-01 0. 1.3155675226931507e-01
        3.0696577206693831e-01 2.2364648388939656e-01
        1.6225332947600890e-01 5.7007927660556845e-02 0.
        6.5778376134657535e-02 3.2012143219918698e-01
        3.3766233921051025e-01 3.3766233921051025e-01
        3.3766233921051025e-01 3.3327711245767944e-01
        1.2278630882677533e-01 2.2364648388939656e-01
        3.3766233921051025e-01 3.3766233921051025e-01
        3.3766233921051025e-01 3.3766233921051025e-01
        3.3766233921051025e-01 3.2450665895201780e-01
        1.4909765928063834e-01 3.3766233921051025e-01
        3.3766233921051025e-01 3.3766233921051025e-01
        3.3766233921051025e-01 3.3766233921051025e-01
        3.3766233921051025e-01 2.1926125713656575e-01
        3.3766233921051025e-01 3.3766233921051025e-01
        3.3766233921051025e-01 3.3766233921051025e-01
        3.3766233921051025e-01 3.3766233921051025e-01
        1.5786810272317808e-01 3.3766233921051025e-01
        3.3766233921051025e-01 3.3766233921051025e-01
        3.3766233921051025e-01 3.3766233921051025e-01
        3.3766233921051025e-01 3.5081801443744176e-02
        3.3327711245767944e-01 3.3766233921051025e-01
        3.3766233921051025e-01 3.3766233921051025e-01
        3.3766233921051025e-01 2.9819531856127668e-01 0. 0. 0. 0. 0. 0.
        0. 0. 0. 0. 0. 0. 0. 0. 0. 0. 0. 0. 0. 0. 0. 0. 0. 0. 0. 0. 0.
        0. 0. 0. 0. 0. 0. 0. 0. 0. 0. 0. 0. 0. 0. 0. 0. 0. 0. 0. 0. 0.
        0. 0. 1.5179624815255810e-01 3.5419126504145915e-01
        2.5805362766499584e-01 1.8721537465670401e-01
        6.5778376134657535e-02 0. 7.5898124076279050e-02
        3.6937087243977373e-01 3.8961037993431091e-01
        3.8961037993431091e-01 3.8961037993431091e-01
        3.8455050306067662e-01 1.4167650601658366e-01
        2.5805362766499584e-01 3.8961037993431091e-01
        3.8961037993431091e-01 3.8961037993431091e-01
        3.8961037993431091e-01 3.8961037993431091e-01
        3.7443074931340803e-01 1.7203575564709528e-01
        3.8961037993431091e-01 3.8961037993431091e-01
        3.8961037993431091e-01 3.8961037993431091e-01
        3.8961037993431091e-01 3.8961037993431091e-01
        2.5299375079136155e-01 3.8961037993431091e-01
        3.8961037993431091e-01 3.8961037993431091e-01
        3.8961037993431091e-01 3.8961037993431091e-01
        3.8961037993431091e-01 1.8215549778306972e-01
        3.8961037993431091e-01 3.8961037993431091e-01
        3.8961037993431091e-01 3.8961037993431091e-01
        3.8961037993431091e-01 3.8961037993431091e-01
        4.0479000474956672e-02 3.8455050306067662e-01
        3.8961037993431091e-01 3.8961037993431091e-01
        3.8961037993431091e-01 3.8961037993431091e-01
        3.4407151129419056e-01 0. 7.3874174487954747e-01
        1.7237308322327749e+00 1.2558609945493799e+00
        9.1111482810282496e-01 3.2012143219918698e-01 0.
        3.6937087243977373e-01 1.7976049219582819e+00
        1.8961038589477539e+00 1.8961038589477539e+00
        1.8961038589477539e+00 1.8714791247003859e+00
        6.8949233289310996e-01 1.2558609945493799e+00
        1.8961038589477539e+00 1.8961038589477539e+00
        1.8961038589477539e+00 1.8961038589477539e+00
        1.8961038589477539e+00 1.8222296562056499e+00
        8.3724068186901945e-01 1.8961038589477539e+00
        1.8961038589477539e+00 1.8961038589477539e+00
        1.8961038589477539e+00 1.8961038589477539e+00
        1.8961038589477539e+00 1.2312362603020119e+00
        1.8961038589477539e+00 1.8961038589477539e+00
        1.8961038589477539e+00 1.8961038589477539e+00
        1.8961038589477539e+00 1.8961038589477539e+00
        8.8649009385545696e-01 1.8961038589477539e+00
        1.8961038589477539e+00 1.8961038589477539e+00
        1.8961038589477539e+00 1.8961038589477539e+00
        1.8961038589477539e+00 1.9699780334357087e-01
        1.8714791247003859e+00 1.8961038589477539e+00
        1.8961038589477539e+00 1.8961038589477539e+00
        1.8961038589477539e+00 1.6744813637380389e+00 0.
        7.7922075986862183e-01 1.8181818723678589e+00
        1.3246753215789795e+00 9.6103894710540771e-01
        3.3766233921051025e-01 0. 3.8961037993431091e-01
        1.8961038589477539e+00 2. 2. 2. 1.9740259647369385e+00
        7.2727274894714355e-01 1.3246753215789795e+00 2. 2. 2. 2. 2.
        1.9220778942108154e+00 8.8311690092086792e-01 2. 2. 2. 2. 2. 2.
        1.2987012863159180e+00 2. 2. 2. 2. 2. 2. 9.3506491184234619e-01
        2. 2. 2. 2. 2. 2. 2.0779220759868622e-01 1.9740259647369385e+00
        2. 2. 2. 2. 1.7662338018417358e+00 0. 7.7922075986862183e-01
        1.8181818723678589e+00 1.3246753215789795e+00
        9.6103894710540771e-01 3.3766233921051025e-01 0.
        3.8961037993431091e-01 1.8961038589477539e+00 2. 2. 2.
        1.9740259647369385e+00 7.2727274894714355e-01
        1.3246753215789795e+00 2. 2. 2. 2. 2. 1.9220778942108154e+00
        8.8311690092086792e-01 2. 2. 2. 2. 2. 2. 1.2987012863159180e+00
        2. 2. 2. 2. 2. 2. 9.3506491184234619e-01 2. 2. 2. 2. 2. 2.
        2.0779220759868622e-01 1.9740259647369385e+00 2. 2. 2. 2.
        1.7662338018417358e+00 0. 7.7922075986862183e-01
        1.8181818723678589e+00 1.3246753215789795e+00
        9.6103894710540771e-01 3.3766233921051025e-01 0.
        3.8961037993431091e-01 1.8961038589477539e+00 2. 2. 2.
        1.9740259647369385e+00 7.2727274894714355e-01
        1.3246753215789795e+00 2. 2. 2. 2. 2. 1.9220778942108154e+00
        8.8311690092086792e-01 2. 2. 2. 2. 2. 2. 1.2987012863159180e+00
        2. 2. 2. 2. 2. 2. 9.3506491184234619e-01 2. 2. 2. 2. 2. 2.
        2.0779220759868622e-01 1.9740259647369385e+00 2. 2. 2. 2.
        1.7662338018417358e+00 0. 7.6910100612135324e-01
        1.7945691123340879e+00 1.3074717398215796e+00
        9.4855791735476203e-01 3.3327711245767944e-01 0.
        3.8455050306067662e-01 1.8714791247003859e+00
        1.9740259647369385e+00 1.9740259647369385e+00
        1.9740259647369385e+00 1.9483892547278003e+00
        7.1782764493363516e-01 1.3074717398215796e+00
        1.9740259647369385e+00 1.9740259647369385e+00
        1.9740259647369385e+00 1.9740259647369385e+00
        1.9740259647369385e+00 1.8971158347095241e+00
        8.7164784615790580e-01 1.9740259647369385e+00
        1.9740259647369385e+00 1.9740259647369385e+00
        1.9740259647369385e+00 1.9740259647369385e+00
        1.9740259647369385e+00 1.2818350298124415e+00
        1.9740259647369385e+00 1.9740259647369385e+00
        1.9740259647369385e+00 1.9740259647369385e+00
        1.9740259647369385e+00 1.9740259647369385e+00
        9.2292120734562388e-01 1.9740259647369385e+00
        1.9740259647369385e+00 1.9740259647369385e+00
        1.9740259647369385e+00 1.9740259647369385e+00
        1.9740259647369385e+00 2.0509360653490738e-01
        1.9483892547278003e+00 1.9740259647369385e+00
        1.9740259647369385e+00 1.9740259647369385e+00
        1.9740259647369385e+00 1.7432956923158116e+00 0.
        2.8335301203316732e-01 6.6115706420141862e-01
        4.8170013129359290e-01 3.4946871845330918e-01
        1.2278630882677533e-01 0. 1.4167650601658366e-01
        6.8949233289310996e-01 7.2727274894714355e-01
        7.2727274894714355e-01 7.2727274894714355e-01
        7.1782764493363516e-01 2.6446282568056745e-01
        4.8170013129359290e-01 7.2727274894714355e-01
        7.2727274894714355e-01 7.2727274894714355e-01
        7.2727274894714355e-01 7.2727274894714355e-01
        6.9893743690661836e-01 3.2113342808720091e-01
        7.2727274894714355e-01 7.2727274894714355e-01
        7.2727274894714355e-01 7.2727274894714355e-01
        7.2727274894714355e-01 7.2727274894714355e-01
        4.7225502728008451e-01 7.2727274894714355e-01
        7.2727274894714355e-01 7.2727274894714355e-01
        7.2727274894714355e-01 7.2727274894714355e-01
        7.2727274894714355e-01 3.4002361443980078e-01
        7.2727274894714355e-01 7.2727274894714355e-01
        7.2727274894714355e-01 7.2727274894714355e-01
        7.2727274894714355e-01 7.2727274894714355e-01
        7.5560805015046029e-02 7.1782764493363516e-01
        7.2727274894714355e-01 7.2727274894714355e-01
        7.2727274894714355e-01 7.2727274894714355e-01
        6.4226685617440182e-01 0. 5.1610725532999169e-01
        1.2042503282339823e+00 8.7738235380018637e-01
        6.3653228815338991e-01 2.2364648388939656e-01 0.
        2.5805362766499584e-01 1.2558609945493799e+00
        1.3246753215789795e+00 1.3246753215789795e+00
        1.3246753215789795e+00 1.3074717398215796e+00
        4.8170013129359290e-01 8.7738235380018637e-01
        1.3246753215789795e+00 1.3246753215789795e+00
        1.3246753215789795e+00 1.3246753215789795e+00
        1.3246753215789795e+00 1.2730645763067798e+00
        5.8492158235959124e-01 1.3246753215789795e+00
        1.3246753215789795e+00 1.3246753215789795e+00
        1.3246753215789795e+00 1.3246753215789795e+00
        1.3246753215789795e+00 8.6017877204278648e-01
        1.3246753215789795e+00 1.3246753215789795e+00
        1.3246753215789795e+00 1.3246753215789795e+00
        1.3246753215789795e+00 1.3246753215789795e+00
        6.1932870639599003e-01 1.3246753215789795e+00
        1.3246753215789795e+00 1.3246753215789795e+00
        1.3246753215789795e+00 1.3246753215789795e+00
        1.3246753215789795e+00 1.3762860471119787e-01
        1.3074717398215796e+00 1.3246753215789795e+00
        1.3246753215789795e+00 1.3246753215789795e+00
        1.3246753215789795e+00 1.1698431647191825e+00 0.
        7.7922075986862183e-01 1.8181818723678589e+00
        1.3246753215789795e+00 9.6103894710540771e-01
        3.3766233921051025e-01 0. 3.8961037993431091e-01
        1.8961038589477539e+00 2. 2. 2. 1.9740259647369385e+00
        7.2727274894714355e-01 1.3246753215789795e+00 2. 2. 2. 2. 2.
        1.9220778942108154e+00 8.8311690092086792e-01 2. 2. 2. 2. 2. 2.
        1.2987012863159180e+00 2. 2. 2. 2. 2. 2. 9.3506491184234619e-01
        2. 2. 2. 2. 2. 2. 2.0779220759868622e-01 1.9740259647369385e+00
        2. 2. 2. 2. 1.7662338018417358e+00 0. 7.7922075986862183e-01
        1.8181818723678589e+00 1.3246753215789795e+00
        9.6103894710540771e-01 3.3766233921051025e-01 0.
        3.8961037993431091e-01 1.8961038589477539e+00 2. 2. 2.
        1.9740259647369385e+00 7.2727274894714355e-01
        1.3246753215789795e+00 2. 2. 2. 2. 2. 1.9220778942108154e+00
        8.8311690092086792e-01 2. 2. 2. 2. 2. 2. 1.2987012863159180e+00
        2. 2. 2. 2. 2. 2. 9.3506491184234619e-01 2. 2. 2. 2. 2. 2.
        2.0779220759868622e-01 1.9740259647369385e+00 2. 2. 2. 2.
        1.7662338018417358e+00 0. 7.7922075986862183e-01
        1.8181818723678589e+00 1.3246753215789795e+00
        9.6103894710540771e-01 3.3766233921051025e-01 0.
        3.8961037993431091e-01 1.8961038589477539e+00 2. 2. 2.
        1.9740259647369385e+00 7.2727274894714355e-01
        1.3246753215789795e+00 2. 2. 2. 2. 2. 1.9220778942108154e+00
        8.8311690092086792e-01 2. 2. 2. 2. 2. 2. 1.2987012863159180e+00
        2. 2. 2. 2. 2. 2. 9.3506491184234619e-01 2. 2. 2. 2. 2. 2.
        2.0779220759868622e-01 1.9740259647369385e+00 2. 2. 2. 2.
        1.7662338018417358e+00 0. 7.7922075986862183e-01
        1.8181818723678589e+00 1.3246753215789795e+00
        9.6103894710540771e-01 3.3766233921051025e-01 0.
        3.8961037993431091e-01 1.8961038589477539e+00 2. 2. 2.
        1.9740259647369385e+00 7.2727274894714355e-01
        1.3246753215789795e+00 2. 2. 2. 2. 2. 1.9220778942108154e+00
        8.8311690092086792e-01 2. 2. 2. 2. 2. 2. 1.2987012863159180e+00
        2. 2. 2. 2. 2. 2. 9.3506491184234619e-01 2. 2. 2. 2. 2. 2.
        2.0779220759868622e-01 1.9740259647369385e+00 2. 2. 2. 2.
        1.7662338018417358e+00 0. 7.7922075986862183e-01
        1.8181818723678589e+00 1.3246753215789795e+00
        9.6103894710540771e-01 3.3766233921051025e-01 0.
        3.8961037993431091e-01 1.8961038589477539e+00 2. 2. 2.
        1.9740259647369385e+00 7.2727274894714355e-01
        1.3246753215789795e+00 2. 2. 2. 2. 2. 1.9220778942108154e+00
        8.8311690092086792e-01 2. 2. 2. 2. 2. 2. 1.2987012863159180e+00
        2. 2. 2. 2. 2. 2. 9.3506491184234619e-01 2. 2. 2. 2. 2. 2.
        2.0779220759868622e-01 1.9740259647369385e+00 2. 2. 2. 2.
        1.7662338018417358e+00 0. 7.4886149862681606e-01
        1.7473435922665459e+00 1.2730645763067798e+00
        9.2359585785347065e-01 3.2450665895201780e-01 0.
        3.7443074931340803e-01 1.8222296562056499e+00
        1.9220778942108154e+00 1.9220778942108154e+00
        1.9220778942108154e+00 1.8971158347095241e+00
        6.9893743690661836e-01 1.2730645763067798e+00
        1.9220778942108154e+00 1.9220778942108154e+00
        1.9220778942108154e+00 1.9220778942108154e+00
        1.9220778942108154e+00 1.8471917157069413e+00
        8.4870973663198157e-01 1.9220778942108154e+00
        1.9220778942108154e+00 1.9220778942108154e+00
        1.9220778942108154e+00 1.9220778942108154e+00
        1.9220778942108154e+00 1.2481025168054884e+00
        1.9220778942108154e+00 1.9220778942108154e+00
        1.9220778942108154e+00 1.9220778942108154e+00
        1.9220778942108154e+00 1.9220778942108154e+00
        8.9863379835217927e-01 1.9220778942108154e+00
        1.9220778942108154e+00 1.9220778942108154e+00
        1.9220778942108154e+00 1.9220778942108154e+00
        1.9220778942108154e+00 1.9969640440734970e-01
        1.8971158347095241e+00 1.9220778942108154e+00
        1.9220778942108154e+00 1.9220778942108154e+00
        1.9220778942108154e+00 1.6974194732639631e+00 0.
        3.4407151129419056e-01 8.0283357021800228e-01
        5.8492158235959124e-01 4.2435486831599079e-01
        1.4909765928063834e-01 0. 1.7203575564709528e-01
        8.3724068186901945e-01 8.8311690092086792e-01
        8.8311690092086792e-01 8.8311690092086792e-01
        8.7164784615790580e-01 3.2113342808720091e-01
        5.8492158235959124e-01 8.8311690092086792e-01
        8.8311690092086792e-01 8.8311690092086792e-01
        8.8311690092086792e-01 8.8311690092086792e-01
        8.4870973663198157e-01 3.8994773034603902e-01
        8.8311690092086792e-01 8.8311690092086792e-01
        8.8311690092086792e-01 8.8311690092086792e-01
        8.8311690092086792e-01 8.8311690092086792e-01
        5.7345252759662912e-01 8.8311690092086792e-01
        8.8311690092086792e-01 8.8311690092086792e-01
        8.8311690092086792e-01 8.8311690092086792e-01
        8.8311690092086792e-01 4.1288581355302867e-01
        8.8311690092086792e-01 8.8311690092086792e-01
        8.8311690092086792e-01 8.8311690092086792e-01
        8.8311690092086792e-01 8.8311690092086792e-01
        9.1752405205028698e-02 8.7164784615790580e-01
        8.8311690092086792e-01 8.8311690092086792e-01
        8.8311690092086792e-01 8.8311690092086792e-01
        7.7989546069207805e-01 0. 7.7922075986862183e-01
        1.8181818723678589e+00 1.3246753215789795e+00
        9.6103894710540771e-01 3.3766233921051025e-01 0.
        3.8961037993431091e-01 1.8961038589477539e+00 2. 2. 2.
        1.9740259647369385e+00 7.2727274894714355e-01
        1.3246753215789795e+00 2. 2. 2. 2. 2. 1.9220778942108154e+00
        8.8311690092086792e-01 2. 2. 2. 2. 2. 2. 1.2987012863159180e+00
        2. 2. 2. 2. 2. 2. 9.3506491184234619e-01 2. 2. 2. 2. 2. 2.
        2.0779220759868622e-01 1.9740259647369385e+00 2. 2. 2. 2.
        1.7662338018417358e+00 0. 7.7922075986862183e-01
        1.8181818723678589e+00 1.3246753215789795e+00
        9.6103894710540771e-01 3.3766233921051025e-01 0.
        3.8961037993431091e-01 1.8961038589477539e+00 2. 2. 2.
        1.9740259647369385e+00 7.2727274894714355e-01
        1.3246753215789795e+00 2. 2. 2. 2. 2. 1.9220778942108154e+00
        8.8311690092086792e-01 2. 2. 2. 2. 2. 2. 1.2987012863159180e+00
        2. 2. 2. 2. 2. 2. 9.3506491184234619e-01 2. 2. 2. 2. 2. 2.
        2.0779220759868622e-01 1.9740259647369385e+00 2. 2. 2. 2.
        1.7662338018417358e+00 0. 7.7922075986862183e-01
        1.8181818723678589e+00 1.3246753215789795e+00
        9.6103894710540771e-01 3.3766233921051025e-01 0.
        3.8961037993431091e-01 1.8961038589477539e+00 2. 2. 2.
        1.9740259647369385e+00 7.2727274894714355e-01
        1.3246753215789795e+00 2. 2. 2. 2. 2. 1.9220778942108154e+00
        8.8311690092086792e-01 2. 2. 2. 2. 2. 2. 1.2987012863159180e+00
        2. 2. 2. 2. 2. 2. 9.3506491184234619e-01 2. 2. 2. 2. 2. 2.
        2.0779220759868622e-01 1.9740259647369385e+00 2. 2. 2. 2.
        1.7662338018417358e+00 0. 7.7922075986862183e-01
        1.8181818723678589e+00 1.3246753215789795e+00
        9.6103894710540771e-01 3.3766233921051025e-01 0.
        3.8961037993431091e-01 1.8961038589477539e+00 2. 2. 2.
        1.9740259647369385e+00 7.2727274894714355e-01
        1.3246753215789795e+00 2. 2. 2. 2. 2. 1.9220778942108154e+00
        8.8311690092086792e-01 2. 2. 2. 2. 2. 2. 1.2987012863159180e+00
        2. 2. 2. 2. 2. 2. 9.3506491184234619e-01 2. 2. 2. 2. 2. 2.
        2.0779220759868622e-01 1.9740259647369385e+00 2. 2. 2. 2.
        1.7662338018417358e+00 0. 7.7922075986862183e-01
        1.8181818723678589e+00 1.3246753215789795e+00
        9.6103894710540771e-01 3.3766233921051025e-01 0.
        3.8961037993431091e-01 1.8961038589477539e+00 2. 2. 2.
        1.9740259647369385e+00 7.2727274894714355e-01
        1.3246753215789795e+00 2. 2. 2. 2. 2. 1.9220778942108154e+00
        8.8311690092086792e-01 2. 2. 2. 2. 2. 2. 1.2987012863159180e+00
        2. 2. 2. 2. 2. 2. 9.3506491184234619e-01 2. 2. 2. 2. 2. 2.
        2.0779220759868622e-01 1.9740259647369385e+00 2. 2. 2. 2.
        1.7662338018417358e+00 0. 7.7922075986862183e-01
        1.8181818723678589e+00 1.3246753215789795e+00
        9.6103894710540771e-01 3.3766233921051025e-01 0.
        3.8961037993431091e-01 1.8961038589477539e+00 2. 2. 2.
        1.9740259647369385e+00 7.2727274894714355e-01
        1.3246753215789795e+00 2. 2. 2. 2. 2. 1.9220778942108154e+00
        8.8311690092086792e-01 2. 2. 2. 2. 2. 2. 1.2987012863159180e+00
        2. 2. 2. 2. 2. 2. 9.3506491184234619e-01 2. 2. 2. 2. 2. 2.
        2.0779220759868622e-01 1.9740259647369385e+00 2. 2. 2. 2.
        1.7662338018417358e+00 0. 5.0598750158272310e-01
        1.1806375682002113e+00 8.6017877204278648e-01
        6.2405125840274422e-01 2.1926125713656575e-01 0.
        2.5299375079136155e-01 1.2312362603020119e+00
        1.2987012863159180e+00 1.2987012863159180e+00
        1.2987012863159180e+00 1.2818350298124415e+00
        4.7225502728008451e-01 8.6017877204278648e-01
        1.2987012863159180e+00 1.2987012863159180e+00
        1.2987012863159180e+00 1.2987012863159180e+00
        1.2987012863159180e+00 1.2481025168054884e+00
        5.7345252759662912e-01 1.2987012863159180e+00
        1.2987012863159180e+00 1.2987012863159180e+00
        1.2987012863159180e+00 1.2987012863159180e+00
        1.2987012863159180e+00 8.4331251553930997e-01
        1.2987012863159180e+00 1.2987012863159180e+00
        1.2987012863159180e+00 1.2987012863159180e+00
        1.2987012863159180e+00 1.2987012863159180e+00
        6.0718500189926772e-01 1.2987012863159180e+00
        1.2987012863159180e+00 1.2987012863159180e+00
        1.2987012863159180e+00 1.2987012863159180e+00
        1.2987012863159180e+00 1.3493000364741903e-01
        1.2818350298124415e+00 1.2987012863159180e+00
        1.2987012863159180e+00 1.2987012863159180e+00
        1.2987012863159180e+00 1.1469050551932582e+00 0.
        7.7922075986862183e-01 1.8181818723678589e+00
        1.3246753215789795e+00 9.6103894710540771e-01
        3.3766233921051025e-01 0. 3.8961037993431091e-01
        1.8961038589477539e+00 2. 2. 2. 1.9740259647369385e+00
        7.2727274894714355e-01 1.3246753215789795e+00 2. 2. 2. 2. 2.
        1.9220778942108154e+00 8.8311690092086792e-01 2. 2. 2. 2. 2. 2.
        1.2987012863159180e+00 2. 2. 2. 2. 2. 2. 9.3506491184234619e-01
        2. 2. 2. 2. 2. 2. 2.0779220759868622e-01 1.9740259647369385e+00
        2. 2. 2. 2. 1.7662338018417358e+00 0. 7.7922075986862183e-01
        1.8181818723678589e+00 1.3246753215789795e+00
        9.6103894710540771e-01 3.3766233921051025e-01 0.
        3.8961037993431091e-01 1.8961038589477539e+00 2. 2. 2.
        1.9740259647369385e+00 7.2727274894714355e-01
        1.3246753215789795e+00 2. 2. 2. 2. 2. 1.9220778942108154e+00
        8.8311690092086792e-01 2. 2. 2. 2. 2. 2. 1.2987012863159180e+00
        2. 2. 2. 2. 2. 2. 9.3506491184234619e-01 2. 2. 2. 2. 2. 2.
        2.0779220759868622e-01 1.9740259647369385e+00 2. 2. 2. 2.
        1.7662338018417358e+00 0. 7.7922075986862183e-01
        1.8181818723678589e+00 1.3246753215789795e+00
        9.6103894710540771e-01 3.3766233921051025e-01 0.
        3.8961037993431091e-01 1.8961038589477539e+00 2. 2. 2.
        1.9740259647369385e+00 7.2727274894714355e-01
        1.3246753215789795e+00 2. 2. 2. 2. 2. 1.9220778942108154e+00
        8.8311690092086792e-01 2. 2. 2. 2. 2. 2. 1.2987012863159180e+00
        2. 2. 2. 2. 2. 2. 9.3506491184234619e-01 2. 2. 2. 2. 2. 2.
        2.0779220759868622e-01 1.9740259647369385e+00 2. 2. 2. 2.
        1.7662338018417358e+00 0. 7.7922075986862183e-01
        1.8181818723678589e+00 1.3246753215789795e+00
        9.6103894710540771e-01 3.3766233921051025e-01 0.
        3.8961037993431091e-01 1.8961038589477539e+00 2. 2. 2.
        1.9740259647369385e+00 7.2727274894714355e-01
        1.3246753215789795e+00 2. 2. 2. 2. 2. 1.9220778942108154e+00
        8.8311690092086792e-01 2. 2. 2. 2. 2. 2. 1.2987012863159180e+00
        2. 2. 2. 2. 2. 2. 9.3506491184234619e-01 2. 2. 2. 2. 2. 2.
        2.0779220759868622e-01 1.9740259647369385e+00 2. 2. 2. 2.
        1.7662338018417358e+00 0. 7.7922075986862183e-01
        1.8181818723678589e+00 1.3246753215789795e+00
        9.6103894710540771e-01 3.3766233921051025e-01 0.
        3.8961037993431091e-01 1.8961038589477539e+00 2. 2. 2.
        1.9740259647369385e+00 7.2727274894714355e-01
        1.3246753215789795e+00 2. 2. 2. 2. 2. 1.9220778942108154e+00
        8.8311690092086792e-01 2. 2. 2. 2. 2. 2. 1.2987012863159180e+00
        2. 2. 2. 2. 2. 2. 9.3506491184234619e-01 2. 2. 2. 2. 2. 2.
        2.0779220759868622e-01 1.9740259647369385e+00 2. 2. 2. 2.
        1.7662338018417358e+00 0. 7.7922075986862183e-01
        1.8181818723678589e+00 1.3246753215789795e+00
        9.6103894710540771e-01 3.3766233921051025e-01 0.
        3.8961037993431091e-01 1.8961038589477539e+00 2. 2. 2.
        1.9740259647369385e+00 7.2727274894714355e-01
        1.3246753215789795e+00 2. 2. 2. 2. 2. 1.9220778942108154e+00
        8.8311690092086792e-01 2. 2. 2. 2. 2. 2. 1.2987012863159180e+00
        2. 2. 2. 2. 2. 2. 9.3506491184234619e-01 2. 2. 2. 2. 2. 2.
        2.0779220759868622e-01 1.9740259647369385e+00 2. 2. 2. 2.
        1.7662338018417358e+00 0. 3.6431099556613944e-01
        8.5005903609950195e-01 6.1932870639599003e-01
        4.4931689917608963e-01 1.5786810272317808e-01 0.
        1.8215549778306972e-01 8.8649009385545696e-01
        9.3506491184234619e-01 9.3506491184234619e-01
        9.3506491184234619e-01 9.2292120734562388e-01
        3.4002361443980078e-01 6.1932870639599003e-01
        9.3506491184234619e-01 9.3506491184234619e-01
        9.3506491184234619e-01 9.3506491184234619e-01
        9.3506491184234619e-01 8.9863379835217927e-01
        4.1288581355302867e-01 9.3506491184234619e-01
        9.3506491184234619e-01 9.3506491184234619e-01
        9.3506491184234619e-01 9.3506491184234619e-01
        9.3506491184234619e-01 6.0718500189926772e-01
        9.3506491184234619e-01 9.3506491184234619e-01
        9.3506491184234619e-01 9.3506491184234619e-01
        9.3506491184234619e-01 9.3506491184234619e-01
        4.3717319467936733e-01 9.3506491184234619e-01
        9.3506491184234619e-01 9.3506491184234619e-01
        9.3506491184234619e-01 9.3506491184234619e-01
        9.3506491184234619e-01 9.7149601139896014e-02
        9.2292120734562388e-01 9.3506491184234619e-01
        9.3506491184234619e-01 9.3506491184234619e-01
        9.3506491184234619e-01 8.2577162710605734e-01 0.
        7.7922075986862183e-01 1.8181818723678589e+00
        1.3246753215789795e+00 9.6103894710540771e-01
        3.3766233921051025e-01 0. 3.8961037993431091e-01
        1.8961038589477539e+00 2. 2. 2. 1.9740259647369385e+00
        7.2727274894714355e-01 1.3246753215789795e+00 2. 2. 2. 2. 2.
        1.9220778942108154e+00 8.8311690092086792e-01 2. 2. 2. 2. 2. 2.
        1.2987012863159180e+00 2. 2. 2. 2. 2. 2. 9.3506491184234619e-01
        2. 2. 2. 2. 2. 2. 2.0779220759868622e-01 1.9740259647369385e+00
        2. 2. 2. 2. 1.7662338018417358e+00 0. 7.7922075986862183e-01
        1.8181818723678589e+00 1.3246753215789795e+00
        9.6103894710540771e-01 3.3766233921051025e-01 0.
        3.8961037993431091e-01 1.8961038589477539e+00 2. 2. 2.
        1.9740259647369385e+00 7.2727274894714355e-01
        1.3246753215789795e+00 2. 2. 2. 2. 2. 1.9220778942108154e+00
        8.8311690092086792e-01 2. 2. 2. 2. 2. 2. 1.2987012863159180e+00
        2. 2. 2. 2. 2. 2. 9.3506491184234619e-01 2. 2. 2. 2. 2. 2.
        2.0779220759868622e-01 1.9740259647369385e+00 2. 2. 2. 2.
        1.7662338018417358e+00 0. 7.7922075986862183e-01
        1.8181818723678589e+00 1.3246753215789795e+00
        9.6103894710540771e-01 3.3766233921051025e-01 0.
        3.8961037993431091e-01 1.8961038589477539e+00 2. 2. 2.
        1.9740259647369385e+00 7.2727274894714355e-01
        1.3246753215789795e+00 2. 2. 2. 2. 2. 1.9220778942108154e+00
        8.8311690092086792e-01 2. 2. 2. 2. 2. 2. 1.2987012863159180e+00
        2. 2. 2. 2. 2. 2. 9.3506491184234619e-01 2. 2. 2. 2. 2. 2.
        2.0779220759868622e-01 1.9740259647369385e+00 2. 2. 2. 2.
        1.7662338018417358e+00 0. 7.7922075986862183e-01
        1.8181818723678589e+00 1.3246753215789795e+00
        9.6103894710540771e-01 3.3766233921051025e-01 0.
        3.8961037993431091e-01 1.8961038589477539e+00 2. 2. 2.
        1.9740259647369385e+00 7.2727274894714355e-01
        1.3246753215789795e+00 2. 2. 2. 2. 2. 1.9220778942108154e+00
        8.8311690092086792e-01 2. 2. 2. 2. 2. 2. 1.2987012863159180e+00
        2. 2. 2. 2. 2. 2. 9.3506491184234619e-01 2. 2. 2. 2. 2. 2.
        2.0779220759868622e-01 1.9740259647369385e+00 2. 2. 2. 2.
        1.7662338018417358e+00 0. 7.7922075986862183e-01
        1.8181818723678589e+00 1.3246753215789795e+00
        9.6103894710540771e-01 3.3766233921051025e-01 0.
        3.8961037993431091e-01 1.8961038589477539e+00 2. 2. 2.
        1.9740259647369385e+00 7.2727274894714355e-01
        1.3246753215789795e+00 2. 2. 2. 2. 2. 1.9220778942108154e+00
        8.8311690092086792e-01 2. 2. 2. 2. 2. 2. 1.2987012863159180e+00
        2. 2. 2. 2. 2. 2. 9.3506491184234619e-01 2. 2. 2. 2. 2. 2.
        2.0779220759868622e-01 1.9740259647369385e+00 2. 2. 2. 2.
        1.7662338018417358e+00 0. 7.7922075986862183e-01
        1.8181818723678589e+00 1.3246753215789795e+00
        9.6103894710540771e-01 3.3766233921051025e-01 0.
        3.8961037993431091e-01 1.8961038589477539e+00 2. 2. 2.
        1.9740259647369385e+00 7.2727274894714355e-01
        1.3246753215789795e+00 2. 2. 2. 2. 2. 1.9220778942108154e+00
        8.8311690092086792e-01 2. 2. 2. 2. 2. 2. 1.2987012863159180e+00
        2. 2. 2. 2. 2. 2. 9.3506491184234619e-01 2. 2. 2. 2. 2. 2.
        2.0779220759868622e-01 1.9740259647369385e+00 2. 2. 2. 2.
        1.7662338018417358e+00 0. 8.0958000949913345e-02
        1.8890201253761507e-01 1.3762860471119787e-01
        9.9848202203674852e-02 3.5081801443744176e-02 0.
        4.0479000474956672e-02 1.9699780334357087e-01
        2.0779220759868622e-01 2.0779220759868622e-01
        2.0779220759868622e-01 2.0509360653490738e-01
        7.5560805015046029e-02 1.3762860471119787e-01
        2.0779220759868622e-01 2.0779220759868622e-01
        2.0779220759868622e-01 2.0779220759868622e-01
        2.0779220759868622e-01 1.9969640440734970e-01
        9.1752405205028698e-02 2.0779220759868622e-01
        2.0779220759868622e-01 2.0779220759868622e-01
        2.0779220759868622e-01 2.0779220759868622e-01
        2.0779220759868622e-01 1.3493000364741903e-01
        2.0779220759868622e-01 2.0779220759868622e-01
        2.0779220759868622e-01 2.0779220759868622e-01
        2.0779220759868622e-01 2.0779220759868622e-01
        9.7149601139896014e-02 2.0779220759868622e-01
        2.0779220759868622e-01 2.0779220759868622e-01
        2.0779220759868622e-01 2.0779220759868622e-01
        2.0779220759868622e-01 2.1588800769367755e-02
        2.0509360653490738e-01 2.0779220759868622e-01
        2.0779220759868622e-01 2.0779220759868622e-01
        2.0779220759868622e-01 1.8350481041005740e-01 0.
        7.6910100612135324e-01 1.7945691123340879e+00
        1.3074717398215796e+00 9.4855791735476203e-01
        3.3327711245767944e-01 0. 3.8455050306067662e-01
        1.8714791247003859e+00 1.9740259647369385e+00
        1.9740259647369385e+00 1.9740259647369385e+00
        1.9483892547278003e+00 7.1782764493363516e-01
        1.3074717398215796e+00 1.9740259647369385e+00
        1.9740259647369385e+00 1.9740259647369385e+00
        1.9740259647369385e+00 1.9740259647369385e+00
        1.8971158347095241e+00 8.7164784615790580e-01
        1.9740259647369385e+00 1.9740259647369385e+00
        1.9740259647369385e+00 1.9740259647369385e+00
        1.9740259647369385e+00 1.9740259647369385e+00
        1.2818350298124415e+00 1.9740259647369385e+00
        1.9740259647369385e+00 1.9740259647369385e+00
        1.9740259647369385e+00 1.9740259647369385e+00
        1.9740259647369385e+00 9.2292120734562388e-01
        1.9740259647369385e+00 1.9740259647369385e+00
        1.9740259647369385e+00 1.9740259647369385e+00
        1.9740259647369385e+00 1.9740259647369385e+00
        2.0509360653490738e-01 1.9483892547278003e+00
        1.9740259647369385e+00 1.9740259647369385e+00
        1.9740259647369385e+00 1.9740259647369385e+00
        1.7432956923158116e+00 0. 7.7922075986862183e-01
        1.8181818723678589e+00 1.3246753215789795e+00
        9.6103894710540771e-01 3.3766233921051025e-01 0.
        3.8961037993431091e-01 1.8961038589477539e+00 2. 2. 2.
        1.9740259647369385e+00 7.2727274894714355e-01
        1.3246753215789795e+00 2. 2. 2. 2. 2. 1.9220778942108154e+00
        8.8311690092086792e-01 2. 2. 2. 2. 2. 2. 1.2987012863159180e+00
        2. 2. 2. 2. 2. 2. 9.3506491184234619e-01 2. 2. 2. 2. 2. 2.
        2.0779220759868622e-01 1.9740259647369385e+00 2. 2. 2. 2.
        1.7662338018417358e+00 0. 7.7922075986862183e-01
        1.8181818723678589e+00 1.3246753215789795e+00
        9.6103894710540771e-01 3.3766233921051025e-01 0.
        3.8961037993431091e-01 1.8961038589477539e+00 2. 2. 2.
        1.9740259647369385e+00 7.2727274894714355e-01
        1.3246753215789795e+00 2. 2. 2. 2. 2. 1.9220778942108154e+00
        8.8311690092086792e-01 2. 2. 2. 2. 2. 2. 1.2987012863159180e+00
        2. 2. 2. 2. 2. 2. 9.3506491184234619e-01 2. 2. 2. 2. 2. 2.
        2.0779220759868622e-01 1.9740259647369385e+00 2. 2. 2. 2.
        1.7662338018417358e+00 0. 7.7922075986862183e-01
        1.8181818723678589e+00 1.3246753215789795e+00
        9.6103894710540771e-01 3.3766233921051025e-01 0.
        3.8961037993431091e-01 1.8961038589477539e+00 2. 2. 2.
        1.9740259647369385e+00 7.2727274894714355e-01
        1.3246753215789795e+00 2. 2. 2. 2. 2. 1.9220778942108154e+00
        8.8311690092086792e-01 2. 2. 2. 2. 2. 2. 1.2987012863159180e+00
        2. 2. 2. 2. 2. 2. 9.3506491184234619e-01 2. 2. 2. 2. 2. 2.
        2.0779220759868622e-01 1.9740259647369385e+00 2. 2. 2. 2.
        1.7662338018417358e+00 0. 7.7922075986862183e-01
        1.8181818723678589e+00 1.3246753215789795e+00
        9.6103894710540771e-01 3.3766233921051025e-01 0.
        3.8961037993431091e-01 1.8961038589477539e+00 2. 2. 2.
        1.9740259647369385e+00 7.2727274894714355e-01
        1.3246753215789795e+00 2. 2. 2. 2. 2. 1.9220778942108154e+00
        8.8311690092086792e-01 2. 2. 2. 2. 2. 2. 1.2987012863159180e+00
        2. 2. 2. 2. 2. 2. 9.3506491184234619e-01 2. 2. 2. 2. 2. 2.
        2.0779220759868622e-01 1.9740259647369385e+00 2. 2. 2. 2.
        1.7662338018417358e+00 0. 6.8814302258838111e-01
        1.6056671404360046e+00 1.1698431647191825e+00
        8.4870973663198157e-01 2.9819531856127668e-01 0.
        3.4407151129419056e-01 1.6744813637380389e+00
        1.7662338018417358e+00 1.7662338018417358e+00
        1.7662338018417358e+00 1.7432956923158116e+00
        6.4226685617440182e-01 1.1698431647191825e+00
        1.7662338018417358e+00 1.7662338018417358e+00
        1.7662338018417358e+00 1.7662338018417358e+00
        1.7662338018417358e+00 1.6974194732639631e+00
        7.7989546069207805e-01 1.7662338018417358e+00
        1.7662338018417358e+00 1.7662338018417358e+00
        1.7662338018417358e+00 1.7662338018417358e+00
        1.7662338018417358e+00 1.1469050551932582e+00
        1.7662338018417358e+00 1.7662338018417358e+00
        1.7662338018417358e+00 1.7662338018417358e+00
        1.7662338018417358e+00 1.7662338018417358e+00
        8.2577162710605734e-01 1.7662338018417358e+00
        1.7662338018417358e+00 1.7662338018417358e+00
        1.7662338018417358e+00 1.7662338018417358e+00
        1.7662338018417358e+00 1.8350481041005740e-01
        1.7432956923158116e+00 1.7662338018417358e+00
        1.7662338018417358e+00 1.7662338018417358e+00
        1.7662338018417358e+00 1.5597909213841561e+00</data></_>
    <_ type_id="opencv-matrix">
      <rows>49</rows>
      <cols>49</cols>
      <dt>d</dt>
      <data>
        3.2951563251693590e+00 6.6559230313999871e+00
        5.1984519520144898e+00 4.3661590462717523e+00
        2.9281124885780003e+00 1.6805555762516127e+00
        1.7256944659683440e+00 4.8702734752723247e+00
        7.7759784512052690e+00 7.7324642239940031e+00
        5.6572132827278363e+00 5.4216805311903746e+00
        3.4613062695035328e+00 1.6240355157764792e+00
        5.3187699339517245e+00 7.9335412291327003e+00
        8.1008951310068369e+00 7.1391384902571957e+00
        6.4668590150943821e+00 5.0599077804262684e+00
        2.4081609416034437e+00 6.6648886241596106e+00
        7.1543528652163566e+00 8.0789043792281987e+00
        7.4108555214995455e+00 6.5028339209780093e+00
        6.1271381246297025e+00 3.9133854656560514e+00
        5.3065904931392609e+00 7.1964177675181897e+00
        7.9225459004303929e+00 7.8663989200587636e+00
        6.5689276698976755e+00 6.4598340276901762e+00
        5.5688226921902864e+00 2.3957488343895670e+00
        5.7035535212784403e+00 7.2716285851485853e+00
        7.7647014065857718e+00 7.0038414360840768e+00
        6.4828339188918473e+00 6.1339366802232744e+00
        4.9007718207527184e-01 2.0644088401742700e+00
        3.8067839699508976e+00 6.2135020069209608e+00
        6.9441888780781671e+00 6.7455476950695861e+00
        6.3947255700986823e+00 6.6559230313999871e+00
        3.9566754503171211e+01 4.6435609507981802e+01
        2.6837184043819207e+01 9.8313012881982935e+00
        4.7395154772037333e+00 3.7729166572292652e+00
        2.7452724923284357e+01 6.2809568836335743e+01
        6.1977119999621230e+01 5.6116568946927515e+01
        4.1076809894252165e+01 1.4514095225398282e+01
        7.3083216958143487e+00 4.5169321515013422e+01
        6.4444192647933960e+01 6.4349331565101949e+01
        6.1987268582492938e+01 5.9234216391527994e+01
        3.8051117204121923e+01 1.4284332731497738e+01
        5.5619632914498432e+01 6.3440720448477400e+01
        6.4553220435976982e+01 6.2830777305903311e+01
        6.0325118091106418e+01 5.4528579515286310e+01
        2.7372309345371811e+01 4.5228711379707434e+01
        6.3207592876419724e+01 6.4355303809046745e+01
        6.4080789466442440e+01 6.0631524324417114e+01
        5.9511352887660941e+01 4.7988684426471174e+01
        2.4775900999462831e+01 5.6532358627729906e+01
        6.1832688220728066e+01 6.3208592537394750e+01
        6.1657096072689342e+01 5.9954817134528248e+01
        5.6532835785305018e+01 6.9612753275012231e+00
        2.9242664022911740e+01 4.2905798991367348e+01
        5.2308217830639492e+01 5.6244851744541151e+01
        6.0323190418332558e+01 5.8936696788130398e+01
        5.1984519520144898e+00 4.6435609507981802e+01
        8.2565386772544713e+01 5.1406397096345998e+01
        1.5996872359549446e+01 5.9461960404859786e+00
        4.1944444358555808e+00 3.3642894896176301e+01
        9.5623372036192421e+01 9.6208415614321481e+01
        9.5879156793846263e+01 7.0061420352804618e+01
        2.1710774575300917e+01 9.9737583381886559e+00
        6.3152197031129127e+01 1.0024206899492829e+02
        9.9088619930744173e+01 9.9235487985244802e+01
        9.6915730415369524e+01 6.1197759758743480e+01
        1.9972011361175852e+01 8.5454919134012243e+01
        9.9617647707462311e+01 1.0049021713435650e+02
        1.0051369109478753e+02 9.9994260490304896e+01
        8.8909047577231433e+01 4.0271473273596683e+01
        7.5632100607970614e+01 9.9475424439109887e+01
        1.0033917550742626e+02 1.0075889943322258e+02
        1.0028422579169273e+02 9.7521363144783777e+01
        7.8553356689529963e+01 4.3753096008231033e+01
        9.2205943024354042e+01 9.7816613669038205e+01
        9.9290086977942963e+01 9.9819543460512307e+01
        9.9037026670884202e+01 9.1973706572509968e+01
        1.0940870820551233e+01 4.7958317884947490e+01
        7.1300137334665862e+01 8.3931243262058729e+01
        8.9581545270378712e+01 9.8070634559534426e+01
        9.6304795715871151e+01 4.3661590462717523e+00
        2.6837184043819207e+01 5.1406397096345998e+01
        4.0853282468987231e+01 1.7322199485015958e+01
        7.1477087880994503e+00 4.2975501483938672e+00
        1.8753672861144949e+01 5.7552727390302948e+01
        5.8005232394665114e+01 5.9480354587724108e+01
        5.0469604136883468e+01 2.2438255133423549e+01
        1.2210677549528636e+01 3.7036909021937703e+01
        6.2487508599680879e+01 6.0873642866346572e+01
        6.0576466977088543e+01 6.0231271566298688e+01
        4.3982305832283089e+01 1.9113306144342992e+01
        5.3718683351196994e+01 6.2116559527814388e+01
        6.2862045638263226e+01 6.3073156736791134e+01
        6.3001872023749684e+01 5.8491141474703092e+01
        3.1966226375147713e+01 4.9333668482735106e+01
        6.2227864643765216e+01 6.2742254011332989e+01
        6.3317948423326015e+01 6.3317948423326015e+01
        6.2217069824270368e+01 5.3814324747964939e+01
        2.8100841026712487e+01 5.7899399142606057e+01
        6.1415309345238747e+01 6.2293040244464649e+01
        6.2948228488071621e+01 6.2950911369114010e+01
        5.9871705132717040e+01 6.0274350297486246e+00
        2.9578936093714013e+01 4.5647539271283890e+01
        5.3981237694524879e+01 5.7720607998448315e+01
        6.2019091922424579e+01 6.1988805650136385e+01
        2.9281124885780003e+00 9.8313012881982935e+00
        1.5996872359549446e+01 1.7322199485015958e+01
        1.2892900622108943e+01 7.8888097035440765e+00
        4.7374613935668251e+00 5.6633523431404029e+00
        1.9553900338132003e+01 2.0043958062759515e+01
        1.9646211147296398e+01 2.1032755130717796e+01
        1.6952352094827130e+01 1.1960567146389431e+01
        1.2153360739019824e+01 2.2307931822138251e+01
        2.1515177222357856e+01 2.1014297604008952e+01
        2.0538911781303675e+01 2.0173476697811115e+01
        1.5260123853894999e+01 1.7750013890622022e+01
        2.1430038322798080e+01 2.2519968867301941e+01
        2.2456079974770546e+01 2.2388371661305428e+01
        2.2149253470113543e+01 1.9146046565987582e+01
        1.6195655354676902e+01 2.1633062909481257e+01
        2.2337677240371704e+01 2.2638371661305428e+01
        2.2638371661305428e+01 2.2497137101631104e+01
        2.1990949847592844e+01 9.0533495817033582e+00
        1.9725544495031833e+01 2.1588060308702779e+01
        2.2083806119404244e+01 2.2524290508704382e+01
        2.2627507464407401e+01 2.2218607863774821e+01
        1.8897830272377036e+00 1.0222050503743560e+01
        1.6397280288178575e+01 2.0029501887972742e+01
        2.1948738641206553e+01 2.2452083044044478e+01
        2.2546025973102193e+01 1.6805555762516127e+00
        4.7395154772037333e+00 5.9461960404859786e+00
        7.1477087880994503e+00 7.8888097035440765e+00
        7.9894702280088179e+00 4.9680747811877994e+00
        2.1911564576935842e+00 8.8561752589415725e+00
        9.6663516395851801e+00 8.8233732071785660e+00
        1.0021289913581661e+01 1.1229281286737624e+01
        1.0273952317742488e+01 5.4376068241901114e+00
        1.1215348543599248e+01 1.0871598556844724e+01
        1.0241968942668151e+01 9.2049318570643663e+00
        9.7666602547016037e+00 1.0791842666904953e+01
        6.9122490705461814e+00 1.0156320803902215e+01
        1.1399376334622502e+01 1.1316042997977799e+01
        1.1260487454012036e+01 1.1081475128017274e+01
        1.1329931916669011e+01 6.4535700135127536e+00
        1.0298681910046273e+01 1.1201459707692266e+01
        1.1427154125645757e+01 1.1427154125645757e+01
        1.1427154125645757e+01 1.1427154125645757e+01
        3.9747831534198648e+00 9.5373972358389025e+00
        1.0825591625645757e+01 1.1270904125645757e+01
        1.1395904125645757e+01 1.1427154125645757e+01
        1.1427154125645757e+01 7.3331757781751317e-01
        5.9775141740869850e+00 9.0044111073431043e+00
        1.0496598555602962e+01 1.1317779140546918e+01
        1.1427154125645757e+01 1.1427154125645757e+01
        1.7256944659683440e+00 3.7729166572292652e+00
        4.1944444358555808e+00 4.2975501483938672e+00
        4.7374613935668251e+00 4.9680747811877994e+00
        4.3013001197898468e+00 1.8470833403968976e+00
        5.6255285460704263e+00 6.0463580090653757e+00
        5.8130863676946847e+00 6.5600308418089961e+00
        6.8895061418046186e+00 6.3269097158271403e+00
        3.0527661498332472e+00 6.7409721687436104e+00
        6.9527777507901192e+00 6.8046296103684991e+00
        6.5083333030343056e+00 6.5577160198195479e+00
        6.3277777507901192e+00 3.7158796372568164e+00
        5.7027777574128571e+00 6.9249999597668648e+00
        6.9527777507901192e+00 6.9527777507901192e+00
        6.8540123238423725e+00 6.8555555418133736e+00
        3.9079012533389950e+00 5.8659722068243560e+00
        6.7270833328366280e+00 6.9527777507901192e+00
        6.9527777507901192e+00 6.9527777507901192e+00
        6.9527777507901192e+00 2.3198109639279636e+00
        5.3172916470861260e+00 6.2027777507901192e+00
        6.6402777507901192e+00 6.8902777507901192e+00
        6.9527777507901192e+00 6.9527777507901192e+00
        4.6126544549141402e-01 3.0195486059350274e+00
        5.0557985913898378e+00 6.3642360782250762e+00
        6.8833333077943983e+00 6.9527777507901192e+00
        6.9527777507901192e+00 4.8702734752723247e+00
        2.7452724923284357e+01 3.3642894896176301e+01
        1.8753672861144949e+01 5.6633523431404029e+00
        2.1911564576935842e+00 1.8470833403968976e+00
        2.3067950971067987e+01 4.6769243304638223e+01
        4.5967425495436203e+01 4.1071747889969899e+01
        2.9068930524438670e+01 9.3567095305608046e+00
        4.3603615644716411e+00 3.5184824526113459e+01
        4.8840351564280780e+01 4.8442176915705204e+01
        4.6246421284873051e+01 4.2855629757424559e+01
        2.6101911912937460e+01 8.9961376127014887e+00
        4.1639531380841788e+01 4.8368744219986745e+01
        4.8718488624986307e+01 4.7197351853241031e+01
        4.4712602401632402e+01 3.8347792584347246e+01
        1.7757457769853673e+01 3.4649388169442325e+01
        4.8041344997265810e+01 4.8634757446654049e+01
        4.8428518519661964e+01 4.5137585058808327e+01
        4.2665034709872010e+01 3.3252967397504385e+01
        1.9209519375310215e+01 4.3423303951754846e+01
        4.7102200314052823e+01 4.7966579528702454e+01
        4.6437860552478099e+01 4.3721921447728889e+01
        3.9491848728828579e+01 5.6131542461209829e+00
        2.3181365209469217e+01 3.3448513557666288e+01
        4.0254399079113455e+01 4.2879951562391923e+01
        4.4802039733113347e+01 4.1624855421059870e+01
        7.7759784512052690e+00 6.2809568836335743e+01
        9.5623372036192421e+01 5.7552727390302948e+01
        1.9553900338132003e+01 8.8561752589415725e+00
        5.6255285460704263e+00 4.6769243304638223e+01
        1.2684981018089748e+02 1.2532217832579971e+02
        1.1785868669510864e+02 8.6859328885766615e+01
        3.0315236524511999e+01 1.6493566600575161e+01
        8.5691487843160843e+01 1.3323678085614961e+02
        1.3225229014042350e+02 1.2977991179729929e+02
        1.2367497328605057e+02 7.9293340339881553e+01
        2.8755201575917887e+01 1.1119739668949552e+02
        1.3220090125583940e+02 1.3308006791025400e+02
        1.3152281573932265e+02 1.2865802456148796e+02
        1.1355651341252181e+02 5.5619178439084649e+01
        9.7544787731745259e+01 1.3181315474167863e+02
        1.3288215128332376e+02 1.3286505880677873e+02
        1.2925759053975344e+02 1.2466853024762354e+02
        1.0066509903340346e+02 5.7501575507109528e+01
        1.2245535530458284e+02 1.3025389251896473e+02
        1.3196026499020473e+02 1.3026137841492891e+02
        1.2702902183321154e+02 1.1712525652484025e+02
        1.6912162904797825e+01 6.7604292497271842e+01
        9.7272824485546039e+01 1.1336991381367574e+02
        1.1999080996085908e+02 1.2738052474190360e+02
        1.2261264322903237e+02 7.7324642239940031e+00
        6.1977119999621230e+01 9.6208415614321481e+01
        5.8005232394665114e+01 2.0043958062759515e+01
        9.6663516395851801e+00 6.0463580090653757e+00
        4.5967425495436203e+01 1.2532217832579971e+02
        1.2786585631010712e+02 1.1910431075276352e+02
        8.8245258510602099e+01 3.2405661734171943e+01
        1.8814393671295708e+01 8.4963062605611839e+01
        1.3378543095952935e+02 1.3322501429915428e+02
        1.3074110299826339e+02 1.2394028188592858e+02
        8.0732327100781760e+01 3.1541301204197936e+01
        1.1085482507613180e+02 1.3278195875883102e+02
        1.3388890317082405e+02 1.3217751940572225e+02
        1.2934444451332092e+02 1.1449106774596520e+02
        5.7997596837137309e+01 9.6594899163491760e+01
        1.3230145111313863e+02 1.3369098654389381e+02
        1.3344528417036662e+02 1.2988519972562790e+02
        1.2523297489517265e+02 1.0173029462412552e+02
        5.6035868407579841e+01 1.2245828922693175e+02
        1.3076718890135226e+02 1.3253911275689376e+02
        1.3073078447580338e+02 1.2766927087306976e+02
        1.1742365370690823e+02 1.6276533583981205e+01
        6.6089032485451952e+01 9.6851745491170831e+01
        1.1364617810225383e+02 1.2030093128330725e+02
        1.2779200803548625e+02 1.2301707048921122e+02
        5.6572132827278363e+00 5.6116568946927515e+01
        9.5879156793846263e+01 5.9480354587724108e+01
        1.9646211147296398e+01 8.8233732071785660e+00
        5.8130863676946847e+00 4.1071747889969899e+01
        1.1785868669510864e+02 1.1910431075276352e+02
        1.1919954422193305e+02 8.8448032436408880e+01
        3.2367436302019584e+01 1.9195539370634492e+01
        7.9496079633182944e+01 1.2761108619663449e+02
        1.2622396818116307e+02 1.2710013387257703e+02
        1.2339726305903358e+02 7.9550749039488267e+01
        3.1940710821913349e+01 1.0615184481927986e+02
        1.2752403761570653e+02 1.2848046121001244e+02
        1.2863974523857104e+02 1.2831099833130838e+02
        1.1367901280047288e+02 5.6311746785914437e+01
        9.5612449508422202e+01 1.2735370501070885e+02
        1.2833723208308220e+02 1.2875164888437365e+02
        1.2857758688926697e+02 1.2495616213448284e+02
        1.0091673823417449e+02 5.4980593297330969e+01
        1.1857369204065385e+02 1.2548706503358659e+02
        1.2721090624147234e+02 1.2789973413944244e+02
        1.2703197056204081e+02 1.1744484858641940e+02
        1.4769536875935810e+01 6.2156615747805702e+01
        9.2922182738713730e+01 1.0861651060163456e+02
        1.1548335028525130e+02 1.2572672344917832e+02
        1.2278722241372174e+02 5.4216805311903746e+00
        4.1076809894252165e+01 7.0061420352804618e+01
        5.0469604136883468e+01 2.1032755130717796e+01
        1.0021289913581661e+01 6.5600308418089961e+00
        2.9068930524438670e+01 8.6859328885766615e+01
        8.8245258510602099e+01 8.8448032436408880e+01
        7.8808346989294975e+01 3.7682789411787091e+01
        2.3604046423277918e+01 5.9932538115173593e+01
        9.8446026305997805e+01 9.7146558752954007e+01
        9.7066512461977965e+01 9.7295946483576401e+01
        7.5231873298112333e+01 3.7068166035121244e+01
        8.0326002822107057e+01 9.9354753187894801e+01
        1.0008315593749285e+02 1.0044426704198122e+02
        1.0045900664389134e+02 9.5722054117985181e+01
        5.8471973845877400e+01 7.3709860018985694e+01
        9.9377272670193207e+01 9.9994614310562611e+01
        1.0072030872851610e+02 1.0072030872851610e+02
        1.0019112635091720e+02 8.8889280841128567e+01
        4.1776928366726210e+01 9.2572825236656101e+01
        9.8082944293492631e+01 9.9410850506874539e+01
        1.0017646115165138e+02 1.0063765440616434e+02
        9.7341658539396406e+01 9.8262898057745751e+00
        4.7227854169332744e+01 7.3892269822029249e+01
        8.6787745155953957e+01 9.2022107841072227e+01
        9.8655738782448168e+01 9.9425341879697044e+01
        3.4613062695035328e+00 1.4514095225398282e+01
        2.1710774575300917e+01 2.2438255133423549e+01
        1.6952352094827130e+01 1.1229281286737624e+01
        6.8895061418046186e+00 9.3567095305608046e+00
        3.0315236524511999e+01 3.2405661734171943e+01
        3.2367436302019584e+01 3.7682789411787091e+01
        3.5278505335130021e+01 2.7415405094922662e+01
        2.2487505942132128e+01 4.1709299817308313e+01
        4.1689187962466647e+01 4.1827637090692633e+01
        4.1462104608602829e+01 4.3020644633862688e+01
        3.7274829907000083e+01 2.9923839400465653e+01
        4.4131672548896830e+01 4.5800302931705467e+01
        4.5619361546821892e+01 4.5523007419891655e+01
        4.5608750318322770e+01 4.3158505272728334e+01
        3.1110881871652879e+01 4.4830568629628132e+01
        4.5675013620141939e+01 4.6023007419891655e+01
        4.6023007419891655e+01 4.6023007419891655e+01
        4.5888593156636993e+01 1.7812791632970523e+01
        4.1267030863533464e+01 4.4585483317199206e+01
        4.5367245252286935e+01 4.5879182809487475e+01
        4.6023007419891655e+01 4.6007408149948319e+01
        3.4112883482362184e+00 2.0342497297316918e+01
        3.4478460909601885e+01 4.1229780736655925e+01
        4.4064628871107466e+01 4.4910333895622003e+01
        4.5175580299787839e+01 1.6240355157764792e+00
        7.3083216958143487e+00 9.9737583381886559e+00
        1.2210677549528636e+01 1.1960567146389431e+01
        1.0273952317742488e+01 6.3269097158271403e+00
        4.3603615644716411e+00 1.6493566600575161e+01
        1.8814393671295708e+01 1.9195539370634492e+01
        2.3604046423277918e+01 2.7415405094922662e+01
        2.6301460151942667e+01 1.3431771491805989e+01
        2.7262645929259833e+01 2.8192518633380534e+01
        2.8531893723681570e+01 2.7445435311868785e+01
        2.8660782536938786e+01 3.0665588187795652e+01
        1.6796884105814264e+01 2.9815389026273728e+01
        3.1363016358611208e+01 3.1125747816637158e+01
        3.1008560346439481e+01 3.0939115928485990e+01
        3.1299000156226533e+01 1.9477308190853769e+01
        3.0272449223738576e+01 3.1263189986279166e+01
        3.1383560346439481e+01 3.1383560346439481e+01
        3.1383560346439481e+01 3.1383560346439481e+01
        1.1080330114605911e+01 2.7781650665785289e+01
        3.0167414542908467e+01 3.0836685346439481e+01
        3.1274185346439481e+01 3.1383560346439481e+01
        3.1383560346439481e+01 1.3385048972749181e+00
        1.2922787085300699e+01 2.3721720027610040e+01
        2.8171947675616263e+01 2.9984254852144254e+01
        3.0439115935108731e+01 3.0536338130839994e+01
        5.3187699339517245e+00 4.5169321515013422e+01
        6.3152197031129127e+01 3.7036909021937703e+01
        1.2153360739019824e+01 5.4376068241901114e+00
        3.0527661498332472e+00 3.5184824526113459e+01
        8.5691487843160843e+01 8.4963062605611839e+01
        7.9496079633182944e+01 5.9932538115173593e+01
        2.2487505942132128e+01 1.3431771491805989e+01
        6.5995554498897476e+01 9.5379320252352088e+01
        9.3417972357078554e+01 9.0631579891928766e+01
        8.6112707640955932e+01 5.6500714047931794e+01
        2.4181366657078634e+01 8.0263935931182516e+01
        9.6540461733133853e+01 9.6237968471415769e+01
        9.4570763875984966e+01 9.1868322693378559e+01
        8.1835835109979655e+01 4.2984381013269726e+01
        6.8245097440584189e+01 9.5847446194423441e+01
        9.6285458344635614e+01 9.6055434039130603e+01
        9.2574451156891882e+01 8.9701921577935821e+01
        7.2461424129328179e+01 4.0330203953084215e+01
        8.7392898390833508e+01 9.3665678837806240e+01
        9.4904878967042606e+01 9.3351863048821031e+01
        9.1125585393457229e+01 8.4078559511164997e+01
        1.1742411638518071e+01 4.8282115848238838e+01
        6.9296591391789491e+01 8.1058691236273603e+01
        8.5956618780162984e+01 9.1371791237054381e+01
        8.8006604244279728e+01 7.9335412291327003e+00
        6.4444192647933960e+01 1.0024206899492829e+02
        6.2487508599680879e+01 2.2307931822138251e+01
        1.1215348543599248e+01 6.7409721687436104e+00
        4.8840351564280780e+01 1.3323678085614961e+02
        1.3378543095952935e+02 1.2761108619663449e+02
        9.8446026305997805e+01 4.1709299817308313e+01
        2.7262645929259833e+01 9.5379320252352088e+01
        1.5243750055395705e+02 1.5026814053039493e+02
        1.4689186212352402e+02 1.3946216462263172e+02
        9.4703227925272998e+01 4.4155973223225196e+01
        1.2392323991276048e+02 1.5503463649933170e+02
        1.5590345302835843e+02 1.5386632562258819e+02
        1.5046390442380385e+02 1.3452727542066188e+02
        7.4449984972369791e+01 1.1357100627991151e+02
        1.5471468964232889e+02 1.5580691805376131e+02
        1.5576629826799035e+02 1.5168402788415551e+02
        1.4691613465920091e+02 1.2169370907365723e+02
        6.9480930320261820e+01 1.4354146641612419e+02
        1.5253267716657786e+02 1.5461147842183709e+02
        1.5262531575933099e+02 1.4942708340659738e+02
        1.3867157042399049e+02 2.0108785260943357e+01
        8.0372454807221160e+01 1.1576019945919147e+02
        1.3441063739262796e+02 1.4159858761973862e+02
        1.4896910130439534e+02 1.4372931011352273e+02
        8.1008951310068369e+00 6.4349331565101949e+01
        9.9088619930744173e+01 6.0873642866346572e+01
        2.1515177222357856e+01 1.0871598556844724e+01
        6.9527777507901192e+00 4.8442176915705204e+01
        1.3225229014042350e+02 1.3322501429915428e+02
        1.2622396818116307e+02 9.7146558752954007e+01
        4.1689187962466647e+01 2.8192518633380534e+01
        9.3417972357078554e+01 1.5026814053039493e+02
        1.5512095695766399e+02 1.5247274949764119e+02
        1.4423382360365656e+02 9.8336268082623491e+01
        4.7112342820134430e+01 1.2238403464382259e+02
        1.5961987664498298e+02 1.6307141220870392e+02
        1.6142834348295298e+02 1.5759291688452993e+02
        1.4148685884565390e+02 8.1678225776054148e+01
        1.1644691306025067e+02 1.6193919349355278e+02
        1.6324652799591422e+02 1.6322636779770255e+02
        1.5915972241386771e+02 1.5445432917401195e+02
        1.3010458878055215e+02 7.2702558414575492e+01
        1.5045967636202221e+02 1.5989747762307525e+02
        1.6208717295154929e+02 1.6010101028904319e+02
        1.5690277793630958e+02 1.4689726495370269e+02
        1.9796019064701269e+01 8.2321335877769258e+01
        1.1995957109669109e+02 1.3965236203945068e+02
        1.4767825593270453e+02 1.5560451805591583e+02
        1.5106611573240824e+02 7.1391384902571957e+00
        6.1987268582492938e+01 9.9235487985244802e+01
        6.0576466977088543e+01 2.1014297604008952e+01
        1.0241968942668151e+01 6.8046296103684991e+00
        4.6246421284873051e+01 1.2977991179729929e+02
        1.3074110299826339e+02 1.2710013387257703e+02
        9.7066512461977965e+01 4.1827637090692633e+01
        2.8531893723681570e+01 9.0631579891928766e+01
        1.4689186212352402e+02 1.5247274949764119e+02
        1.5562974868549975e+02 1.4906106124438253e+02
        1.0157782673450441e+02 4.9169495585759478e+01
        1.1975850558385774e+02 1.5744141453161836e+02
        1.6223638372406549e+02 1.6207485486623500e+02
        1.6052020858188470e+02 1.4418435887579565e+02
        8.4338125485769112e+01 1.1643467996859619e+02
        1.6164360668444522e+02 1.6305266466736794e+02
        1.6332405886310977e+02 1.6177278667688370e+02
        1.5713488476806216e+02 1.3198653323948383e+02
        7.2970500161655167e+01 1.5089733343387292e+02
        1.5973520876081818e+02 1.6192325548257293e+02
        1.6160665267705917e+02 1.5963888907432556e+02
        1.4896670940518379e+02 1.9958396116061895e+01
        8.1484422372930965e+01 1.1974336235252753e+02
        1.3902959284168335e+02 1.4736229849727130e+02
        1.5725332486749042e+02 1.5295500462998947e+02
        6.4668590150943821e+00 5.9234216391527994e+01
        9.6915730415369524e+01 6.0231271566298688e+01
        2.0538911781303675e+01 9.2049318570643663e+00
        6.5083333030343056e+00 4.2855629757424559e+01
        1.2367497328605057e+02 1.2394028188592858e+02
        1.2339726305903358e+02 9.7295946483576401e+01
        4.1462104608602829e+01 2.7445435311868785e+01
        8.6112707640955932e+01 1.3946216462263172e+02
        1.4423382360365656e+02 1.4906106124438253e+02
        1.4792057206566432e+02 1.0379434100850040e+02
        5.0108932260734804e+01 1.1444516509135565e+02
        1.4996001951927019e+02 1.5353293616788991e+02
        1.5418738065733586e+02 1.5422968199660750e+02
        1.4179524477193240e+02 8.3057253601016242e+01
        1.1106514405007249e+02 1.5332335913013162e+02
        1.5427090691775084e+02 1.5494972633570433e+02
        1.5499660133570433e+02 1.5266638031279206e+02
        1.2951511262767542e+02 6.7606733810710551e+01
        1.4306305313379309e+02 1.5120768879630725e+02
        1.5335644983500242e+02 1.5425038921087980e+02
        1.5413709516432920e+02 1.4591461348967522e+02
        1.7830593474168950e+01 7.5258141439521268e+01
        1.1298981928707207e+02 1.3123469350193849e+02
        1.3926909967993026e+02 1.5050800271264077e+02
        1.4912211072321892e+02 5.0599077804262684e+00
        3.8051117204121923e+01 6.1197759758743480e+01
        4.3982305832283089e+01 2.0173476697811115e+01
        9.7666602547016037e+00 6.5577160198195479e+00
        2.6101911912937460e+01 7.9293340339881553e+01
        8.0732327100781760e+01 7.9550749039488267e+01
        7.5231873298112333e+01 4.3020644633862688e+01
        2.8660782536938786e+01 5.6500714047931794e+01
        9.4703227925272998e+01 9.8336268082623491e+01
        1.0157782673450441e+02 1.0379434100850040e+02
        9.0377912997897113e+01 5.3169131170535167e+01
        7.6631798861609383e+01 1.0611097479682738e+02
        1.0898031120761125e+02 1.0903926184998802e+02
        1.0920608286692956e+02 1.0726404750191070e+02
        7.9255230630973699e+01 7.6818237860147690e+01
        1.0876297303957035e+02 1.0949443164840341e+02
        1.1013887605443597e+02 1.1017012605443597e+02
        1.1004397810018993e+02 1.0328859240964596e+02
        4.8000967748191002e+01 1.0178544406019950e+02
        1.0757164380616871e+02 1.0906831247168975e+02
        1.0975334460242789e+02 1.1014372559149508e+02
        1.0880911729816215e+02 1.2557303618559308e+01
        5.5691513294900169e+01 8.4040165643789379e+01
        9.7013696621489800e+01 1.0221384584583389e+02
        1.0687530359181284e+02 1.0787380451593586e+02
        2.4081609416034437e+00 1.4284332731497738e+01
        1.9972011361175852e+01 1.9113306144342992e+01
        1.5260123853894999e+01 1.0791842666904953e+01
        6.3277777507901192e+00 8.9961376127014887e+00
        2.8755201575917887e+01 3.1541301204197936e+01
        3.1940710821913349e+01 3.7068166035121244e+01
        3.7274829907000083e+01 3.0665588187795652e+01
        2.4181366657078634e+01 4.4155973223225196e+01
        4.7112342820134430e+01 4.9169495585759478e+01
        5.0108932260734804e+01 5.3169131170535167e+01
        5.0310437002286861e+01 3.2389720405450348e+01
        5.5564009486271274e+01 5.7931544237136848e+01
        5.7455170756585801e+01 5.7404781133039499e+01
        5.7273523492945564e+01 5.7230364122119212e+01
        3.6938030684724282e+01 5.7094356723129749e+01
        5.8094356760382652e+01 5.8265710920095444e+01
        5.8273523420095444e+01 5.8273523420095444e+01
        5.8206578975684110e+01 2.2878909358315546e+01
        5.2369751728826984e+01 5.6593835979700089e+01
        5.7648523420095444e+01 5.8148523420095444e+01
        5.8273523420095444e+01 5.8273523420095444e+01
        4.9347420525865298e+00 2.6647147580423646e+01
        4.3527473984048612e+01 5.1453448189513466e+01
        5.4854504046498406e+01 5.5905056752490992e+01
        5.6301301134957207e+01 6.6648886241596106e+00
        5.5619632914498432e+01 8.5454919134012243e+01
        5.3718683351196994e+01 1.7750013890622022e+01
        6.9122490705461814e+00 3.7158796372568164e+00
        4.1639531380841788e+01 1.1119739668949552e+02
        1.1085482507613180e+02 1.0615184481927986e+02
        8.0326002822107057e+01 2.9923839400465653e+01
        1.6796884105814264e+01 8.0263935931182516e+01
        1.2392323991276048e+02 1.2238403464382259e+02
        1.1975850558385774e+02 1.1444516509135565e+02
        7.6631798861609383e+01 3.2389720405450348e+01
        1.0921416415097160e+02 1.3047907326675676e+02
        1.3110031553074901e+02 1.2878169710403898e+02
        1.2604056294373616e+02 1.1347808051485663e+02
        6.1054800127771628e+01 9.8844362691581694e+01
        1.3138742625167342e+02 1.3146388039618364e+02
        1.3132666560412321e+02 1.2771889923512936e+02
        1.2401959032705886e+02 1.0274990482785323e+02
        5.9988031571580244e+01 1.2250502187345032e+02
        1.2929185405530870e+02 1.3041649906265565e+02
        1.2867611160840158e+02 1.2601415862974561e+02
        1.1738073221587271e+02 1.6819247682073900e+01
        6.8152042139583159e+01 9.7812130141996306e+01
        1.1321503555562012e+02 1.1943845615197654e+02
        1.2585333053033062e+02 1.2192100706071355e+02
        7.1543528652163566e+00 6.3440720448477400e+01
        9.9617647707462311e+01 6.2116559527814388e+01
        2.1430038322798080e+01 1.0156320803902215e+01
        5.7027777574128571e+00 4.8368744219986745e+01
        1.3220090125583940e+02 1.3278195875883102e+02
        1.2752403761570653e+02 9.9354753187894801e+01
        4.4131672548896830e+01 2.9815389026273728e+01
        9.6540461733133853e+01 1.5503463649933170e+02
        1.5961987664498298e+02 1.5744141453161836e+02
        1.4996001951927019e+02 1.0611097479682738e+02
        5.5564009486271274e+01 1.3047907326675676e+02
        1.7869933062312037e+02 1.8345021604554890e+02
        1.8014969742920661e+02 1.7505555559264289e+02
        1.5817602538417887e+02 9.6985957038270584e+01
        1.3163586757419100e+02 1.8311407276141057e+02
        1.8411845587819448e+02 1.8395171487331390e+02
        1.7986944448947906e+02 1.7490623876452446e+02
        1.4899920670688152e+02 8.6302635564587916e+01
        1.7117467618696668e+02 1.8077082817422018e+02
        1.8279689502716064e+02 1.8081073236465454e+02
        1.7761250001192093e+02 1.6673979952931404e+02
        2.4211366329300738e+01 9.7053334484620024e+01
        1.3795790538771837e+02 1.5859306416752528e+02
        1.6748076346603995e+02 1.7577951791592773e+02
        1.7078972666420867e+02 8.0789043792281987e+00
        6.4553220435976982e+01 1.0049021713435650e+02
        6.2862045638263226e+01 2.2519968867301941e+01
        1.1399376334622502e+01 6.9249999597668648e+00
        4.8718488624986307e+01 1.3308006791025400e+02
        1.3388890317082405e+02 1.2848046121001244e+02
        1.0008315593749285e+02 4.5800302931705467e+01
        3.1363016358611208e+01 9.6237968471415769e+01
        1.5590345302835843e+02 1.6307141220870392e+02
        1.6223638372406549e+02 1.5353293616788991e+02
        1.0898031120761125e+02 5.7931544237136848e+01
        1.3110031553074901e+02 1.8345021604554890e+02
        1.9394170128186545e+02 1.9088087793224389e+02
        1.8445611114515197e+02 1.6650593276318577e+02
        1.0418588756953723e+02 1.3611994161862282e+02
        1.9289939387997728e+02 1.9512415121256569e+02
        1.9498921477794647e+02 1.9090694439411163e+02
        1.8590467616915703e+02 1.5980229690723951e+02
        9.2516509111573299e+01 1.8128607267725613e+02
        1.9160303294658661e+02 1.9383439493179321e+02
        1.9184823226928711e+02 1.8864999991655350e+02
        1.7775386193394661e+02 2.6104595527756544e+01
        1.0339257048169588e+02 1.4622155405608592e+02
        1.6816586506155170e+02 1.7788477572026076e+02
        1.8662257339432836e+02 1.8167444879934192e+02
        7.4108555214995455e+00 6.2830777305903311e+01
        1.0051369109478753e+02 6.3073156736791134e+01
        2.2456079974770546e+01 1.1316042997977799e+01
        6.9527777507901192e+00 4.7197351853241031e+01
        1.3152281573932265e+02 1.3217751940572225e+02
        1.2863974523857104e+02 1.0044426704198122e+02
        4.5619361546821892e+01 3.1125747816637158e+01
        9.4570763875984966e+01 1.5386632562258819e+02
        1.6142834348295298e+02 1.6207485486623500e+02
        1.5418738065733586e+02 1.0903926184998802e+02
        5.7455170756585801e+01 1.2878169710403898e+02
        1.8014969742920661e+02 1.9088087793224389e+02
        1.8943785669627789e+02 1.8420185962484209e+02
        1.6583815503719782e+02 1.0329596481004108e+02
        1.3396757257864556e+02 1.8999926063861511e+02
        1.9208660715818405e+02 1.9239753865900263e+02
        1.9008741313219070e+02 1.8522576990723610e+02
        1.5923057815545135e+02 9.1441119343858247e+01
        1.7912457234211985e+02 1.8883583179559372e+02
        1.9103220837682744e+02 1.9029041975736618e+02
        1.8791249990463257e+02 1.7705151817202568e+02
        2.5729829860337908e+01 1.0157949943500168e+02
        1.4424575069300570e+02 1.6554785585266112e+02
        1.7533674636006276e+02 1.8541640879743824e+02
        1.8093694878742099e+02 6.5028339209780093e+00
        6.0325118091106418e+01 9.9994260490304896e+01
        6.3001872023749684e+01 2.2388371661305428e+01
        1.1260487454012036e+01 6.9527777507901192e+00
        4.4712602401632402e+01 1.2865802456148796e+02
        1.2934444451332092e+02 1.2831099833130838e+02
        1.0045900664389134e+02 4.5523007419891655e+01
        3.1008560346439481e+01 9.1868322693378559e+01
        1.5046390442380385e+02 1.5759291688452993e+02
        1.6052020858188470e+02 1.5422968199660750e+02
        1.0920608286692956e+02 5.7404781133039499e+01
        1.2604056294373616e+02 1.7505555559264289e+02
        1.8445611114515197e+02 1.8420185962484209e+02
        1.8183348198069098e+02 1.6478683563566869e+02
        1.0284311764556915e+02 1.3084956372121235e+02
        1.8405479803366794e+02 1.8576736122369766e+02
        1.8646961814165115e+02 1.8649305564165115e+02
        1.8213497146674328e+02 1.5652502275060448e+02
        8.7467199747808934e+01 1.7379346967458724e+02
        1.8270317476987839e+02 1.8485290414094925e+02
        1.8574684351682663e+02 1.8461611118137836e+02
        1.7397122320532799e+02 2.3971678872961135e+01
        9.6842477940916552e+01 1.3930724400291103e+02
        1.5970542799846996e+02 1.6953779218014745e+02
        1.8139411831676961e+02 1.7778056006927042e+02
        6.1271381246297025e+00 5.4528579515286310e+01
        8.8909047577231433e+01 5.8491141474703092e+01
        2.2149253470113543e+01 1.1081475128017274e+01
        6.8540123238423725e+00 3.8347792584347246e+01
        1.1355651341252181e+02 1.1449106774596520e+02
        1.1367901280047288e+02 9.5722054117985181e+01
        4.5608750318322770e+01 3.0939115928485990e+01
        8.1835835109979655e+01 1.3452727542066188e+02
        1.4148685884565390e+02 1.4418435887579565e+02
        1.4179524477193240e+02 1.0726404750191070e+02
        5.7273523492945564e+01 1.1347808051485663e+02
        1.5817602538417887e+02 1.6650593276318577e+02
        1.6583815503719782e+02 1.6478683563566869e+02
        1.5751181456117234e+02 1.0286806592091779e+02
        1.1800565125322424e+02 1.6676912725596114e+02
        1.6822690510749817e+02 1.6889009952545166e+02
        1.6895259952545166e+02 1.6828478444537191e+02
        1.5096836727566301e+02 7.7101337571272538e+01
        1.5722126784673216e+02 1.6540048536404225e+02
        1.6739704396297233e+02 1.6825815506535346e+02
        1.6883860261296047e+02 1.6420463186774916e+02
        1.9070321066941268e+01 8.5466820500453778e+01
        1.2574172162287033e+02 1.4474927180165130e+02
        1.5364155139204601e+02 1.6456220406490445e+02
        1.6532223113969383e+02 3.9133854656560514e+00
        2.7372309345371811e+01 4.0271473273596683e+01
        3.1966226375147713e+01 1.9146046565987582e+01
        1.1329931916669011e+01 6.8555555418133736e+00
        1.7757457769853673e+01 5.5619178439084649e+01
        5.7997596837137309e+01 5.6311746785914437e+01
        5.8471973845877400e+01 4.3158505272728334e+01
        3.1299000156226533e+01 4.2984381013269726e+01
        7.4449984972369791e+01 8.1678225776054148e+01
        8.4338125485769112e+01 8.3057253601016242e+01
        7.9255230630973699e+01 5.7230364122119212e+01
        6.1054800127771628e+01 9.6985957038270584e+01
        1.0418588756953723e+02 1.0329596481004108e+02
        1.0284311764556915e+02 1.0286806592091779e+02
        9.1186096398874867e+01 7.0252920305602018e+01
        1.0436259969220001e+02 1.0567139695544532e+02
        1.0609068706352264e+02 1.0615318706352264e+02
        1.0615318706352264e+02 1.0494344682251608e+02
        4.8734210908102760e+01 9.9044527074924531e+01
        1.0437797298257233e+02 1.0547435327021438e+02
        1.0599524399531532e+02 1.0615318706352264e+02
        1.0613311120827443e+02 1.2810065969364391e+01
        5.4859862824277613e+01 8.1803669880002062e+01
        9.3910336302332766e+01 1.0005801442863090e+02
        1.0321510176139742e+02 1.0414126334941366e+02
        5.3065904931392609e+00 4.5228711379707434e+01
        7.5632100607970614e+01 4.9333668482735106e+01
        1.6195655354676902e+01 6.4535700135127536e+00
        3.9079012533389950e+00 3.4649388169442325e+01
        9.7544787731745259e+01 9.6594899163491760e+01
        9.5612449508422202e+01 7.3709860018985694e+01
        3.1110881871652879e+01 1.9477308190853769e+01
        6.8245097440584189e+01 1.1357100627991151e+02
        1.1644691306025067e+02 1.1643467996859619e+02
        1.1106514405007249e+02 7.6818237860147690e+01
        3.6938030684724282e+01 9.8844362691581694e+01
        1.3163586757419100e+02 1.3611994161862282e+02
        1.3396757257864556e+02 1.3084956372121235e+02
        1.1800565125322424e+02 7.0252920305602018e+01
        1.0765576798901289e+02 1.3775395378951461e+02
        1.3748119557648897e+02 1.3773295075228526e+02
        1.3541062086075544e+02 1.3126450607947166e+02
        1.1239640039368794e+02 7.0869085139657074e+01
        1.3196812896196789e+02 1.3666705874374989e+02
        1.3750621457360279e+02 1.3671493530873451e+02
        1.3348421652909047e+02 1.2574509640431418e+02
        2.0716935273606360e+01 7.7025235105900805e+01
        1.0720941239298807e+02 1.2080987947101391e+02
        1.2724333098179466e+02 1.3243959117869855e+02
        1.2802962227443146e+02 7.1964177675181897e+00
        6.3207592876419724e+01 9.9475424439109887e+01
        6.2227864643765216e+01 2.1633062909481257e+01
        1.0298681910046273e+01 5.8659722068243560e+00
        4.8041344997265810e+01 1.3181315474167863e+02
        1.3230145111313863e+02 1.2735370501070885e+02
        9.9377272670193207e+01 4.4830568629628132e+01
        3.0272449223738576e+01 9.5847446194423441e+01
        1.5471468964232889e+02 1.6193919349355278e+02
        1.6164360668444522e+02 1.5332335913013162e+02
        1.0876297303957035e+02 5.7094356723129749e+01
        1.3138742625167342e+02 1.8311407276141057e+02
        1.9289939387997728e+02 1.8999926063861511e+02
        1.8405479803366794e+02 1.6676912725596114e+02
        1.0436259969220001e+02 1.3775395378951461e+02
        1.9427308143052738e+02 1.9536584698767575e+02
        1.9532759056561491e+02 1.9156104797124863e+02
        1.8648065474629402e+02 1.6029266829498599e+02
        9.3679402647636550e+01 1.8310166568149606e+02
        1.9256038307306432e+02 1.9432499993980042e+02
        1.9257763428804083e+02 1.8930410349369049e+02
        1.7838496563270951e+02 2.6944838573609790e+01
        1.0523942237560489e+02 1.4809862514758771e+02
        1.6908336092730084e+02 1.7859132209848423e+02
        1.8731409021991425e+02 1.8232855237647891e+02
        7.9225459004303929e+00 6.4355303809046745e+01
        1.0033917550742626e+02 6.2742254011332989e+01
        2.2337677240371704e+01 1.1201459707692266e+01
        6.7270833328366280e+00 4.8634757446654049e+01
        1.3288215128332376e+02 1.3369098654389381e+02
        1.2833723208308220e+02 9.9994614310562611e+01
        4.5675013620141939e+01 3.1263189986279166e+01
        9.6285458344635614e+01 1.5580691805376131e+02
        1.6324652799591422e+02 1.6305266466736794e+02
        1.5427090691775084e+02 1.0949443164840341e+02
        5.8094356760382652e+01 1.3146388039618364e+02
        1.8411845587819448e+02 1.9512415121256569e+02
        1.9208660715818405e+02 1.8576736122369766e+02
        1.6822690510749817e+02 1.0567139695544532e+02
        1.3748119557648897e+02 1.9536584698767575e+02
        1.9771239635826629e+02 1.9748157596588135e+02
        1.9346180558204651e+02 1.8838141235709190e+02
        1.6204833866655827e+02 9.4239587809752535e+01
        1.8385832583039632e+02 1.9417156600952148e+02
        1.9638925611972809e+02 1.9440309345722198e+02
        1.9120486110448837e+02 1.8026184812188148e+02
        2.7264838563278317e+01 1.0592402108951850e+02
        1.4873801579804700e+02 1.7067915601283312e+02
        1.8042111837863922e+02 1.8917743458226323e+02
        1.8422930998727679e+02 7.8663989200587636e+00
        6.4080789466442440e+01 1.0075889943322258e+02
        6.3317948423326015e+01 2.2638371661305428e+01
        1.1427154125645757e+01 6.9527777507901192e+00
        4.8428518519661964e+01 1.3286505880677873e+02
        1.3344528417036662e+02 1.2875164888437365e+02
        1.0072030872851610e+02 4.6023007419891655e+01
        3.1383560346439481e+01 9.6055434039130603e+01
        1.5576629826799035e+02 1.6322636779770255e+02
        1.6332405886310977e+02 1.5494972633570433e+02
        1.1013887605443597e+02 5.8265710920095444e+01
        1.3132666560412321e+02 1.8395171487331390e+02
        1.9498921477794647e+02 1.9239753865900263e+02
        1.8646961814165115e+02 1.6889009952545166e+02
        1.0609068706352264e+02 1.3773295075228526e+02
        1.9532759056561491e+02 1.9748157596588135e+02
        1.9754560555303556e+02 1.9410742187500000e+02
        1.8904460677504539e+02 1.6271153308451176e+02
        9.4333974376320839e+01 1.8413301683717197e+02
        1.9416416172259352e+02 1.9637719801791951e+02
        1.9489050662517548e+02 1.9186805552244186e+02
        1.8092504253983498e+02 2.7162299500778317e+01
        1.0593698405474424e+02 1.4905785800082788e+02
        1.7072342535236794e+02 1.8053734015951750e+02
        1.8973478646359496e+02 1.8489250440523028e+02
        6.5689276698976755e+00 6.0631524324417114e+01
        1.0028422579169273e+02 6.3317948423326015e+01
        2.2638371661305428e+01 1.1427154125645757e+01
        6.9527777507901192e+00 4.5137585058808327e+01
        1.2925759053975344e+02 1.2988519972562790e+02
        1.2857758688926697e+02 1.0072030872851610e+02
        4.6023007419891655e+01 3.1383560346439481e+01
        9.2574451156891882e+01 1.5168402788415551e+02
        1.5915972241386771e+02 1.6177278667688370e+02
        1.5499660133570433e+02 1.1017012605443597e+02
        5.8273523420095444e+01 1.2771889923512936e+02
        1.7986944448947906e+02 1.9090694439411163e+02
        1.9008741313219070e+02 1.8649305564165115e+02
        1.6895259952545166e+02 1.0615318706352264e+02
        1.3541062086075544e+02 1.9156104797124863e+02
        1.9346180558204651e+02 1.9410742187500000e+02
        1.9401171875000000e+02 1.8910710677504539e+02
        1.6277403308451176e+02 9.2787099376320839e+01
        1.8141103902459145e+02 1.9039761912822723e+02
        1.9254734849929810e+02 1.9337097537517548e+02
        1.9193055552244186e+02 1.8098754253983498e+02
        2.6473822938278317e+01 1.0346823405474424e+02
        1.4652580104768276e+02 1.6711515016108751e+02
        1.7715063929557800e+02 1.8889551579952240e+02
        1.8495500440523028e+02 6.4598340276901762e+00
        5.9511352887660941e+01 9.7521363144783777e+01
        6.2217069824270368e+01 2.2497137101631104e+01
        1.1427154125645757e+01 6.9527777507901192e+00
        4.2665034709872010e+01 1.2466853024762354e+02
        1.2523297489517265e+02 1.2495616213448284e+02
        1.0019112635091720e+02 4.6023007419891655e+01
        3.1383560346439481e+01 8.9701921577935821e+01
        1.4691613465920091e+02 1.5445432917401195e+02
        1.5713488476806216e+02 1.5266638031279206e+02
        1.1004397810018993e+02 5.8273523420095444e+01
        1.2401959032705886e+02 1.7490623876452446e+02
        1.8590467616915703e+02 1.8522576990723610e+02
        1.8213497146674328e+02 1.6828478444537191e+02
        1.0615318706352264e+02 1.3126450607947166e+02
        1.8648065474629402e+02 1.8838141235709190e+02
        1.8904460677504539e+02 1.8910710677504539e+02
        1.8717332091758973e+02 1.6271193193038340e+02
        8.9386210494148727e+01 1.7640252624983424e+02
        1.8531854821696754e+02 1.8746695527434349e+02
        1.8836089465022087e+02 1.8862112682984565e+02
        1.8051423816463426e+02 2.4551374396564817e+01
        9.9089556272979507e+01 1.4175740664513663e+02
        1.6212171953446517e+02 1.7210130210194157e+02
        1.8446511385851437e+02 1.8349652560340738e+02
        5.5688226921902864e+00 4.7988684426471174e+01
        7.8553356689529963e+01 5.3814324747964939e+01
        2.1990949847592844e+01 1.1427154125645757e+01
        6.9527777507901192e+00 3.3252967397504385e+01
        1.0066509903340346e+02 1.0173029462412552e+02
        1.0091673823417449e+02 8.8889280841128567e+01
        4.5888593156636993e+01 3.1383560346439481e+01
        7.2461424129328179e+01 1.2169370907365723e+02
        1.3010458878055215e+02 1.3198653323948383e+02
        1.2951511262767542e+02 1.0328859240964596e+02
        5.8206578975684110e+01 1.0274990482785323e+02
        1.4899920670688152e+02 1.5980229690723951e+02
        1.5923057815545135e+02 1.5652502275060448e+02
        1.5096836727566301e+02 1.0494344682251608e+02
        1.1239640039368794e+02 1.6029266829498599e+02
        1.6204833866655827e+02 1.6271153308451176e+02
        1.6277403308451176e+02 1.6271193193038340e+02
        1.5247508656914141e+02 7.8070765692523906e+01
        1.5353449783822975e+02 1.6031219691662011e+02
        1.6174143437131266e+02 1.6239960700128469e+02
        1.6277403308451176e+02 1.6209912976281927e+02
        2.0019898765242612e+01 8.6461447391580862e+01
        1.2462566420465922e+02 1.4218447400984181e+02
        1.5029032293421520e+02 1.5866702200421736e+02
        1.6059704864977942e+02 2.3957488343895670e+00
        2.4775900999462831e+01 4.3753096008231033e+01
        2.8100841026712487e+01 9.0533495817033582e+00
        3.9747831534198648e+00 2.3198109639279636e+00
        1.9209519375310215e+01 5.7501575507109528e+01
        5.6035868407579841e+01 5.4980593297330969e+01
        4.1776928366726210e+01 1.7812791632970523e+01
        1.1080330114605911e+01 4.0330203953084215e+01
        6.9480930320261820e+01 7.2702558414575492e+01
        7.2970500161655167e+01 6.7606733810710551e+01
        4.8000967748191002e+01 2.2878909358315546e+01
        5.9988031571580244e+01 8.6302635564587916e+01
        9.2516509111573299e+01 9.1441119343858247e+01
        8.7467199747808934e+01 7.7101337571272538e+01
        4.8734210908102760e+01 7.0869085139657074e+01
        9.3679402647636550e+01 9.4239587809752535e+01
        9.4333974376320839e+01 9.2787099376320839e+01
        8.9386210494148727e+01 7.8070765692523906e+01
        6.1907060724796182e+01 9.3462232961868864e+01
        9.4268445382963137e+01 9.4388661876320839e+01
        9.3810536876320839e+01 9.1177786092456472e+01
        8.6334580929021541e+01 2.1496914583008731e+01
        6.7629116981292242e+01 8.3332216628633091e+01
        8.8655780677497575e+01 9.1251109240972028e+01
        9.1853399906209660e+01 8.7571627895008220e+01
        5.7035535212784403e+00 5.6532358627729906e+01
        9.2205943024354042e+01 5.7899399142606057e+01
        1.9725544495031833e+01 9.5373972358389025e+00
        5.3172916470861260e+00 4.3423303951754846e+01
        1.2245535530458284e+02 1.2245828922693175e+02
        1.1857369204065385e+02 9.2572825236656101e+01
        4.1267030863533464e+01 2.7781650665785289e+01
        8.7392898390833508e+01 1.4354146641612419e+02
        1.5045967636202221e+02 1.5089733343387292e+02
        1.4306305313379309e+02 1.0178544406019950e+02
        5.2369751728826984e+01 1.2250502187345032e+02
        1.7117467618696668e+02 1.8128607267725613e+02
        1.7912457234211985e+02 1.7379346967458724e+02
        1.5722126784673216e+02 9.9044527074924531e+01
        1.3196812896196789e+02 1.8310166568149606e+02
        1.8385832583039632e+02 1.8413301683717197e+02
        1.8141103902459145e+02 1.7640252624983424e+02
        1.5353449783822975e+02 9.3462232961868864e+01
        1.7777392417890678e+02 1.8363607206004485e+02
        1.8426033020649078e+02 1.8304225171938936e+02
        1.7915755133806923e+02 1.6973790758988039e+02
        2.7186713563278317e+01 1.0573426329569722e+02
        1.4697648688852740e+02 1.6471257363677978e+02
        1.7258758670578015e+02 1.7839861807966210e+02
        1.7305506565664552e+02 7.2716285851485853e+00
        6.1832688220728066e+01 9.7816613669038205e+01
        6.1415309345238747e+01 2.1588060308702779e+01
