<?xml version="1.0"?>
<opencv_storage>
<cascade>
  <stageType>BOOST</stageType>
  <featureType>LBP</featureType>
  <height>24</height>
  <width>24</width>
  <stageParams>
    <boostType>GAB</boostType>
    <minHitRate>9.9500000476837158e-01</minHitRate>
    <maxFalseAlarm>5.0000000000000000e-01</maxFalseAlarm>
    <weightTrimRate>9.4999999999999996e-01</weightTrimRate>
    <maxDepth>1</maxDepth>
    <maxWeakCount>100</maxWeakCount></stageParams>
  <featureParams>
    <maxCatCount>256</maxCatCount>
    <featSize>1</featSize></featureParams>
  <stageNum>20</stageNum>
  <stages>
    <!-- stage 0 -->
    <_>
      <maxWeakCount>2</maxWeakCount>
      <stageThreshold>-7.0721291005611420e-02</stageThreshold>
      <weakClassifiers>
        <_>
          <internalNodes>
            0 -1 16 -788475448 -1786707968 16777216 -720830464 37048
            134217856 16779403 -1593114621</internalNodes>
          <leafValues>
            -9.7272729873657227e-01 9.4029849767684937e-01</leafValues></_>
        <_>
          <internalNodes>
            0 -1 35 1431420929 -242941951 268435459 -216985599 134250507
            -1879048192 134316171 -209649525</internalNodes>
          <leafValues>
            -1. 9.0200597047805786e-01</leafValues></_></weakClassifiers></_>
    <!-- stage 1 -->
    <_>
      <maxWeakCount>2</maxWeakCount>
      <stageThreshold>-1.1540108174085617e-01</stageThreshold>
      <weakClassifiers>
        <_>
          <internalNodes>
            0 -1 30 -782725105 -1794047983 268505601 522059804
            -1073703752 -1459093504 536903850 -1222443005</internalNodes>
          <leafValues>
            -9.5370370149612427e-01 8.5507243871688843e-01</leafValues></_>
        <_>
          <internalNodes>
            0 -1 9 -2146942455 1426129024 285217433 -150863615 528575
            -1937768320 -2147450709 -1123942392</internalNodes>
          <leafValues>
            -9.6622884273529053e-01 8.3830261230468750e-01</leafValues></_></weakClassifiers></_>
    <!-- stage 2 -->
    <_>
      <maxWeakCount>2</maxWeakCount>
      <stageThreshold>-1.3156862556934357e-01</stageThreshold>
      <weakClassifiers>
        <_>
          <internalNodes>
            0 -1 18 1360058830 -788529151 20497 -586612733 -1325399928
            -1744830456 536903849 -1727332093</internalNodes>
          <leafValues>
            -9.5283019542694092e-01 8.0281692743301392e-01</leafValues></_>
        <_>
          <internalNodes>
            0 -1 37 959526415 50335965 -2063564735 -896458557 1360659525
            -173424384 -1718579155 -290810740</internalNodes>
          <leafValues>
            -9.3438553810119629e-01 8.5030037164688110e-01</leafValues></_></weakClassifiers></_>
    <!-- stage 3 -->
    <_>
      <maxWeakCount>2</maxWeakCount>
      <stageThreshold>-1.0939496010541916e-01</stageThreshold>
      <weakClassifiers>
        <_>
          <internalNodes>
            0 -1 2 -712716257 855835137 65537 302186497 1073905793 129
            -2147450741 462356619</internalNodes>
          <leafValues>
            -9.6226418018341064e-01 8.1690138578414917e-01</leafValues></_>
        <_>
          <internalNodes>
            0 -1 1 1073856667 -720306175 285212953 -620560384
            -2147450742 -2147483648 -2113896293 -219283317</internalNodes>
          <leafValues>
            -9.2629635334014893e-01 8.5489672422409058e-01</leafValues></_></weakClassifiers></_>
    <!-- stage 4 -->
    <_>
      <maxWeakCount>3</maxWeakCount>
      <stageThreshold>-1.0659031867980957e+00</stageThreshold>
      <weakClassifiers>
        <_>
          <internalNodes>
            0 -1 21 -532496163 -775618559 65587 -679018494 -2130673521
            -2147483648 34144395 -1183907829</internalNodes>
          <leafValues>
            -9.2626726627349854e-01 8.2481753826141357e-01</leafValues></_>
        <_>
          <internalNodes>
            0 -1 7 -787169121 1480720393 269631499 453378176 -2012618355
            838893696 142639243 -611679861</internalNodes>
          <leafValues>
            -9.2759281396865845e-01 7.9965758323669434e-01</leafValues></_>
        <_>
          <internalNodes>
            0 -1 33 -1844920297 -620686271 50331717 -244841429
            -1610612561 16842756 1107821195 -1357937205</internalNodes>
          <leafValues>
            -9.4953072071075439e-01 7.8795683383941650e-01</leafValues></_></weakClassifiers></_>
    <!-- stage 5 -->
    <_>
      <maxWeakCount>2</maxWeakCount>
      <stageThreshold>-2.1017962694168091e-01</stageThreshold>
      <weakClassifiers>
        <_>
          <internalNodes>
            0 -1 34 -248545249 -251652093 -1518333691 -450822015
            -1874689238 -536297336 -2146926546 -1097088888</internalNodes>
          <leafValues>
            -9.7142857313156128e-01 8.0555558204650879e-01</leafValues></_>
        <_>
          <internalNodes>
            0 -1 5 1481814211 1565589761 -1610612703 822214672 213403
            -2145288064 8456899 -1163754598</internalNodes>
          <leafValues>
            -9.6521639823913574e-01 7.6124894618988037e-01</leafValues></_></weakClassifiers></_>
    <!-- stage 6 -->
    <_>
      <maxWeakCount>2</maxWeakCount>
      <stageThreshold>5.0835963338613510e-02</stageThreshold>
      <weakClassifiers>
        <_>
          <internalNodes>
            0 -1 20 1593793631 -32769 -65538 -8716290 -587268609
            1250443263 -16850940 -553844740</internalNodes>
          <leafValues>
            -8.3122360706329346e-01 9.3162393569946289e-01</leafValues></_>
        <_>
          <internalNodes>
            0 -1 39 -2113351651 419495936 21364740 -368799744
            -1035362302 -1342173184 -931090429 -1853333368</internalNodes>
          <leafValues>
            -8.8078796863555908e-01 8.8302844762802124e-01</leafValues></_></weakClassifiers></_>
    <!-- stage 7 -->
    <_>
      <maxWeakCount>2</maxWeakCount>
      <stageThreshold>-4.4412622228264809e-03</stageThreshold>
      <weakClassifiers>
        <_>
          <internalNodes>
            0 -1 40 336969759 -1323237117 51738 -738196992 -2146955245
            -1342111600 -2147184604 -74934240</internalNodes>
          <leafValues>
            -9.3577980995178223e-01 8.5294115543365479e-01</leafValues></_>
        <_>
          <internalNodes>
            0 -1 10 1073911245 -1769668287 83894656 -821821436
            -1610610526 4718624 -2079817600 -939407359</internalNodes>
          <leafValues>
            -8.5738241672515869e-01 9.7556954622268677e-01</leafValues></_></weakClassifiers></_>
    <!-- stage 8 -->
    <_>
      <maxWeakCount>2</maxWeakCount>
      <stageThreshold>-1.0963954031467438e-01</stageThreshold>
      <weakClassifiers>
        <_>
          <internalNodes>
            0 -1 12 -774727915 1560346629 67109139 458838027 16392
            -1945982463 1342179968 -1156677061</internalNodes>
          <leafValues>
            -8.7610620260238647e-01 8.5937500000000000e-01</leafValues></_>
        <_>
          <internalNodes>
            0 -1 8 -1810886420 1230045313 269484109 1494360065 266
            -750575616 -976216062 -356588761</internalNodes>
          <leafValues>
            -9.5800292491912842e-01 7.6646667718887329e-01</leafValues></_></weakClassifiers></_>
    <!-- stage 9 -->
    <_>
      <maxWeakCount>2</maxWeakCount>
      <stageThreshold>-2.4490591138601303e-02</stageThreshold>
      <weakClassifiers>
        <_>
          <internalNodes>
            0 -1 28 1086225943 676986880 1342509567 -1040109566 1083691
            1208066048 -18316567 -83952388</internalNodes>
          <leafValues>
            -8.8085108995437622e-01 1.</leafValues></_>
        <_>
          <internalNodes>
            0 -1 38 16892791 805863432 557056 1912884746 -2146955163
            285769728 -1979678704 -39271804</internalNodes>
          <leafValues>
            -9.4171363115310669e-01 8.5636049509048462e-01</leafValues></_></weakClassifiers></_>
    <!-- stage 10 -->
    <_>
      <maxWeakCount>2</maxWeakCount>
      <stageThreshold>-4.7472387552261353e-02</stageThreshold>
      <weakClassifiers>
        <_>
          <internalNodes>
            0 -1 13 -115869737 -4653692 -259 -1341985025 -2147481597
            -2080374784 -2129657846 -1523023806</internalNodes>
          <leafValues>
            -8.4615385532379150e-01 9.1666668653488159e-01</leafValues></_>
        <_>
          <internalNodes>
            0 -1 15 -2076114667 -2097150719 606213 1254490563 537133088
            -1874812664 -1576532343 -358036342</internalNodes>
          <leafValues>
            -9.2754989862442017e-01 7.9868143796920776e-01</leafValues></_></weakClassifiers></_>
    <!-- stage 11 -->
    <_>
      <maxWeakCount>2</maxWeakCount>
      <stageThreshold>-1.2124972790479660e-01</stageThreshold>
      <weakClassifiers>
        <_>
          <internalNodes>
            0 -1 29 8552517 102533 823656592 -2071724031 -1610513722
            -1014292480 -527912735 -358465152</internalNodes>
          <leafValues>
            -9.4312798976898193e-01 7.7622377872467041e-01</leafValues></_>
        <_>
          <internalNodes>
            0 -1 26 555295297 17891329 34603281 -459274992 -1584070008
            -847249344 -2130706304 -592327640</internalNodes>
          <leafValues>
            -8.9747351408004761e-01 8.9146649837493896e-01</leafValues></_></weakClassifiers></_>
    <!-- stage 12 -->
    <_>
      <maxWeakCount>2</maxWeakCount>
      <stageThreshold>2.4371596053242683e-02</stageThreshold>
      <weakClassifiers>
        <_>
          <internalNodes>
            0 -1 0 -791617333 -1861124095 -2147450880 -2063499261
            -1073741813 -1073545214 16777379 16973835</internalNodes>
          <leafValues>
            -9.2660552263259888e-01 8.3823531866073608e-01</leafValues></_>
        <_>
          <internalNodes>
            0 -1 25 -180865 -1073758215 -1090597121 -16777217 1073708878
            -1 -1073762338 -196612</internalNodes>
          <leafValues>
            -8.0979561805725098e-01 9.5097708702087402e-01</leafValues></_></weakClassifiers></_>
    <!-- stage 13 -->
    <_>
      <maxWeakCount>2</maxWeakCount>
      <stageThreshold>-1.6103332862257957e-02</stageThreshold>
      <weakClassifiers>
        <_>
          <internalNodes>
            0 -1 32 -980905621 1107918984 1358954497 -2130181566
            -2130665334 -1442676607 714 -981329400</internalNodes>
          <leafValues>
            -9.0783411264419556e-01 7.9562044143676758e-01</leafValues></_>
        <_>
          <internalNodes>
            0 -1 24 1308602365 -65537 -268435457 -268435457 -33 -1
            -1711816769 -536870913</internalNodes>
          <leafValues>
            -8.1172376871109009e-01 9.5401525497436523e-01</leafValues></_></weakClassifiers></_>
    <!-- stage 14 -->
    <_>
      <maxWeakCount>2</maxWeakCount>
      <stageThreshold>-1.1226294189691544e-01</stageThreshold>
      <weakClassifiers>
        <_>
          <internalNodes>
            0 -1 19 -2146352179 1883275296 8650889 -1223654891 16779464
            -1723326463 8927273 -1081081648</internalNodes>
          <leafValues>
            -9.6279066801071167e-01 8.5611510276794434e-01</leafValues></_>
        <_>
          <internalNodes>
            0 -1 14 -258952345 1342390273 36 83970309 32846 -1065320448
            -1607761782 -494883815</internalNodes>
          <leafValues>
            -9.2573612928390503e-01 8.5052776336669922e-01</leafValues></_></weakClassifiers></_>
    <!-- stage 15 -->
    <_>
      <maxWeakCount>2</maxWeakCount>
      <stageThreshold>-8.7937824428081512e-02</stageThreshold>
      <weakClassifiers>
        <_>
          <internalNodes>
            0 -1 22 1092078589 -1992294400 136382609 -742321136 565380
            -2126479295 413761673 -803176437</internalNodes>
          <leafValues>
            -9.0950226783752441e-01 8.4962403774261475e-01</leafValues></_>
        <_>
          <internalNodes>
            0 -1 11 152310023 302022661 1082132496 -2138020800 33554721
            -788504552 -2147445592 -108969824</internalNodes>
          <leafValues>
            -9.3455523252487183e-01 8.2156443595886230e-01</leafValues></_></weakClassifiers></_>
    <!-- stage 16 -->
    <_>
      <maxWeakCount>2</maxWeakCount>
      <stageThreshold>-2.2935369983315468e-02</stageThreshold>
      <weakClassifiers>
        <_>
          <internalNodes>
            0 -1 27 536888729 68354017 -65537 1862270975 -1862268925
            -1837101056 -1030847480 -71135098</internalNodes>
          <leafValues>
            -8.5407727956771851e-01 9.1735535860061646e-01</leafValues></_>
        <_>
          <internalNodes>
            0 -1 4 1086342227 1023492105 70144 272630800 609780363
            -1589607872 -2077720528 -1163853694</internalNodes>
          <leafValues>
            -9.3606406450271606e-01 8.3114188909530640e-01</leafValues></_></weakClassifiers></_>
    <!-- stage 17 -->
    <_>
      <maxWeakCount>2</maxWeakCount>
      <stageThreshold>-1.1676932126283646e-01</stageThreshold>
      <weakClassifiers>
        <_>
          <internalNodes>
            0 -1 36 855834895 1073955072 17891465 -651131887 2195565
            -1006468847 -2147319414 -618012540</internalNodes>
          <leafValues>
            -9.6172249317169189e-01 7.7931034564971924e-01</leafValues></_>
        <_>
          <internalNodes>
            0 -1 31 537985037 537154049 -997720047 -1854930936
            -2013232712 -1878949824 1082726809 -385580896</internalNodes>
          <leafValues>
            -8.9524090290069580e-01 8.4495317935943604e-01</leafValues></_></weakClassifiers></_>
    <!-- stage 18 -->
    <_>
      <maxWeakCount>2</maxWeakCount>
      <stageThreshold>-1.3710743188858032e-01</stageThreshold>
      <weakClassifiers>
        <_>
          <internalNodes>
            0 -1 17 -1005255391 -184483839 537989313 -785370879
            -1022869367 -2004877312 -1333755746 -1987540864</internalNodes>
          <leafValues>
            -9.8048782348632812e-01 7.5838923454284668e-01</leafValues></_>
        <_>
          <internalNodes>
            0 -1 23 5396121 -2147446651 -2147483621 -1977245695
            138969472 -1366292435 -1610250183 -325017600</internalNodes>
          <leafValues>
            -8.9549666643142700e-01 8.7250697612762451e-01</leafValues></_></weakClassifiers></_>
    <!-- stage 19 -->
    <_>
      <maxWeakCount>2</maxWeakCount>
      <stageThreshold>-7.5780712068080902e-02</stageThreshold>
      <weakClassifiers>
        <_>
          <internalNodes>
            0 -1 6 806092813 2139095057 -268435457 -1257734145
            -2009050995 -2004877184 -8216438 -289406816</internalNodes>
          <leafValues>
            -8.7068963050842285e-01 9.3442624807357788e-01</leafValues></_>
        <_>
          <internalNodes>
            0 -1 3 -2080259749 -2076966783 -2012184564 1778651137
            -1878949759 -1165983744 -1702887286 -376913853</internalNodes>
          <leafValues>
            -9.6635216474533081e-01 7.9490894079208374e-01</leafValues></_></weakClassifiers></_></stages>
  <features>
    <_>
      <rect>
        0 0 3 7</rect></_>
    <_>
      <rect>
        0 0 5 3</rect></_>
    <_>
      <rect>
        2 0 2 8</rect></_>
    <_>
      <rect>
        2 2 2 2</rect></_>
    <_>
      <rect>
        2 12 2 2</rect></_>
    <_>
      <rect>
        2 12 3 4</rect></_>
    <_>
      <rect>
        3 1 6 1</rect></_>
    <_>
      <rect>
        3 9 3 5</rect></_>
    <_>
      <rect>
        3 16 1 2</rect></_>
    <_>
      <rect>
        4 1 5 2</rect></_>
    <_>
      <rect>
        4 3 5 5</rect></_>
    <_>
      <rect>
        4 7 2 1</rect></_>
    <_>
      <rect>
        4 10 2 4</rect></_>
    <_>
      <rect>
        5 4 1 5</rect></_>
    <_>
      <rect>
        5 11 2 4</rect></_>
    <_>
      <rect>
        5 19 1 1</rect></_>
    <_>
      <rect>
        6 0 6 8</rect></_>
    <_>
      <rect>
        6 1 5 2</rect></_>
    <_>
      <rect>
        6 5 6 6</rect></_>
    <_>
      <rect>
        6 6 5 4</rect></_>
    <_>
      <rect>
        6 19 1 1</rect></_>
    <_>
      <rect>
        7 0 4 8</rect></_>
    <_>
      <rect>
        7 6 4 4</rect></_>
    <_>
      <rect>
        7 13 1 1</rect></_>
    <_>
      <rect>
        8 7 4 4</rect></_>
    <_>
      <rect>
        8 11 1 1</rect></_>
    <_>
      <rect>
        8 13 1 1</rect></_>
    <_>
      <rect>
        8 14 1 1</rect></_>
    <_>
      <rect>
        8 15 1 1</rect></_>
    <_>
      <rect>
        8 17 1 1</rect></_>
    <_>
      <rect>
        9 0 5 5</rect></_>
    <_>
      <rect>
        11 8 3 2</rect></_>
    <_>
      <rect>
        15 1 3 6</rect></_>
    <_>
      <rect>
        15 2 3 5</rect></_>
    <_>
      <rect>
        15 4 3 3</rect></_>
    <_>
      <rect>
        15 4 3 5</rect></_>
    <_>
      <rect>
        15 6 3 1</rect></_>
    <_>
      <rect>
        17 5 1 1</rect></_>
    <_>
      <rect>
        19 14 1 1</rect></_>
    <_>
      <rect>
        20 13 1 1</rect></_>
    <_>
      <rect>
        20 15 1 1</rect></_></features></cascade>
</opencv_storage>
